2851 100
<VAR_NAME> 0.032378 0.448052 0.219736 -0.764926 1.241033 -1.437837 -0.449938 0.183087 0.897966 0.416853 -1.544174 -0.439237 -1.836296 0.702203 -0.695194 0.214775 -1.319957 1.218777 -0.879235 -0.602100 -0.327322 -0.705568 0.497776 0.387725 -0.611929 -0.159714 0.488620 -0.246136 0.580036 -0.613094 -0.257604 -0.337912 0.108954 0.330142 0.741741 -0.912212 0.468635 -0.373479 0.638811 0.951229 0.140929 -0.201501 -0.840805 0.271329 0.536982 0.111766 -0.172965 0.142346 -0.313880 0.748306 0.150728 -1.195003 0.167362 0.573129 -0.082126 -0.810685 -0.774605 -0.017905 0.592628 -0.607669 -0.899117 -0.297653 0.032574 -0.309068 0.908973 0.647944 -0.979489 0.677812 -0.100216 -0.230342 0.418213 0.705893 -0.199777 0.194348 -1.451260 0.970122 1.185069 -0.203986 1.133542 1.377725 0.358727 1.319664 -0.309400 -0.037228 -0.223676 -0.332067 1.012652 -0.037136 0.340935 0.339373 -0.792403 0.956281 0.039136 -0.913784 0.187318 0.901520 -0.359353 -0.850013 -0.337516 1.044126
( -0.309998 0.469279 -0.411257 -0.267743 0.874364 -0.785782 -0.168195 -0.359161 0.707512 -0.378300 -0.596817 -0.765179 -0.545232 1.040445 -0.303777 -0.226531 -0.741540 -0.399313 -0.425927 -0.037866 0.232912 -0.889575 1.367900 0.821214 -0.000478 0.351120 -0.296842 -0.234079 1.220119 -1.258081 0.272598 0.845693 0.400597 0.216487 0.783988 -0.731006 0.542910 -0.272406 -0.052255 1.201115 0.104023 -0.645023 -0.041619 0.510195 0.548101 -0.376002 -0.655823 -0.553024 0.412464 0.606290 -0.091971 -0.283501 0.006941 1.223320 -0.214445 -1.263657 -1.073189 -0.912471 -0.288596 0.499313 0.120571 -0.725040 0.043905 0.170042 1.052252 1.491016 -0.313591 0.884393 -0.588990 -0.761253 0.741324 0.599451 -0.391257 1.236167 -0.823422 0.202550 0.779281 0.495920 0.675399 1.440453 0.463959 0.454478 -0.161157 -0.304510 0.874580 -0.318921 -0.144989 0.578349 -0.372567 0.964863 -0.202037 0.010360 0.128746 -0.514673 -0.589336 0.484668 -1.065090 0.270734 0.031244 1.417150
) -0.176790 0.964727 -0.307310 -0.005385 0.351294 -1.345756 -0.304598 -0.436304 0.727691 0.197310 -0.770984 0.158316 -0.561559 1.433126 -0.503295 -1.002145 -1.933107 -0.517730 -0.015050 0.191908 -0.154811 -0.327077 0.740222 0.394291 0.427859 0.829106 -0.608257 -0.250546 1.023991 -0.332078 -0.323103 0.670882 1.033795 0.593735 0.299921 -0.827926 0.351927 0.311498 -0.227495 0.817911 0.116563 -1.258318 0.327883 0.671821 0.008581 0.140318 -0.195447 -0.133917 -0.118456 0.321741 0.240256 -0.585997 -0.029497 -0.112450 -0.412103 -1.141774 -0.850965 -0.448230 0.199807 0.458652 -0.787398 -0.961204 -0.396824 -0.177883 0.369013 0.897112 -0.679608 1.235783 -0.945003 -0.268185 0.776331 0.048306 -0.357101 1.044165 -0.982859 0.241098 0.948974 0.364557 0.341757 0.142499 0.185655 0.613372 -0.448338 0.232117 -0.019694 -0.334626 -0.503460 0.618244 0.179885 0.288778 -0.161909 1.103107 -0.544445 -0.811865 -0.223691 0.528450 -0.509664 -0.112168 0.111302 1.243815
, 0.922478 1.141296 -0.268645 -0.299931 0.238056 -1.187216 -1.366295 1.257368 0.093966 -0.892595 -0.018973 0.538101 0.030824 0.062796 -0.365919 0.184578 -0.357130 -0.339350 -0.142584 0.947771 -0.185106 -0.291986 0.760555 1.068766 0.316948 0.765754 0.536971 -1.020854 -0.264041 -0.846808 -0.217290 0.275324 -0.625927 -1.116705 1.152366 -0.725217 -0.177309 0.493036 -0.113413 0.720750 0.139504 -0.451363 0.540963 1.282377 -0.732950 -0.648664 -2.233615 0.151562 0.169683 -0.621028 0.320482 -1.645403 0.280436 0.367707 -0.040470 -0.799767 -0.943031 -0.206642 -0.093612 -0.091740 -0.795569 -0.477443 0.309680 -0.631880 0.744048 1.350264 -2.082454 0.945051 -0.063677 -0.436242 -0.053494 1.123051 -1.196733 0.710456 -0.645817 0.926363 1.901820 0.633126 1.337052 -0.205821 -0.156614 0.009886 -0.221581 -1.200035 -0.132378 0.465518 0.506848 0.258775 -1.035572 0.533154 0.347828 0.695141 -0.782142 -0.390435 -0.082889 0.782032 -0.308164 -0.267841 -0.053616 0.558735
. -0.747386 0.412497 0.297117 -0.918283 0.315510 -0.267264 -0.310666 -0.871448 0.349853 0.941974 -0.956590 -0.284520 -1.506082 1.171727 -0.205231 -0.361549 -0.942089 0.390431 -0.459579 -0.247959 -0.838463 -1.542556 0.151608 0.412013 -0.720564 0.045374 -0.154554 -0.604401 -0.037506 -0.571432 0.594250 0.636475 0.782267 0.604299 -0.307240 -0.899604 -0.033290 0.080560 0.873038 1.328608 -0.637585 -0.361150 0.167498 0.237267 0.501174 0.706005 -1.029046 -0.150651 0.639199 0.750998 0.598465 -0.213798 0.086821 1.464436 -0.262432 -1.162273 -0.940645 -1.210871 0.910358 0.680870 0.237431 -0.130003 -0.582537 0.156648 -0.059099 1.246826 0.058195 0.914461 -0.314732 -0.713928 0.618932 0.510967 -0.355840 1.035517 -1.576060 -0.094128 1.451238 0.485001 0.967851 0.694506 0.197605 0.998362 -0.502271 -0.878452 0.286313 -0.050618 0.312672 0.488782 -0.356035 -0.220265 0.406837 0.648392 -0.407324 -0.728899 -0.660412 -0.240078 -0.751268 -1.225030 -0.137554 1.165612
= -0.544128 0.721263 0.881609 -0.945700 0.550214 -1.121851 -0.437562 0.130479 0.847165 0.235870 -0.576162 -0.253704 -1.379671 0.691207 0.152087 0.529866 -0.536759 0.098392 0.443082 -1.157938 -0.603010 0.142225 0.453173 0.198915 0.009744 0.929358 -0.255390 -1.053593 0.603442 -0.846874 -0.433905 -0.308880 0.835512 -0.186562 -0.791572 -0.998193 0.004438 -0.317880 0.426620 1.246041 0.019116 -0.733296 -0.144271 1.000501 0.346816 0.176000 -0.409426 -0.048380 0.120499 1.255649 1.336474 -1.321455 0.282249 -0.191851 -0.106600 -0.517516 -0.770564 -0.339683 0.865976 -0.217257 0.027988 0.028675 -0.960805 -1.415274 0.630123 0.900962 -1.174697 0.744368 0.157792 -0.225099 -0.269027 0.079066 0.339209 -0.534755 -0.613460 0.656342 1.274427 0.026935 0.978556 0.180700 0.412122 0.476006 -0.118129 -0.421944 -0.318776 -0.837177 0.848312 1.071384 0.629267 0.898492 0.749132 0.472237 0.480584 -1.534570 0.770937 0.299098 0.413592 -0.056035 -0.558142 1.272695
[ -0.567413 0.560098 -0.559499 -0.273101 0.776337 -0.534987 -0.639607 0.603363 1.493541 -0.070523 -1.372799 0.685536 0.282269 1.195268 -0.795026 0.220492 0.176127 0.505520 -0.335547 -0.397909 -0.215372 -0.774891 -0.383460 0.441824 -0.370015 0.825930 0.465724 -0.175893 0.113038 0.303223 -0.415415 0.321990 1.416725 -0.509658 -0.349796 -0.470301 0.473696 0.391246 0.199589 0.940935 -0.286549 -0.479553 0.528255 0.608958 0.010030 0.330040 -1.292236 -0.048807 -0.560258 0.016760 0.088815 0.595545 -0.195908 0.334149 -0.495650 -0.248910 -0.231633 -0.442251 0.324874 -0.751556 -1.090479 0.077603 -0.780289 -1.238678 1.736525 2.234117 -1.091847 0.458034 -0.559502 0.073442 0.045919 0.966766 0.298370 0.111662 -0.066789 -0.000471 0.604940 0.307428 0.172569 0.727733 0.040366 1.015702 0.004267 -1.299942 0.529937 -0.019430 0.826902 0.290999 -1.222519 0.037403 0.109172 -0.533961 -0.710712 -1.341177 -0.009963 2.134732 -0.701379 -0.366950 0.673172 0.015110
] -0.250013 0.765941 -0.413068 -0.447325 1.051799 -0.632085 -0.795600 0.449658 1.505668 -0.013659 -1.205621 1.032100 0.104301 1.222345 -0.911252 0.097131 -0.050500 0.627186 -0.186849 -0.199440 -0.067728 -0.635548 -0.330733 0.574052 -0.446032 0.914211 0.386753 -0.496104 -0.074014 0.399274 -0.575284 0.144568 1.591250 -0.322740 -0.339062 -0.391421 0.855861 0.744302 -0.151781 0.437620 -0.181318 -0.239776 0.597543 0.593687 -0.209070 -0.025458 -1.381232 -0.121059 -0.652617 -0.040120 0.089660 0.369056 -0.554781 0.171844 -0.408669 -0.610878 -0.353507 -0.415996 0.585217 -0.732777 -1.221841 0.129318 -0.711063 -1.181925 1.416407 2.101804 -1.386048 0.928878 -0.528491 0.128712 0.223795 0.874438 -0.118071 0.547119 0.059359 0.354899 0.798476 0.138059 0.336161 0.502919 0.225398 0.938715 0.103798 -0.905310 0.207108 -0.089112 0.196113 0.205747 -1.100752 -0.396510 0.195144 -0.207817 -1.015895 -0.875952 0.049424 1.713335 -0.479261 -0.375949 0.488829 -0.051368
: -0.478370 0.137517 -0.346168 -0.917581 0.964499 -1.346287 -0.339966 0.609892 -0.103530 -0.599452 -1.088523 1.135264 0.054449 0.463287 -0.289401 0.304429 -0.965982 0.515111 0.404720 -0.767334 -1.639540 0.174132 -0.002886 0.192125 -0.055136 0.264434 -0.710851 -0.129802 -0.432927 -0.097034 0.104387 0.822724 0.725500 0.375940 0.553446 -0.378612 -0.410587 -0.127074 -0.551135 0.189750 0.797895 -0.235970 -0.465170 1.086407 0.462682 -0.057342 -0.173861 -1.063125 0.239983 0.821714 0.593830 -0.651004 -0.096047 0.178732 -0.342291 -0.911960 0.300544 -0.531693 0.382252 -1.519155 -0.554139 -0.045933 0.462162 -0.077347 1.400942 0.910808 -0.580228 0.857381 -0.052743 0.060471 0.930546 0.560542 -0.957633 1.783057 -0.501121 -0.253821 1.832322 0.321912 0.765840 0.265181 -0.061252 0.922093 0.941788 -0.098276 0.065481 -0.251182 0.495087 0.198079 -0.265294 -0.243054 0.378514 0.056992 -0.112329 -1.536573 0.458837 1.965734 -0.364191 -1.238326 0.306994 -0.773380
in 0.248326 -0.031068 -0.815601 -0.237737 0.865269 -0.761412 0.588160 -0.355640 1.001444 0.456611 -1.176182 0.337157 0.263005 0.981267 1.491513 -0.417812 -0.621968 0.583568 -0.656577 -1.137092 -0.459231 -0.160537 -0.110503 0.124495 -1.359897 0.295991 -0.088478 -0.009473 1.251708 -0.580592 -0.210783 0.494592 0.596851 0.729375 0.731856 0.413021 0.065112 0.234114 0.227740 0.526914 -0.113368 0.040125 -0.284172 -0.111078 0.109357 -0.016312 -1.049224 -0.492677 0.201453 0.294519 0.516989 -1.130040 0.114508 0.211922 0.352786 -1.396169 -0.432973 -0.276954 0.134160 -0.098921 -1.165161 0.376786 0.196613 -0.972592 0.728674 0.862288 -0.674141 1.212231 -0.677364 -0.081761 0.467684 0.274578 -0.305611 0.097846 -0.647274 0.057346 1.585872 0.479347 0.492399 0.086462 -0.093044 1.014861 -0.255416 0.038993 0.278787 -0.337089 0.263151 0.193447 -1.001710 0.511206 0.633341 0.734496 -0.007620 -1.188334 -0.762437 0.935356 -0.100544 -0.184425 -0.078006 0.672044
1 1.074975 0.486573 -0.355385 -0.225372 0.140029 -0.969177 -0.387057 -0.559318 -0.254002 -0.018007 -0.529702 0.155999 -0.705959 1.217884 -0.697946 -0.023964 0.040838 -0.239617 -0.526832 -0.267328 -0.926105 0.200300 -0.435231 0.449191 -0.103057 0.189421 0.189937 -0.498903 0.305644 -0.280065 -0.799894 0.880060 0.673493 -0.261887 0.259714 -0.578729 0.770944 -0.601792 0.353463 0.701165 -0.100349 -0.675779 -0.405120 1.153968 0.713791 -0.453755 -0.601768 -0.451366 0.051242 0.192515 0.520576 -0.407211 -0.393505 0.234940 -0.572136 -0.438443 -0.612758 -0.798138 0.065232 -0.875385 -0.733877 -0.053984 0.221115 0.214078 1.069943 1.114426 -1.092283 0.744123 -0.435703 -0.093300 0.285115 0.167238 0.215316 1.210006 -0.700819 0.105821 1.319977 0.179410 0.871451 0.304850 -0.527884 0.587795 0.440886 -0.615940 0.890840 0.048004 0.544811 0.372924 -0.215951 0.169804 0.487768 0.073024 -0.613172 -0.937590 -0.045632 1.033079 0.205766 0.513808 0.389095 0.618569
for 0.344006 0.193974 -0.769434 -0.306139 0.767883 -0.938304 0.359839 -0.143909 0.863315 0.363891 -1.142890 0.180557 -0.033888 0.954633 1.065844 -0.417279 -0.583760 0.531894 -0.623871 -0.842410 -0.446324 -0.136003 0.027475 0.033660 -1.025916 0.348782 -0.160447 0.050452 0.983500 -0.320833 -0.207109 0.654768 0.604440 0.504672 0.721908 0.102245 0.068789 0.072688 0.108756 0.659146 -0.054099 -0.015552 -0.249409 -0.157957 0.095131 -0.029067 -0.750426 -0.467627 0.240092 0.115132 0.457223 -1.080280 0.038396 -0.026009 -0.039427 -1.382616 -0.424548 -0.192642 0.046692 -0.008718 -1.161561 0.338217 0.219896 -0.976612 0.781542 0.816861 -0.652657 1.436215 -0.699169 -0.031912 0.511348 0.330919 -0.476256 0.077784 -0.621324 0.208170 1.519470 0.695256 0.534592 0.029749 -0.102487 0.847649 -0.174059 0.131402 0.366788 -0.369756 0.421852 0.246648 -0.947643 0.380894 0.449083 0.836306 0.027035 -1.132308 -0.711711 0.892621 -0.067724 -0.197808 -0.229027 0.699534
import -0.419203 -0.388091 0.075948 -1.221063 0.158929 -0.156074 -0.683855 0.030203 0.299761 0.687145 -0.486159 0.183476 -1.161208 0.925262 -1.374936 0.216115 -0.753240 -0.212011 -0.764261 -0.245622 0.394286 0.476938 -0.239147 0.408692 -0.903204 1.612607 -0.065942 -0.131118 0.733834 -0.758045 -0.650067 0.407036 0.674432 -0.047065 0.404317 -0.043389 0.254939 0.253883 0.444372 0.437725 -0.335358 -0.235022 0.387113 0.654033 0.371632 0.797011 0.085715 -0.606997 0.893655 0.389222 0.341211 -0.864055 0.448937 1.297575 -0.319375 -0.257028 -0.246325 -0.839395 0.674003 0.026152 -0.761786 0.400911 -0.532587 -0.101768 0.273604 0.660223 -0.549152 0.919199 -0.375621 0.627382 0.553678 0.275192 -0.015742 0.380390 -1.073720 0.006041 1.380465 -0.160228 0.928246 0.568134 0.006280 1.133756 -0.485749 0.249116 -0.686934 0.120028 0.555887 0.439980 0.214699 0.019818 0.355762 0.721859 0.246185 0.022254 0.506605 0.955376 -0.445332 -0.358721 -0.140323 0.495004
- 0.747271 -0.123409 -0.534009 -0.825624 0.021766 -0.542802 0.873786 0.008202 -0.294930 0.138176 -0.831194 -0.259259 -1.036261 0.640874 -0.056712 0.398806 0.068933 0.311269 -1.224544 -0.640107 -0.609730 0.150073 0.353789 0.723802 0.501545 0.088867 0.575751 -0.720927 0.501718 0.184067 -0.662598 -0.407455 1.521487 -0.388179 0.917326 -0.895780 0.780777 -0.543987 -0.331739 0.131073 -0.814968 -0.454776 -0.509541 0.707781 0.988718 0.729844 -0.989641 0.342520 -0.134457 -0.163206 0.666672 0.048986 0.311412 0.272723 -1.292395 -0.421950 -0.631036 -0.100808 0.999289 -0.871381 -0.443703 -0.936383 0.744259 -0.100934 1.111635 0.640476 -0.237434 -0.084496 -0.622504 0.329904 0.451277 0.255413 -0.289692 0.873859 -1.966544 0.562781 0.975718 0.932609 1.553325 0.305333 0.178482 0.787543 0.716247 -0.624431 -0.276235 -0.425121 0.587274 -0.753838 0.307461 0.286460 0.076104 0.520998 -0.685574 -0.499685 -0.637882 0.808726 0.254239 -0.357439 -0.868515 0.138331
0 0.622795 0.298788 -0.339792 -0.727853 0.300759 -0.473582 -0.182362 -0.402575 0.324179 0.069472 -0.068485 0.057528 -1.126149 1.152233 -0.491713 -0.069028 -0.133650 0.085011 -0.679354 -0.363280 -0.503479 -0.203478 -0.416370 0.374428 0.049382 0.067463 0.113521 -0.373182 0.243827 0.483347 -0.729007 0.827523 0.394698 -0.387117 0.291269 -0.752913 1.026806 -0.299175 0.252766 1.355881 -0.736956 -0.015959 0.184828 1.032937 0.650081 -0.242801 -0.675047 -0.091571 0.052208 0.145146 0.449134 -0.192769 -0.307070 -0.029235 -0.663744 -0.704350 -0.534977 -0.552349 0.404104 -0.115667 -0.843499 -0.285642 0.497628 -0.315583 0.641175 1.659335 -1.086414 0.971255 -0.370807 -0.305176 0.364922 -0.099427 0.210618 0.561055 -0.525084 0.449415 1.395871 0.341398 0.778767 0.546307 -0.309593 0.352765 0.242558 -0.561187 0.466420 -0.352378 0.027066 -0.020244 -0.354158 -0.022695 0.270846 -0.331494 -1.319147 -0.998849 -0.221435 0.660699 0.529188 -0.127614 0.529017 0.358054
print -0.595949 0.002992 -0.724859 -0.856758 0.537563 -0.796867 0.014694 -0.002618 0.528058 0.128744 -0.502951 0.223841 -1.041532 0.489445 0.040727 0.581856 -1.545592 0.088738 0.698692 0.080667 -0.694856 0.316657 -0.265898 0.261470 -1.017338 0.552525 0.275999 0.151175 0.782831 -1.088733 -0.496862 0.632095 0.860191 1.108988 0.383509 -0.493295 0.239259 -0.855339 -0.469958 0.207854 0.470295 -0.626271 -0.248585 0.479335 -0.416682 0.745246 -0.075547 -0.650163 0.906591 0.026888 -0.306892 -0.068083 -0.637760 0.240294 -0.703407 -0.448533 0.489287 -0.480244 0.132162 -0.361438 -0.822103 -0.226904 -0.107595 -0.679785 0.772990 1.085606 0.637142 0.399906 -0.869271 0.581805 0.444792 0.126961 -0.455053 -0.230321 -0.418967 0.316037 1.492279 0.812217 0.785656 -0.038621 0.352098 0.700250 0.164259 0.721411 0.154312 -0.336477 0.382449 0.904928 -0.379238 0.429142 0.545820 0.774256 0.611003 -0.757831 0.001471 0.418938 0.415175 -0.117182 0.083183 0.469475
2 0.604284 0.059720 -0.614895 -0.393948 0.363868 -0.709781 -0.396432 -0.725175 -0.211650 0.196350 -0.313204 0.747183 -0.428573 0.693470 -0.621170 0.007015 -0.122736 0.006419 -0.693040 -0.115337 -1.009368 0.217963 -0.139978 0.514873 0.202548 0.197682 -0.037454 -0.628006 -0.280840 -0.555072 -0.811069 0.408314 0.887200 -0.108184 -0.101259 -0.232859 0.575597 -0.428679 0.251539 0.183554 -0.440961 -0.551315 -0.032779 0.917679 0.378908 -0.039387 -0.311372 -0.294615 0.082271 -0.276769 -0.000198 -0.191477 -0.653821 0.625836 -0.685591 -0.589709 -0.268252 -0.547088 0.713560 -0.391437 -0.386365 0.070795 0.039113 0.225867 1.370556 0.759686 -0.905120 0.589536 -0.292368 -0.175232 0.427915 0.668013 0.147609 0.808965 -0.267926 0.496139 1.273797 0.053533 0.546113 0.710444 -0.345376 0.435822 -0.202847 -0.240827 0.758895 -0.112051 0.763282 0.720391 -0.418476 0.075188 0.593699 0.001991 -0.818369 -0.612655 0.139708 0.924058 0.138398 0.661125 -0.348739 0.464533
{ -0.238531 0.212997 0.078099 -0.145273 0.545846 -1.584054 0.114439 -0.204359 0.733349 -0.013986 -1.206790 0.384465 -0.028791 -0.152339 -0.055927 -0.743623 -0.077313 0.348571 -0.391943 -0.951333 -0.690159 0.275612 0.352414 -0.367200 -0.080758 0.649955 -0.927216 0.620219 -1.250549 -1.232150 -0.618214 0.055739 0.785583 -0.383659 -0.145556 0.022281 -0.578222 -0.505654 0.334140 0.464677 0.551731 -1.100284 -0.257396 0.572109 0.012577 1.291297 0.436625 -0.754984 -0.323668 0.556598 0.489710 -0.800131 0.273780 0.325668 -0.419809 -0.768182 -0.007531 -0.344868 0.289911 -1.291558 0.595026 0.061575 -0.472976 -0.058146 1.299754 0.887332 -0.485176 0.196942 -0.330121 -0.138359 0.914514 0.369489 -0.047609 1.350942 0.377936 -0.256858 1.358657 0.489583 0.293426 0.232053 -0.707327 0.280945 1.244503 -1.173234 0.664547 0.180859 1.017975 0.896631 -1.150008 -0.255063 0.774789 -0.058296 -0.486337 -1.073372 0.365013 1.042045 -0.368155 -0.419602 0.390388 -0.462286
} 0.182831 0.337651 0.036560 -0.294528 0.530615 -1.299143 -0.080724 -0.088063 1.002554 -0.131614 -1.012251 0.389886 -0.223770 -0.186089 -0.211817 -0.378493 -0.150116 0.404125 -0.289695 -0.458391 -0.337539 0.512733 0.199672 -0.288631 -0.030432 0.656984 -0.541707 0.165326 -0.854459 -1.310285 -0.814121 0.282101 0.899549 -0.279754 0.012973 0.068277 -0.472870 -0.325800 0.252928 0.063532 0.438463 -0.600058 -0.002268 0.785323 -0.361624 0.941708 0.096898 -0.665198 -0.263598 0.348090 0.758042 -1.138517 -0.168022 0.096569 -0.306404 -0.980885 -0.099617 0.053228 0.534637 -1.010105 0.011614 0.167432 -0.079249 -0.266791 1.107373 0.729902 -0.635299 0.406874 -0.205677 -0.059205 0.851003 0.095136 -0.351631 1.441133 -0.026699 0.084186 1.426596 0.487376 0.428644 0.078150 -0.537588 0.179924 1.027716 -1.020568 0.151720 0.113408 0.626352 0.577391 -0.891223 -0.346353 0.867435 0.454345 -0.175038 -0.774610 0.585490 0.617811 -0.367236 -0.587299 0.402272 -0.425377
+ 0.149226 0.750129 -0.278281 -0.506168 -1.259333 -0.399941 -0.458510 -0.283233 -0.402071 0.509610 -1.098622 0.226522 -0.623619 0.791252 -0.354483 -0.024847 0.027529 -0.012711 -0.638806 0.045648 -0.067723 0.417243 0.090182 -0.499754 0.173271 -0.026979 -0.135897 -0.225677 0.803100 -0.095387 -0.651875 -0.100584 0.623965 0.264552 0.360822 -0.595726 0.842156 0.006514 -0.486371 0.399824 0.084411 -0.261290 0.068775 -0.097777 0.295205 0.417987 -0.395484 0.297278 -0.271777 -0.353011 0.041862 -0.726801 -0.005061 0.277595 -0.526126 -0.837091 -0.096662 0.091927 0.582561 -0.768808 -0.283564 0.642443 0.033097 -0.318873 1.140810 0.416453 0.885831 0.863292 -0.831666 -0.012409 -0.001658 0.088227 -0.831497 0.832240 0.223206 0.395075 0.739858 0.784824 1.214769 0.617270 0.448914 0.587502 -0.241760 0.467434 1.019991 -0.343999 1.019042 0.896301 -0.244631 0.203633 0.101203 0.354979 -1.610903 -1.287015 -0.260790 0.874373 0.345587 1.135778 -1.003243 0.739147
if -0.100244 -0.480575 -0.257176 -0.134796 0.864660 -0.589724 0.146074 -0.570832 0.731150 0.188664 -0.959499 0.220077 -0.713994 0.682401 -0.064350 -0.102329 -1.245118 0.360169 -0.873140 -0.175957 -0.700443 -0.752406 -0.320107 0.422804 -0.890179 -0.038704 -0.381575 -0.045200 1.098325 0.245857 -0.412616 0.644963 0.268624 0.441647 0.568429 0.050789 -0.251457 -0.601050 -0.003289 0.202733 0.109462 -0.341412 -0.737895 -0.108430 -0.331461 0.364661 -0.742813 -0.677309 0.340609 0.125734 0.557760 -0.522113 0.230944 -0.517446 0.095486 -0.813270 0.063090 -0.225317 0.251451 -0.603902 -0.668764 0.074742 0.383399 -0.247032 1.057518 1.186748 -0.131348 1.518773 -0.421201 0.320938 0.473967 -0.329812 -0.701902 0.336810 -0.475675 -0.003197 1.693500 -0.217638 0.251907 0.160238 -0.210765 0.403763 0.114374 0.861306 0.164007 -0.023577 -0.139965 0.277392 -0.686972 0.180306 0.871509 0.208517 -0.858834 -0.540178 -0.251729 0.958238 -0.182766 -0.089112 -0.198001 0.001198
/ 0.753337 0.356234 0.434680 -0.586593 -0.383112 -1.052027 -0.042139 0.231235 0.514134 0.306717 -0.249468 1.152391 -0.385791 0.658249 0.411485 -0.511225 -0.459393 0.863703 -1.025872 -1.178590 -0.334627 -0.738092 0.365519 0.138005 0.404598 -0.420931 -0.179001 -0.432283 0.031695 -0.684004 -0.916142 -0.345952 1.489273 -0.377646 0.794913 0.741426 0.383105 -0.789080 -0.197695 0.080689 -1.484755 -0.603230 0.376095 0.096369 0.605899 0.279460 0.059943 0.032146 0.177552 -0.379942 -0.109052 -0.297446 0.371482 0.553952 -1.039767 -0.113490 -0.502614 0.285631 0.854114 -0.306751 -0.561461 0.154393 0.320331 -0.084083 1.221923 -0.233046 0.011443 -0.404193 -1.490211 1.151576 0.334702 0.535935 -0.215944 -0.196306 -1.367540 0.651677 0.911346 1.092427 1.694260 0.806766 0.302206 0.721981 0.423133 -0.168414 -0.265849 -0.128499 0.583608 -0.454409 -0.059026 -0.300463 0.988403 0.338992 -0.876079 -0.370217 0.719252 0.190326 -0.767697 0.015340 -1.343585 0.047719
3 0.589517 -0.048776 -0.826399 -0.669629 0.568396 -0.350444 0.003324 -0.561172 0.152333 0.084582 -0.177945 0.795829 -0.241875 0.365980 -0.408151 -0.150262 0.099556 -0.115815 -0.499595 -0.002931 -0.703552 0.361527 -0.284665 0.527917 0.178784 0.252296 0.069454 -0.401541 -0.411951 -0.831829 -0.905471 0.573411 0.723643 0.113474 -0.106062 -0.048600 0.516217 -0.278792 -0.010048 0.340144 -0.057205 -0.570368 -0.176183 1.061676 0.399348 -0.298204 -0.247646 -0.148135 -0.128850 -0.232775 0.259640 -0.360244 -0.599996 0.418264 -0.625691 -0.343036 -0.208653 -0.474395 0.385782 -0.400608 -0.224502 -0.003689 -0.148360 0.221166 1.335954 0.977158 -1.318443 0.392889 -0.140154 -0.421241 0.521765 0.563810 -0.014724 0.733154 -0.065292 0.520627 1.323289 0.099274 0.419940 0.304156 -0.259932 0.414404 -0.074120 -0.275768 0.789107 0.046937 0.685946 0.759820 -0.503964 0.280584 0.494062 -0.028653 -0.697854 -0.490483 0.225772 0.625045 0.150114 0.406259 -0.237877 0.858830
* 0.125793 0.709101 -0.945422 -0.704187 -0.121897 -0.626123 -0.791636 -0.111869 0.148172 -0.142849 -0.231073 0.455084 -0.340900 0.572716 0.224492 -0.556531 -0.208961 0.429710 -0.138895 -0.416619 -0.011044 0.438420 0.681780 -0.019267 0.792887 0.201618 -0.334610 -0.866148 0.103239 -0.051662 -0.571260 -0.781877 0.588668 -0.070778 0.338684 -0.237550 0.861124 0.482202 0.317328 -0.122611 -1.085820 0.164141 0.373886 -0.054411 0.352628 0.160004 0.185710 -0.457984 0.446691 0.045453 -0.260764 -0.684523 -0.071322 0.854702 -0.867654 -1.155284 0.063906 -0.003436 1.083208 0.267673 -0.770867 0.176787 1.160829 -0.403358 1.060256 0.549248 -0.452034 0.732436 -1.094865 -0.136633 -0.021026 0.324917 0.012228 0.951979 -0.672357 0.257572 0.777666 -0.060075 1.052228 1.482341 0.045427 0.344832 -0.848315 0.087702 0.683582 -0.903110 0.467801 0.785959 -0.211018 0.519088 -0.205001 0.589634 -0.604767 -1.079758 0.438728 0.595049 0.257502 0.172894 -1.202359 0.183191
from -0.311586 -0.122516 -0.395405 -1.170156 -0.179218 -0.406499 -0.430487 -0.119873 0.193243 0.369195 -0.701077 0.142992 -0.700170 0.659936 -1.022283 -0.009836 -0.612334 0.182011 -0.498724 -0.416927 0.690361 0.689725 -0.047493 0.599762 -0.853490 1.691674 0.098052 -0.142189 0.693164 -0.753046 -0.919376 0.250103 0.483592 -0.203481 0.327013 -0.281638 0.233350 0.143968 0.181893 -0.200248 -0.663478 -0.196601 0.016394 0.276706 0.630447 0.334703 -0.101961 -0.910881 0.251456 0.376377 0.490034 -0.845868 0.294120 1.349457 -0.588384 0.007072 -0.329425 -1.003919 0.521771 -0.158064 -0.857358 0.725282 -0.132571 -0.298824 0.327877 0.457311 -0.550753 0.973169 -0.619240 0.636032 0.083489 -0.419829 0.328933 0.997147 -0.775597 0.042504 1.392161 -0.237998 0.987741 0.188270 0.119364 1.079546 -0.479336 -0.069169 -0.264216 0.141142 -0.092678 0.848663 0.183230 -0.008087 -0.025533 0.721492 -0.125853 -0.149430 0.244089 0.587399 -0.060912 -0.354234 0.106730 0.556160
def -0.460153 0.370160 0.185497 -0.688918 0.853441 -0.514999 -0.049690 -0.226636 -0.291261 0.102782 0.115026 0.699686 -0.381079 0.149252 -0.816123 0.335445 -1.545426 0.335282 -0.444299 -0.105562 0.312026 -0.252853 0.632787 0.506179 0.341331 0.512113 -0.316506 -0.609406 1.179492 -0.522046 -0.551912 -0.304262 0.564139 0.146913 0.384753 -0.237821 0.043948 -0.741965 -0.371563 -0.044952 0.202034 -0.016470 0.241991 -0.474693 0.344656 0.415232 0.152073 -0.806717 -0.027107 -0.044288 0.643014 -0.705200 -0.443215 0.422155 -0.019917 -0.927556 -0.132575 -0.284179 0.540112 -0.074256 -0.523541 0.707207 0.176202 0.391810 0.656349 0.813271 -0.114441 0.670139 -0.034103 -0.086424 0.760243 0.625018 -0.582517 1.241457 -1.041168 -0.328708 0.985592 0.476494 0.320560 0.791219 0.807744 0.763925 -0.704072 0.433717 0.110817 -0.416592 0.287474 0.254954 -0.170539 0.102046 0.654670 0.485488 -0.320025 -0.233518 -0.614982 0.484249 -0.064338 -0.248121 -0.490122 0.201953
re 0.506008 0.465759 0.178749 -0.970247 -0.513636 0.084388 -0.547309 -0.416877 0.835412 0.831762 0.312365 0.360080 -1.232386 0.526012 0.598256 0.262685 -1.274652 -0.622734 -0.457339 -0.409604 -0.060089 -0.054920 -0.509512 -0.036455 -0.507401 0.468184 -0.599111 -0.152223 0.482143 -0.338959 0.110292 0.169923 0.107495 0.183835 0.555975 -0.524541 0.162814 0.208226 -0.348499 0.343094 0.591246 -0.333528 0.781371 1.373071 -0.775897 1.345213 -1.176464 -0.382658 1.195385 -0.405473 0.540398 0.379903 -0.123759 0.098533 -0.276115 -0.932291 -0.270665 0.631979 0.217121 -0.260509 0.000708 0.235446 0.150897 -0.129346 0.589464 0.701282 0.143005 1.257894 0.013231 -0.267691 0.318352 0.559698 -0.596447 -0.424503 -0.937295 0.022640 1.188991 -0.677704 0.445974 0.715114 0.157815 0.525380 -0.255721 -0.536860 -0.552070 -0.290319 0.321487 0.443992 -0.490539 -0.108732 1.126471 0.729151 0.766411 -0.195242 0.056577 0.390233 -0.510535 0.479044 -0.084541 0.304021
np -0.456588 -0.459117 0.333618 -0.711049 0.094386 0.851473 -0.340116 -0.871207 0.224306 -0.334592 0.373926 1.367865 -1.815531 0.327134 0.215693 -0.286377 0.674080 -0.358693 -0.820691 0.321942 -0.550931 -1.193219 0.387713 0.403740 0.445500 -0.166734 0.266150 -0.690204 -0.034140 0.195888 -0.373676 1.264595 0.593124 -0.024432 0.122888 0.334041 0.414689 0.082157 0.410811 0.831112 -1.100427 -0.380480 -0.143164 0.245569 1.105542 -0.401253 -0.100349 -0.498684 0.341081 -0.399161 0.505906 0.326765 -0.463228 0.621765 -1.625185 -0.140710 0.524263 -1.111254 0.528776 0.971377 -0.126783 0.734753 -0.065355 0.322046 0.119793 0.980950 -0.784527 0.216656 -0.280165 -1.247310 0.252734 1.161308 0.013108 0.634331 -1.073297 0.939129 0.399690 0.391260 0.455395 0.277147 0.080117 -0.139415 -0.539984 -0.527930 0.935884 -0.654002 0.309192 0.681065 -0.289874 -0.059750 -0.484759 -0.540218 0.007536 -1.217794 -0.338312 -0.166658 -0.104895 -0.329912 -1.021554 1.284928
df -0.725225 -0.444003 0.330516 0.090755 0.160759 -0.268730 -1.573611 -1.150632 1.311451 -0.253784 -0.865520 0.360326 -0.571734 0.721949 -0.141605 -0.327132 -0.216253 -0.540554 0.429984 -0.602305 0.418507 -1.449308 0.197197 0.037115 -0.727550 0.279379 0.323952 0.202171 -0.478287 0.018029 -0.537100 -0.164961 1.872606 0.382048 -0.478623 -0.036058 0.998390 0.249928 -0.398452 0.962977 0.363920 -0.459780 0.684339 0.590665 0.833761 -0.007522 -0.480443 -0.188540 -0.516289 0.823439 0.317362 0.720369 -0.459597 -0.382398 -0.227126 -0.373959 -0.349557 -1.109517 0.830050 -0.650393 -0.220045 -0.128576 -0.006091 -0.326568 -0.502723 1.651460 -0.619039 -0.119161 -0.591536 0.009058 0.370071 0.871982 0.111114 0.259708 -0.289301 0.242487 0.496203 0.974480 0.533339 0.505204 -0.355449 -0.695727 0.062923 -0.657382 0.152349 0.825955 0.571907 0.476293 -0.596892 -1.085503 0.367928 -0.802330 -0.919734 -0.715548 -0.133019 0.558235 0.458552 -0.081325 -0.093016 0.570381
b 0.587863 -0.536694 -0.256653 -0.369902 0.386092 -0.576697 -0.463971 -0.452301 0.480893 0.312817 -0.821891 0.304485 -0.919788 0.437958 -0.476195 0.026552 -0.094226 0.276285 -0.763250 -0.633216 -0.260043 0.173361 0.513116 0.142906 0.165464 -0.471957 -0.145668 -0.190153 -0.047817 -0.689696 -0.278789 0.377403 0.718028 0.254703 -0.248596 -0.103152 0.249012 -0.314447 -0.098502 -0.610728 -0.186604 -0.781500 -0.282866 0.689681 -0.056187 -0.258902 0.088971 -0.345534 -0.331370 -0.456247 0.311164 -0.143867 -0.250734 0.029662 -0.293811 -0.605470 -0.353917 -0.389909 0.231063 -0.132458 -0.182579 -0.079421 -0.440235 -0.666590 0.913735 0.976193 -0.621136 1.057814 -0.843105 -0.739979 0.584405 0.437104 -0.164660 0.888855 -0.062884 1.014175 1.025241 -0.017482 0.017468 0.443819 0.244244 0.383405 -0.636246 -0.430923 0.416405 -0.385746 0.517606 1.246829 -0.414442 0.396572 0.111712 -0.248731 -0.679709 -0.189464 0.419978 1.023430 0.116851 -0.284931 -0.592231 1.368224
return -0.494450 0.190405 -0.000912 -0.087242 0.461779 -0.874383 -0.839679 -0.226135 0.456262 0.052230 -0.483794 -0.108151 -1.023164 0.129477 -0.504016 0.514185 -1.199645 0.204827 -0.791304 0.150462 -0.436581 -0.143271 0.609152 0.072878 -0.025763 0.656686 -0.329059 -0.070497 0.833262 -0.121745 -0.487821 0.232991 0.149834 -0.115266 0.335638 -0.423263 0.109774 -1.021986 -0.084724 -0.241264 -0.292476 -0.319239 -0.458515 -0.453283 0.187928 0.369775 0.268722 -0.816182 0.243639 0.343067 0.758134 -0.281472 -0.314731 -0.099773 -0.589215 -0.603190 0.104051 -0.069302 0.152087 -0.037351 -0.174808 0.663090 0.457986 -0.087100 1.189762 1.003231 0.370314 0.568864 -0.181479 -0.044068 0.745650 -0.018776 -0.504416 1.076844 -0.573580 0.037657 1.263245 0.209359 0.367527 0.467698 0.334141 0.113928 -0.567849 0.319796 0.083984 -0.485116 0.131861 0.706363 -0.013020 0.218981 0.455176 0.218595 0.178176 -0.999000 -0.094189 1.015523 0.345741 0.452753 -0.400915 0.201856
4 0.524472 -0.033952 -1.018694 -0.840295 0.314097 -0.187802 0.203805 -0.511579 0.275389 0.190662 -0.205547 0.945718 0.040740 0.310204 -0.346606 0.080292 0.320117 -0.086468 -0.502661 0.054018 -0.556130 0.486261 -0.360997 0.497309 0.293738 0.296101 0.131721 -0.547693 -0.718125 -0.753522 -0.665702 0.455271 0.798901 0.103915 -0.128383 0.075214 0.493671 -0.039183 -0.212667 0.070768 -0.060401 -0.391185 -0.082866 1.120291 0.346991 -0.288753 -0.425148 0.208364 -0.162425 -0.333821 0.263399 -0.420731 -0.625808 0.318109 -0.709264 -0.374661 -0.206814 -0.292699 0.407798 -0.405255 -0.128193 -0.134888 -0.065222 0.340596 1.251708 0.886319 -1.283595 0.091967 -0.039197 -0.419148 0.578009 0.466330 -0.235154 0.506870 0.073406 0.655251 1.141967 0.248848 0.620745 0.064927 -0.160212 0.227826 -0.011130 -0.193740 0.601006 0.078971 0.757165 0.669753 -0.575795 0.285300 0.456175 0.026600 -0.745665 -0.293654 0.263371 0.706518 0.081389 0.339420 -0.304448 0.676834
% 0.534134 0.037053 -0.142854 -0.570391 0.217546 -0.612684 0.301218 -0.069725 1.409118 0.332045 -0.791189 0.205226 -0.865962 -0.241122 0.085984 -0.692190 -0.621417 -0.016834 -0.918037 0.229806 -0.122683 0.496897 0.458754 -0.050167 -0.325017 0.294839 0.107350 0.931584 -0.627770 -1.062228 -1.486116 0.475109 0.187687 -0.022803 0.524538 -0.023799 -0.023310 -1.341356 0.163107 0.513522 0.251257 0.187888 -0.063696 -0.788852 -0.415899 0.376822 -0.017946 -0.480921 -0.005624 -0.087384 -0.140154 -1.291570 -0.390872 0.397837 -1.230295 -0.916891 0.276899 0.063062 0.666477 -0.142743 -0.492034 0.853732 0.158104 -0.489537 1.143798 0.724429 0.895811 0.386679 -0.193728 -0.132387 0.342810 -0.699121 -0.145817 -0.067745 -0.377235 0.467693 1.177366 1.100840 0.782533 0.554374 -0.233829 -0.454420 0.784868 0.792753 0.934077 -0.265268 0.225457 0.738596 -1.209231 0.196594 -0.026035 0.837447 0.308179 -0.631423 -0.225875 -0.482943 -0.063621 0.087808 -0.147867 -0.387611
os 0.162645 -0.613761 -0.253583 -1.521479 0.607219 0.130689 -0.438498 -0.242133 0.142144 0.861777 -0.680611 0.208925 0.160048 0.492450 -0.594889 0.111710 -0.319224 -0.725147 -1.196467 0.333007 -0.117349 0.007255 -0.390925 0.641384 -0.067140 -0.161771 -0.728128 0.167454 0.490530 -0.210001 -0.413662 0.206198 0.245538 1.062194 -0.549413 -0.283107 0.119591 0.067056 -0.321757 0.685841 -1.314250 -0.221945 0.324854 -0.566693 0.430276 -0.302435 -0.559086 -0.038181 1.088199 1.178341 0.539038 0.397036 1.526642 -0.185665 0.190574 -0.987690 -0.166361 -0.569047 0.526962 1.189533 0.269454 0.449559 -0.076974 0.282240 0.200334 1.062672 0.145587 0.382419 0.110208 0.748534 1.255459 -0.261211 -1.836655 0.175554 -0.664373 0.072331 1.197685 0.824847 0.878971 0.054847 0.044246 0.134136 -0.051754 1.056811 -0.032754 -0.105901 0.554288 0.363222 -0.703925 0.038443 0.290711 0.108236 -0.505214 0.041153 -0.144083 0.365075 -1.097771 -0.092873 0.052925 0.457492
5 0.342101 -0.034309 -1.019894 -0.758089 0.479275 0.031719 0.389843 -0.490646 0.411165 -0.060216 -0.211859 0.795634 0.003251 0.230835 -0.287764 -0.091853 0.272527 -0.125145 -0.370813 0.134820 -0.393739 0.209032 -0.074404 0.706694 0.208630 0.575024 0.213387 -0.858376 -0.659516 -0.709745 -0.923583 0.397304 0.906810 0.078928 0.107786 0.184282 0.442251 0.042427 -0.118569 0.157461 0.041452 -0.090250 0.036118 1.022072 0.359230 -0.181715 -0.574448 0.044974 -0.011809 -0.220105 0.251131 -0.669976 -0.609250 0.217267 -0.623230 -0.501786 -0.242739 -0.396050 0.629104 -0.312981 -0.368290 -0.178968 0.164861 0.270729 1.224855 1.208006 -1.082884 0.128102 -0.136333 -0.311263 0.389206 0.238880 -0.194813 0.417169 -0.073810 0.493140 1.310560 0.352998 0.559311 0.146934 -0.136886 0.050196 0.145953 0.033740 0.723515 0.248833 0.626229 0.592264 -0.777209 0.555681 0.430965 0.353611 -0.660870 -0.441066 0.184086 0.544611 0.052953 0.252921 -0.334380 0.714007
as -0.038862 0.173677 0.255786 -0.511920 0.063999 -1.008798 -0.279043 -0.205080 0.279180 -0.195770 -0.685753 0.955310 -1.308305 1.053486 0.266184 0.336084 0.251729 -1.070579 -0.473682 -0.318318 -0.084370 0.303957 0.076756 0.550943 -0.627829 0.765947 -0.757677 0.462273 0.303999 -0.203066 0.131939 0.927164 0.449514 0.564572 1.240597 0.044058 0.491512 0.539307 -0.004088 0.525106 0.199504 -0.502632 -0.038940 0.200579 0.366680 -0.277820 0.187875 -0.038682 0.581688 0.100000 0.026616 -1.310457 -0.238556 0.630211 -1.298098 -0.327730 0.185026 -0.995584 0.314397 0.091125 -1.093054 0.654024 -0.500631 -0.195503 -0.581724 -0.617454 -0.776539 1.241822 0.189134 -0.843697 1.296728 0.521878 -0.442767 0.802787 -0.614270 0.377251 0.758649 1.020159 0.874063 0.385714 -0.790025 0.252272 -0.000974 0.587356 -0.674089 -0.072595 -0.001337 0.861031 0.541047 -0.172460 -0.322335 0.454983 0.662965 -0.939049 -0.083240 0.952767 -0.561885 -0.474273 0.068481 0.686032
> 0.558192 0.136414 0.811489 -0.572475 0.521189 -0.591288 0.321073 -0.440814 0.938737 0.219119 -0.325582 0.848208 -0.915757 0.428960 0.331242 -0.489618 -0.135305 -0.083785 -0.728074 -0.941211 0.559033 0.265612 0.320978 0.086782 0.102870 0.053702 -0.649389 0.298466 0.179990 -0.409211 -1.589779 -0.416937 0.201419 -0.419643 0.202916 -0.063448 0.374965 -0.719402 0.169109 -0.057813 -0.369253 -0.914991 0.515744 0.052996 0.357825 0.082497 -0.194135 -0.670907 -0.163555 0.003875 0.785852 -1.102492 0.402186 -0.102165 -0.864696 -0.107725 -0.490255 -0.324155 0.816518 -0.976346 -0.196883 0.088331 -0.265771 -0.369704 0.828596 0.551629 -0.091134 0.319898 -0.623558 0.590480 -0.451172 -0.285516 0.436805 -0.069091 -0.570881 -0.271763 0.962290 0.324920 0.998174 1.209890 -0.162309 -0.391874 0.742323 -0.096031 0.403240 0.146869 0.574633 0.393615 -0.455873 0.106175 0.438079 0.350002 -0.052508 -0.676129 0.471122 -0.106648 0.024007 -0.569712 -0.486600 -0.335018
== -0.243496 -0.228459 -0.105643 -0.321530 0.370848 -0.378665 0.181085 -0.447050 0.837720 -0.398818 -0.663700 0.565993 -0.793475 0.404191 -0.816378 -0.086307 -0.668534 -0.316774 -0.851316 -0.164068 -0.906999 -0.739120 -0.188449 0.666459 -0.803583 0.351085 0.349568 0.173987 -0.052409 0.351726 -0.664438 0.479531 0.331909 -0.098906 -0.163272 -0.190567 0.307204 -0.608757 0.002824 0.130608 0.342249 -0.538373 -0.904318 -0.052998 0.100457 0.536777 -0.340462 -0.753324 -0.633957 -0.083083 0.244431 -0.325713 -0.121634 -0.637101 -0.124158 -0.333712 -0.084707 -0.641228 0.689227 -1.299870 -0.586799 0.039647 0.312399 0.076153 0.788380 1.242095 -0.710134 1.220910 0.090686 0.259474 -0.119338 -0.213380 -0.273478 0.133954 0.019027 0.412358 1.397206 -0.826085 0.431973 -0.156093 -0.102186 -0.001513 0.298487 0.710019 0.362279 -0.399044 -0.401570 0.602748 -0.267002 -0.025784 0.190053 -0.011189 -1.358532 -0.137659 0.088280 0.872062 0.970748 0.244541 -0.454613 -0.144980
open 0.707625 0.872617 -0.034570 -0.291336 0.180456 -1.084369 0.035098 -0.333150 0.492215 -0.324414 -0.411398 0.272213 -0.321919 1.189265 0.432857 0.764387 0.254668 -1.107264 -0.826831 -0.240742 0.264773 0.885514 0.193801 1.188721 -0.208826 0.147362 -1.451627 0.376150 0.431897 -0.367161 0.453427 0.529860 0.301242 0.399902 1.152883 -0.304858 0.443345 0.635415 -0.037917 0.239963 0.273118 -0.525409 0.022350 -0.252010 -0.213325 -0.289025 -0.489696 0.282802 0.603535 -0.148260 0.130495 -1.174694 0.032313 0.168862 -0.374326 -0.699297 -0.422326 -0.727471 0.007589 0.382190 -0.452142 0.241448 -0.591645 -0.058845 -0.110553 -0.749756 -0.385003 0.702057 0.302030 -0.791086 1.320320 0.027797 -1.229616 0.526057 -0.397690 0.169846 0.370959 1.225091 1.104391 0.788701 -1.196112 -0.279278 0.037547 0.806454 -0.650601 -0.442170 -0.288229 1.031900 0.428683 0.441496 -0.087080 0.414989 0.270743 -0.281945 -0.536056 0.950805 -0.645634 0.082764 0.047513 0.323989
True -1.071620 0.202013 0.038301 -0.592389 0.472773 -1.219077 -0.883833 -0.589478 0.965350 0.357926 -0.653310 -0.029938 -1.015192 0.598866 -0.614606 0.195093 -0.618174 -0.340572 -0.029317 -0.077611 0.405674 -1.063915 0.572805 0.435148 -0.043277 0.577278 0.128172 -0.848834 0.310326 -0.518965 -0.290601 0.277152 0.139235 -0.405238 -0.634887 -0.200496 0.186934 -0.681522 0.103608 0.058615 -0.649752 -0.467888 -0.514007 0.598909 0.011535 -0.005949 -0.194681 -0.065031 0.230846 0.721109 0.970967 -0.550879 -0.156478 -0.380762 0.222082 -0.724198 -0.568847 -0.706798 0.318223 -0.271498 -0.029857 -0.090513 0.325355 -0.197942 0.335979 0.844764 -0.867410 0.175978 0.260954 -0.152705 -0.068809 -0.225533 0.183413 0.770915 -1.078050 0.115743 0.692544 0.472579 0.895527 -0.069848 0.103242 -0.354011 -0.123172 0.397544 -0.446042 -0.109996 -0.349265 0.801211 0.133239 -0.149124 0.351157 0.078424 0.095498 -1.148863 0.608575 0.834115 -0.198201 -0.051993 0.788781 0.467448
< 0.393112 0.247720 0.681934 -0.395840 0.519852 -0.568622 0.515287 -0.382219 1.011467 0.121884 -0.521491 0.780956 -0.850972 0.371594 0.208097 -0.781555 -0.122068 0.032801 -0.492141 -0.800243 0.370205 0.030243 0.144259 0.000172 0.271664 -0.175444 -0.564858 0.430334 0.228975 -0.255227 -1.249503 -0.275490 0.377203 -0.319218 0.434790 -0.038037 0.259685 -0.649902 -0.157067 0.094230 -0.259457 -0.901699 0.462503 0.280983 0.513854 -0.003327 -0.296295 -0.752273 -0.219200 0.009779 0.831945 -0.999959 0.394365 -0.368007 -1.010807 -0.032465 -0.534744 -0.298807 0.872186 -1.152237 -0.192630 -0.181216 -0.497570 -0.336349 1.180518 0.559357 -0.068130 0.401986 -0.719459 0.484839 -0.278005 -0.304840 0.169188 0.143498 -0.720019 -0.183230 1.045855 0.340543 0.910117 1.127337 -0.075610 -0.328835 0.702937 -0.219950 0.442090 0.095676 0.504518 0.181320 -0.449985 0.052063 0.353870 0.265431 -0.404250 -1.007390 0.575844 -0.167958 0.048138 -0.635993 -0.458018 -0.232320
datetime -0.007224 0.239444 -0.117792 -0.353810 -0.552910 0.359070 -0.392492 -0.096382 -0.538428 0.001423 -1.242311 -1.126868 -0.636968 0.264701 -0.654394 -0.330269 -0.148476 -0.168328 0.256157 0.844831 0.493376 0.071232 0.123179 0.417568 -0.143204 0.750685 -0.477298 -1.051154 -0.084045 0.542141 -0.930972 0.596929 0.703412 -0.241577 0.709443 -0.894443 0.196580 0.155976 -0.314947 0.355446 0.125792 0.651506 -0.208660 0.528174 1.191990 0.148579 -0.598961 -0.263985 0.321412 -0.064275 0.750798 -0.573430 0.134432 0.603840 -1.117655 0.545477 -0.931552 -0.737534 0.508196 0.121482 -0.187081 0.227195 -0.400715 0.536661 0.133263 0.705756 0.563501 1.094641 -0.991350 0.055780 0.331414 -0.527924 -0.761059 1.003867 -0.485315 -0.553978 0.923694 0.521530 0.516325 -0.366720 0.529332 0.158309 0.471497 0.026940 0.311576 0.532836 0.709906 0.253328 -0.108329 0.144324 0.398971 0.681016 0.221538 0.221665 0.189671 -0.520828 -0.160856 0.154209 -0.120657 1.235376
name -0.432643 0.285462 0.501812 -0.478460 0.429927 -0.946524 0.088795 0.291650 0.732198 -0.312736 -0.735528 0.361770 -0.337635 -0.020951 0.625438 -0.304801 -0.462052 -0.225429 -0.261784 -0.646357 -0.254378 -0.210748 0.627796 0.473815 -0.435063 0.264067 -0.206412 0.517555 0.472254 -0.299679 0.104177 -0.549843 0.192181 0.118841 0.114084 -0.499202 -0.320968 -0.307025 -0.259915 0.094820 -0.161689 -1.165117 0.285226 -0.491756 0.184053 0.487795 -0.693853 -0.505351 0.437818 0.494822 0.527042 -0.284733 0.863467 -0.438284 0.036602 -0.614148 0.064987 -0.164470 0.512129 -0.651336 0.171838 0.315669 0.132091 -0.558489 0.707834 0.847116 -0.002474 0.695183 0.055727 0.474763 0.113088 0.106838 -0.267289 0.206584 -0.069462 -0.016509 1.183477 0.062713 0.680707 0.429207 -0.135199 0.096320 0.052821 -0.080384 0.164456 0.069825 0.193136 0.738740 -0.331369 0.264866 -0.079140 0.748875 -0.318845 -1.159832 -0.316071 0.184144 -0.196967 0.057322 -0.152179 -0.046527
split -0.205633 1.065699 -0.507349 -0.440252 0.000581 -0.854316 -0.509069 -0.474907 0.627888 0.537524 -0.745002 0.210617 -0.429294 0.959319 0.528156 0.178108 -0.073819 -0.099736 -0.671935 -0.037741 -0.098281 0.173234 -0.330150 -0.293748 -0.353029 0.015428 -0.534024 0.095626 0.898757 -0.112197 0.163208 0.781129 -0.005550 0.114692 0.055135 -0.784948 0.452313 -0.198460 -0.396086 0.281881 -0.256825 -0.473301 0.203498 0.250121 -0.225753 0.272353 -1.136781 0.105431 0.003795 -0.027504 0.245106 0.250102 0.212285 0.032067 -0.635474 -0.752133 -0.289969 -0.206485 -0.712466 0.000357 0.285140 0.169236 -0.243760 -0.445240 1.004586 0.207219 -0.029746 0.551209 -0.267251 0.324178 0.569745 -0.109271 -0.283128 -0.226420 -0.042106 0.623628 1.017524 0.637723 0.740789 0.398973 0.447096 0.665359 -0.267952 -0.347858 0.115404 -0.200012 0.461169 0.273310 -0.509138 -0.215811 0.504985 -0.152012 -0.231422 -0.832917 -0.691524 0.622159 -0.383747 0.409591 0.047022 0.453789
lambda -0.145432 -0.237907 -0.133267 -0.065223 0.714923 -0.452057 -1.569972 -0.359964 0.816402 -0.116402 -0.839932 -0.671596 -0.311225 0.360731 -0.004269 0.076592 -0.244403 0.177381 -0.303458 0.084926 -0.353978 -0.309526 0.639218 0.047547 -0.370708 0.217820 -0.282720 -0.344893 0.466038 0.022059 -0.008677 0.659291 0.363000 -0.094445 0.089271 -0.791605 0.514865 -0.241114 -0.251207 0.062701 -0.153117 0.454350 -0.347203 0.488098 0.865396 -0.123835 -0.521093 -0.549834 0.602582 0.872191 1.059186 0.468802 0.069194 -0.192963 -0.167512 -1.026685 -0.735611 -0.324986 -0.260592 -0.066266 0.490967 0.177838 0.752079 -0.212829 1.106056 1.115854 -0.090575 0.451438 -0.326342 0.163335 0.866247 0.367826 -0.273456 0.977791 -0.504340 0.059464 1.359777 0.131515 0.485341 0.735068 0.678547 0.065805 -0.443716 -0.328237 -0.056420 -0.182746 0.491291 -0.033093 0.160385 -0.347749 0.678111 -0.186949 0.455922 -0.728637 -0.169228 0.834045 0.435435 0.060211 -0.238488 0.513645
join 0.240620 0.602731 -0.983421 -0.835187 -0.277493 -0.608420 -1.135524 -0.566624 0.472274 0.543308 -0.799881 -0.088700 -0.063711 0.722518 0.146313 0.135446 -0.292089 -0.187085 -0.656629 0.146882 -0.126190 0.488506 -0.057607 -0.168762 -0.404754 -0.287474 -0.155644 0.420275 0.286323 -0.341576 -0.102440 0.379687 0.104087 0.641340 -0.191227 -1.080519 0.235743 0.056937 -0.335665 0.220514 -0.207398 -0.094264 0.675800 -0.355321 -0.139967 -0.072201 -0.992806 -0.213044 0.169529 0.483509 0.207495 0.338431 0.205838 0.080708 -0.360444 -1.245561 -0.315913 -0.497174 -0.305115 0.607452 0.251704 0.530652 0.217915 -0.486877 0.737297 0.592982 0.313621 0.459951 -0.179731 0.252301 0.655463 -0.485941 -0.645568 -0.069804 -0.160543 0.847630 1.336760 0.765742 0.584778 0.550154 0.245133 0.452646 -0.958989 -0.039821 0.375461 -0.140882 0.543780 0.693640 -0.908668 -0.538440 -0.111515 0.377085 -0.502496 -0.576884 -0.719315 0.118296 -0.184530 0.019886 -0.229653 0.645134
path 0.526513 -0.032890 0.119284 -0.964374 0.100051 -0.722844 -0.454090 -0.057621 0.148008 0.442890 -0.501724 0.309438 -0.141916 0.751725 -0.165851 0.068604 -0.330811 -0.029442 -1.035809 -0.275595 -0.383710 -0.162013 -0.208828 0.676668 -0.187741 -0.684468 -0.629396 0.105819 0.248438 -0.428773 -0.329190 -0.055757 0.450824 0.655486 0.138155 -0.168243 -0.244965 -0.143530 -0.043156 0.373838 -1.210648 -0.527371 0.254047 -0.639511 0.200727 -0.058763 -0.417459 -0.129312 1.022495 0.771283 0.289259 0.102103 1.383128 0.119324 -0.046433 -0.629566 -0.053988 -0.652623 0.312304 0.904636 -0.011325 0.477057 -0.078041 -0.120752 0.060640 0.483967 0.276180 0.246293 -0.471763 0.714871 1.226574 -0.525287 -1.350860 0.104081 -0.698275 0.521157 1.182615 0.963530 0.830812 0.189839 -0.295472 0.468824 -0.092209 0.342042 -0.247646 0.068811 0.317280 0.224248 -0.569248 -0.212688 0.340817 0.133205 -0.916872 -0.218283 -0.126886 0.150285 -1.052049 -0.516196 -0.179182 0.462760
; 0.220981 0.412691 0.078000 -0.879648 0.846855 -1.031909 -0.293242 -0.587382 0.068980 0.489614 -0.086320 0.606684 -0.538797 0.668143 -0.491129 -0.357586 -0.514190 0.347454 -0.774467 -0.085604 0.359980 0.100204 0.127584 -0.295507 0.336535 0.082971 -0.915295 -0.365061 0.383427 -0.531478 -1.199234 -0.190960 0.110616 -0.163748 0.153242 -0.281608 0.590137 -0.597124 -0.164565 0.188484 -0.140732 -0.364592 -0.039653 0.001546 -0.174057 0.015309 0.213717 -0.275444 -0.243481 0.026211 0.480367 -0.594299 0.276459 0.715768 -0.544507 -0.752916 -0.347616 -0.389169 -0.028507 -0.391792 -0.129023 -0.125375 -0.085279 0.020944 0.544718 -0.059673 -0.354614 -0.574142 -0.817063 0.383968 0.513033 0.119044 -0.007516 0.681211 -0.714109 -0.244479 0.384841 0.617537 1.074573 0.569140 0.049955 0.790507 0.615098 0.111522 0.132943 -0.181026 0.612294 0.124920 -0.160172 0.106401 0.713308 0.133211 -0.080923 -0.653369 0.373414 0.313633 0.026644 -0.378900 0.078724 -0.001029
" -0.141963 0.933501 -0.497441 -1.049668 -0.585046 -0.929402 -0.491577 -0.518507 0.372421 0.123517 -0.663870 0.885369 -0.715702 0.601712 0.642755 0.588294 -0.556952 -0.546178 -0.727588 -0.369804 0.473498 0.683454 0.433497 -0.532475 -0.257220 -0.264385 0.070868 0.075265 0.757276 -0.134413 -0.600333 -0.259389 -0.578022 0.077412 -0.194446 -0.843492 -0.024215 -0.463033 -0.330767 -0.590445 0.047438 -0.771293 0.628365 0.023950 -0.773288 -0.004985 -1.101865 -0.349212 -0.727372 0.405444 0.277693 -0.468501 0.036598 0.660269 -0.954999 -0.357120 0.066351 -0.436120 -0.573499 -0.345908 0.243024 0.132270 0.645638 -0.563665 0.434122 0.119407 0.580911 0.232351 -0.103192 0.635433 -0.418602 -1.008103 -0.183192 -0.083324 -0.210579 0.930010 0.895054 0.155753 1.081823 0.293755 0.077216 0.150777 -0.125539 0.094100 0.220075 0.116389 0.464441 0.688090 -0.434328 -0.159072 -0.498165 0.612689 -0.115163 -0.589515 -0.408354 0.031383 0.089249 0.018379 -0.761325 -0.045828
range 0.471497 -0.359547 -0.648400 0.023195 0.341674 -0.528394 0.392340 -0.568307 0.244674 0.117712 -0.190063 0.101983 0.136967 0.817278 0.195316 -0.196319 0.344784 -0.100298 -0.282245 -0.423491 -0.419424 0.427451 0.343138 0.132546 0.108891 0.289115 0.465254 -0.309106 0.479267 -0.170381 -0.433307 0.412009 0.863298 0.120365 0.510850 0.338313 0.732681 -0.050631 0.277588 0.755921 -0.026928 0.102851 0.422092 0.642764 0.355250 -0.677414 -0.305999 0.157864 0.197732 0.187239 -0.082277 -1.022451 -0.622550 0.254672 -0.142383 -1.204303 -0.524820 -0.240486 0.577457 0.386367 -0.652651 -0.443245 0.574157 -0.507815 1.043830 0.770209 -0.597936 0.530864 -0.230124 -0.260112 0.183313 0.126460 0.463863 0.097815 -0.218903 0.301559 0.943150 0.621567 0.458700 0.514890 -0.158085 0.495492 -0.446088 0.523453 1.051420 0.099060 0.174243 -0.021470 -0.649160 0.418787 0.318528 0.756489 -0.445808 -1.297315 -0.532797 0.561836 0.487980 0.245344 -0.481159 0.577555
len 0.230161 -0.166730 -0.356350 0.045243 0.369833 -0.328864 -0.215219 -0.773596 0.750795 -0.091884 -0.131052 -0.013769 -0.787070 0.945391 0.284202 -0.071479 -0.213552 -0.018441 -0.570604 -0.394781 -0.704863 -0.162609 0.132741 0.509158 -0.196282 -0.108026 0.108475 -0.149491 1.136184 -0.047762 -0.350539 0.672254 0.681498 0.295918 0.565946 -0.129928 0.783278 -0.491095 0.101308 0.478722 -0.495425 -0.446112 -0.346439 0.309020 0.336244 -0.123163 -0.311192 -0.413700 0.625607 0.161575 0.277915 -0.218559 -0.485325 -0.256765 -0.301375 -0.759833 -0.301406 -0.599996 0.199248 -0.284219 -0.485640 -0.149400 0.614658 -0.304354 1.154795 0.848235 -0.093927 0.455797 -0.605358 0.056109 0.155289 -0.170815 0.137571 0.174763 -0.570867 0.074081 1.323135 0.361776 0.697497 0.896980 -0.140801 0.202336 -0.372846 0.504275 0.544427 -0.312910 -0.056314 0.304650 -0.145401 0.343088 0.717429 -0.121916 -0.494190 -1.041053 -0.350803 0.557175 0.783000 0.400846 -0.708113 0.334194
... 0.019457 0.347400 0.148905 -0.999532 0.606399 -0.943393 -0.151564 -0.095480 0.096070 0.245359 -0.336151 0.607341 -0.190732 0.347193 -0.359160 -0.027911 -0.667658 0.299348 -0.525348 -0.440479 0.278056 -0.460486 0.298130 0.707762 -0.242992 0.457069 -0.432162 -0.271984 0.050197 -0.474995 -0.630662 -0.377309 0.285367 -0.002955 0.212512 -0.315609 0.182974 -0.329961 -0.140092 0.058081 -0.331388 -0.131235 -0.133997 -0.345973 0.008277 0.040799 -0.168775 -0.426880 0.288570 0.203836 0.848376 -0.664565 -0.109876 0.507049 -0.457670 -0.689716 -0.144247 -0.577041 0.545476 -0.465712 -0.638425 0.656643 0.037665 -0.045331 -0.011100 0.563624 -0.387475 0.431077 -0.184639 -0.337367 0.390449 0.261370 -0.184631 0.893323 -0.955799 -0.365199 0.930567 0.517707 0.686479 0.640094 0.068376 0.502788 -0.002458 0.183179 -0.218847 -0.384308 -0.000279 0.568225 -0.054500 0.063346 0.333820 0.569649 -0.056000 -0.619538 0.098992 0.264211 -0.182535 -0.443884 0.071515 0.141013
list -0.247975 -0.645145 -0.965391 -0.369190 0.724193 -0.484422 -0.383083 -0.827927 0.901903 0.344815 -0.445865 -0.142032 0.035920 0.521493 0.216151 0.280910 -0.207816 0.351999 -0.781113 -0.437357 0.220665 0.782450 0.381470 0.332695 -0.438654 0.434187 0.149329 0.001571 0.741747 -0.832812 -0.266286 0.271743 0.585841 0.388886 0.326174 0.035318 0.449295 0.063314 0.121751 -0.215776 -0.279401 -0.218760 -0.152519 0.289651 0.306054 -0.006912 -0.441925 -0.229130 0.259904 0.328098 0.620070 -0.405693 -0.569665 0.313669 0.057656 -0.934778 -0.238048 -0.452479 -0.141814 0.010734 -0.154218 -0.046850 0.428937 -0.153160 0.956332 0.983942 -0.724175 0.030557 -0.044380 -0.266158 0.685585 0.211002 0.398877 0.490208 -0.046766 -0.128262 1.343303 0.237153 0.234672 0.736121 -0.228797 0.604651 -0.884087 0.006009 0.092247 0.271015 0.356481 0.540216 -0.301109 0.207062 0.610643 0.382239 -0.020977 -0.515806 -0.508975 0.812820 0.651176 0.124837 -0.372654 0.608524
10 0.345896 -0.528945 -0.363325 -0.465219 0.580007 0.046431 0.411260 -0.608569 0.099424 -0.012034 -0.064478 0.426664 -0.285801 0.520732 -0.472490 -0.158134 -0.071809 -0.234070 -0.361338 -0.020917 -0.674825 0.056521 0.208465 0.595793 0.286988 0.622661 -0.145044 -0.820434 -0.338071 0.183013 -0.680150 0.293132 1.101792 -0.150422 0.407439 0.297606 0.513240 -0.212763 0.116140 0.564302 0.150250 0.324524 0.626346 0.957341 0.303775 -0.296295 -0.239615 -0.171351 0.283222 0.041389 0.000719 -0.681646 -0.616815 0.319349 -0.666599 -0.773550 -0.393877 0.007768 1.196959 0.298838 -0.436729 -0.374974 0.359571 -0.097307 1.134102 0.906926 -0.290874 0.448936 -0.185141 -0.133685 0.362228 0.279559 0.220102 0.303644 -0.420653 0.340001 0.934509 0.350425 0.665364 0.724334 -0.177233 0.102050 0.224956 0.574658 1.030316 -0.008101 0.343018 0.294239 -0.649028 0.423485 0.252067 0.872893 -0.445710 -0.999508 0.128915 0.591074 -0.145323 0.004539 -0.364218 0.376762
item -0.223280 0.065666 -0.744586 -0.311317 0.627089 -0.397266 -0.009800 -0.517332 1.037981 0.309837 -1.141051 -0.047090 -0.237917 0.548303 0.710635 -0.064656 -0.530902 0.669775 -0.882348 -0.192308 -0.205919 -0.297236 -0.197346 -0.149604 -1.265440 0.009350 -0.155562 0.257484 0.869308 0.130399 -0.247960 0.703378 0.152332 0.100528 0.441275 0.082257 -0.093713 -0.179467 0.211693 0.371867 -0.183906 0.249050 -0.574441 -0.174971 0.292000 0.245932 -0.777390 -0.465538 -0.219664 0.149078 0.621144 -0.447050 -0.181240 -0.203134 0.018062 -0.716606 -0.145879 -0.111954 -0.490211 -0.377125 -0.374019 0.549487 0.162191 -0.340222 0.846374 0.790105 -0.187751 0.749643 -0.214447 0.133872 0.491422 0.000302 -0.223352 0.221931 -0.110356 -0.118398 1.277340 0.486018 0.138503 0.196701 -0.266122 0.229981 0.019476 -0.166857 0.137520 0.007054 0.467293 0.205977 -0.638019 -0.187557 0.553047 -0.050203 -0.200062 -0.458019 -0.612554 0.635449 0.164112 -0.035098 0.144570 0.147804
None -0.126080 -0.485630 0.160168 -0.472649 0.440336 -0.425117 -0.505614 -0.174124 -0.139449 -0.278808 -0.294918 0.126587 -0.735355 0.030691 -0.134506 0.520549 -0.765305 0.249330 -0.701862 -0.016624 -0.469632 -1.009977 0.162085 0.650149 -0.353558 0.351967 -0.509958 -0.789215 0.285418 0.129881 0.130393 -0.161613 0.001998 -0.040035 0.263125 0.047109 -0.305769 -0.559164 -0.100656 -0.078990 -0.155204 -0.168822 -0.287777 0.275932 -0.449614 0.027780 -0.242738 -0.341509 0.704653 0.367545 0.730784 -0.384739 0.107775 -0.195984 -0.180174 -0.240922 0.642916 0.079118 0.001891 -0.178454 -0.248511 0.575865 0.847217 -0.316208 0.346558 1.116385 -0.724935 0.758584 0.163276 -0.324667 0.379154 0.237201 -0.246327 0.789558 -0.163107 0.286577 1.488988 -0.062424 0.388527 0.304169 -0.506525 -0.283852 -0.351177 0.088342 -0.080341 0.096088 0.049139 1.255750 0.236456 0.143586 0.594064 0.082762 -1.104156 -0.986131 0.218669 1.017494 -0.149185 0.309435 -0.192404 0.423238
text 0.129242 0.415017 0.030396 -0.324256 -0.321184 -0.829300 0.307430 -0.369049 0.416292 0.735609 0.119409 0.221046 -1.013977 0.608070 0.243610 0.221141 -0.591318 -0.138577 -0.306417 -0.489583 -0.304815 -0.268888 -0.140204 0.154220 -0.591135 0.467431 -0.401131 0.100451 0.562320 -0.266003 0.282172 0.260460 0.045831 -0.064905 0.463340 -0.326939 0.257935 -0.418919 -0.273349 0.364412 0.032809 -0.514715 0.193639 0.627001 -0.140459 0.560435 -0.318634 -0.115028 0.438823 -0.110751 0.247987 -0.230779 -0.184630 0.108119 -0.488285 -0.553314 -0.462777 0.311287 -0.228092 -0.563003 -0.265867 0.091965 -0.044113 -0.457411 0.427644 -0.050285 0.229514 0.783069 -0.170004 -0.008797 0.240335 0.083301 0.126832 -0.106393 -0.603413 0.019591 1.069899 0.570859 0.661977 0.263976 0.171566 0.633767 0.140308 -0.279501 -0.405043 -0.197679 0.008503 0.414183 -0.082984 -0.225494 0.785159 0.410811 0.229192 -0.611531 0.031657 0.503604 -0.282143 0.128660 0.594687 0.284966
class -0.319445 0.464997 0.221014 -0.795480 0.796511 -0.856736 0.152533 0.195167 0.109159 0.134479 -0.134596 1.005805 -0.248298 -0.043234 -0.458703 -0.343821 -1.365458 0.216781 -0.093420 -0.310397 0.316401 -0.255700 0.533116 0.436496 0.337528 0.280757 -0.126037 0.101955 0.736987 -0.717308 -0.673094 -0.415434 0.264924 -0.240858 0.270788 -0.093464 -0.118194 -0.562400 -0.413947 -0.013048 0.214544 -0.805667 0.106825 -0.015931 0.150226 0.189908 0.004215 -0.685369 -0.583093 -0.118667 0.795473 -0.947574 -0.138710 0.175919 -0.202340 -0.255419 -0.220880 -0.584340 0.515175 -0.820533 -0.305458 0.185515 -0.574303 0.099028 0.357644 0.719221 -0.216053 0.534749 -0.031960 0.143305 0.230537 0.225980 -0.123354 0.997790 -0.952447 -0.526399 0.919366 0.406676 0.408915 0.252533 0.465120 0.688119 0.068409 -0.024162 0.064686 0.024280 0.353381 0.291362 -0.241031 -0.199293 0.301093 0.523307 -0.110101 -0.673206 -0.202024 0.081369 -0.100101 -0.563598 0.132479 -0.007547
\\ 0.837264 0.581416 -0.384296 -0.929457 -0.640269 -0.535423 -0.337037 -0.413549 0.302871 0.551414 -1.140019 0.626664 -0.379083 0.360035 -0.138685 -0.443214 0.153563 0.135407 -0.880976 -0.469682 0.390261 1.153976 -0.168365 -0.574186 0.967709 -1.058377 -0.832216 -0.099766 -0.458017 -0.451084 -0.975190 -0.724666 0.185299 0.178235 -0.100743 -0.369099 0.070993 0.193277 0.001814 -0.680880 -0.409817 -0.689720 0.153105 0.474623 0.130989 0.808885 -0.132814 -0.099285 -0.355007 -0.415085 0.242357 -0.035785 0.554648 0.306606 -0.667698 -0.465907 0.021601 0.351993 0.694315 -0.741254 0.119904 0.050302 -0.094525 0.248558 1.256124 -0.216659 0.281167 0.353934 -0.793295 -0.199473 0.176070 -0.430991 -0.785249 1.097572 -0.274277 0.383102 0.081843 -0.245871 0.613747 1.192761 -0.452996 0.127833 0.374708 -0.411806 0.394194 -0.486252 0.841136 0.552693 -0.402378 -0.030957 -0.701145 -0.042560 -0.843538 -0.224485 0.863352 0.742935 -0.605967 -0.228802 -0.549833 -0.150047
subprocess -0.957581 0.429920 -0.391819 -1.319737 -0.206307 -0.242763 -0.727454 -0.000109 0.441953 0.993045 -0.833603 0.185369 0.058109 1.015026 -0.732741 0.702713 0.202954 -0.579866 -0.513850 0.428167 1.149924 -0.137345 -0.241622 0.180740 -0.248665 0.784175 0.113755 -0.674038 -0.081718 -0.583901 -0.249412 0.465867 -0.259563 -0.277849 -0.898910 -0.570686 0.195057 -0.096604 0.439820 0.043582 -0.924988 0.016114 -0.536130 -0.120493 -0.808918 0.319491 -0.938781 0.672831 0.106084 0.073459 0.026723 -0.913637 0.656071 0.723392 0.333040 -0.842145 -0.048156 -0.777891 0.566696 -0.161345 -0.117430 -0.004565 -0.184520 -0.139467 0.022376 0.337277 -0.476175 -0.080646 0.270822 0.124163 -0.758743 -0.240214 0.083147 0.072904 -0.655104 0.091086 -0.107285 0.568678 1.446747 0.268891 -0.034742 -0.221476 0.220319 0.601111 -0.487152 0.145725 0.146491 0.861810 0.033181 0.032933 0.065137 -0.119171 -0.214225 -0.150486 0.328739 1.008936 -0.785353 0.184148 0.458441 -0.395133
with 0.471521 0.399006 -0.144630 -0.537487 0.051243 -0.896585 0.163274 -0.176385 0.388050 -0.117677 -0.422941 0.408602 -0.303148 0.867813 0.294408 0.665120 -0.115766 -0.611175 -0.860187 -0.605566 0.318051 0.744856 0.155176 1.061852 -0.447188 0.379578 -0.998764 0.452841 0.279775 -0.292018 0.217649 0.007357 0.328910 0.181638 1.060261 -0.184067 0.344444 0.598626 -0.133959 -0.258857 0.269702 -0.480361 0.174912 -0.087634 -0.158243 -0.101444 -0.495625 -0.098877 0.278576 -0.205973 0.154350 -0.843587 -0.177903 0.335592 -0.385517 -0.345896 -0.189506 -0.473016 0.019744 -0.163731 -0.699343 0.476141 -0.206932 -0.253782 -0.147311 -0.272434 -0.221586 0.547323 0.275724 -0.483072 0.827254 -0.033570 -0.566135 0.486391 -0.296823 0.027728 0.587115 0.796966 0.828978 0.734748 -1.085193 0.113440 0.052513 0.364975 -0.662515 0.050815 -0.175935 0.987168 0.195374 0.127225 -0.111860 0.618850 0.235726 -0.277334 -0.417127 0.981550 -0.458877 -0.124525 0.294188 0.068246
| 0.368473 0.391838 -0.669202 -1.614500 -0.396599 0.020628 0.312250 -1.013330 0.620260 1.041337 -0.697577 0.281281 -0.648374 -0.138250 0.647611 -0.495987 -0.055117 -0.256576 -0.961357 -0.144286 0.667496 0.054527 -0.431036 -0.180985 0.406350 -0.365746 -0.578169 -0.541667 -0.812683 -0.255676 -0.654906 -0.424485 0.073607 0.433691 -0.218740 -0.655198 0.500065 -0.218882 -0.641345 -0.141560 -0.609599 -0.285292 -0.133444 0.626626 0.226279 1.052212 -0.926912 0.357735 -0.023433 -0.306941 0.805835 0.589988 0.433720 -0.212772 -0.652763 -0.729767 -0.276742 0.682580 0.254272 -0.917282 0.690027 -0.135966 0.578840 1.183107 0.670493 0.277881 -0.144846 -0.009385 0.056170 -0.268199 0.309874 0.079062 -0.556294 0.531630 -0.544020 0.179673 0.507187 -0.179291 0.886633 0.605717 0.088249 -0.273158 0.762538 -0.007430 -0.023015 -0.600762 0.512757 0.470311 -0.640569 -0.086627 -0.198903 0.085632 -0.395276 0.195661 0.416576 0.006033 -0.191894 0.338063 -0.104480 0.211593
a 0.416135 -0.850061 -0.174129 -0.297933 -0.189413 -1.120703 0.219950 -0.470132 0.186897 0.287952 -0.280604 0.146187 -0.591777 0.344927 0.006258 0.767128 -0.203978 -0.225492 -0.683576 -1.133148 -0.098750 0.632528 0.368761 0.441879 -0.172840 -0.140447 -0.334573 0.462337 -0.023080 -0.829902 0.403387 -0.226385 0.434812 -0.016953 0.105083 0.050693 -0.185187 -0.314094 -0.540091 -0.965916 0.520370 -1.129455 0.292506 0.707863 -0.753197 -0.270260 -0.094921 -0.392150 -0.144159 -0.173468 -0.014169 0.122115 0.030665 0.162970 -0.182775 0.146507 -0.001571 -0.388380 -0.502781 -0.402801 0.078351 -0.067721 -0.178287 -1.005909 0.197668 0.676577 0.022080 0.397771 -0.152359 -0.162912 0.280057 -0.040919 0.283613 -0.308806 0.446631 1.112674 0.998395 0.095816 -0.157066 -0.054404 -0.101230 0.567638 -0.490408 -0.470096 0.037757 0.664580 0.452904 1.591624 -0.428496 0.135306 0.350633 0.175366 -0.186349 -0.284098 -0.140696 0.904679 -0.048760 -0.060592 -0.173608 0.860643
str -0.125775 0.444828 -0.251243 -0.137378 -0.002278 -0.426616 -0.848839 -0.617550 0.401946 0.161695 -0.633085 0.021706 -0.587414 0.694712 0.063894 0.095430 -0.631055 -0.122031 -0.378622 0.126021 -0.135721 -0.383062 0.071839 -0.304140 -0.499115 -0.082217 -0.363754 0.136389 0.823565 -0.076032 -0.267918 0.400091 0.294372 0.192249 0.193713 -0.942354 0.493972 -0.316528 -0.798326 0.431677 0.606185 -0.302949 0.241725 0.123258 0.181214 0.220039 -0.582101 -0.227252 -0.093375 0.025432 0.262608 0.395558 -0.268441 0.054786 -0.605391 -0.628664 -0.436655 -0.431952 -0.338978 -0.199168 0.400400 0.035942 -0.094298 -0.269023 0.889874 0.794548 0.496764 0.515167 -0.471860 0.221934 0.446991 0.174218 -0.292579 0.241684 -0.021069 0.214591 0.864303 0.523927 0.605688 0.514289 0.557327 0.369524 -0.110824 -0.096623 0.406138 0.102038 0.567780 0.556119 -0.392715 -0.376300 0.667460 0.023685 -0.430785 -0.712223 -0.646680 0.421354 0.055267 0.427300 -0.203436 0.618576
int 0.115421 0.159375 -0.449139 0.062054 1.094045 -0.572952 -0.754243 -0.555647 0.582565 -0.091820 -0.338939 0.117729 -0.549707 0.686963 0.035932 -0.233752 -0.310073 0.161724 -0.334687 0.126098 -0.335828 0.169585 0.171041 -0.212208 0.188240 0.015346 -0.785633 -0.359622 0.839871 0.119972 -0.585926 0.703054 0.102862 -0.310289 0.100829 -0.570092 0.318676 -0.620152 -0.535561 0.187497 -0.018663 0.036355 0.273998 0.298748 0.567252 -0.422731 -0.089388 -0.436855 0.313610 0.044736 0.485531 0.114479 0.001805 0.206179 -1.156474 -0.448344 -0.722756 -0.352668 -0.230777 0.467236 0.518348 -0.330569 -0.109967 -0.104798 1.841618 0.489252 0.159804 0.424116 -0.749779 0.793370 0.773096 0.046261 -0.139834 0.169890 -0.261573 0.002387 0.879252 -0.142227 0.533769 0.579825 0.717765 0.290440 -0.167366 0.431780 0.539849 -0.244914 0.618052 0.041731 -0.233133 0.238007 0.658220 0.236293 0.602953 -1.004888 -0.024748 0.400856 -0.130405 0.133472 -0.361656 0.524161
\ 0.132682 0.852910 -0.195623 -1.428433 -0.571621 0.047356 0.204882 0.552158 0.148074 0.954876 0.270589 0.812608 -0.590711 -0.011730 1.064065 0.445787 -1.077725 -0.968506 -0.641401 -0.342615 0.162660 0.356682 0.072485 -0.648713 -1.131326 1.015614 -0.124485 0.655811 -0.341463 -0.498088 -0.373982 -0.089089 -0.338425 0.566749 -0.272695 -0.664724 0.943828 -0.737142 -0.696483 0.037256 -0.566072 -0.168252 -0.087774 0.035340 -0.529348 0.274396 -0.189791 -0.394176 -0.552001 0.559588 -0.072477 -0.292230 0.206817 0.919005 -0.461624 -0.416223 -0.115826 0.715653 -0.446865 -0.717576 0.036451 0.271649 0.639315 -0.212056 -0.280531 0.706232 0.212998 0.190207 0.032127 0.484068 -0.362959 0.295935 -0.299195 0.129626 -0.065018 0.143495 0.755985 0.579633 1.335057 0.202551 0.251219 -0.435069 0.892058 -0.320668 -0.267639 -0.451837 0.057429 0.875739 -0.156086 -0.100067 0.029983 -0.173769 0.482519 0.454256 0.058488 0.511368 0.181924 0.205940 0.158836 -0.100431
6 0.530453 0.031148 -0.996641 -0.697717 0.180388 0.122444 0.270662 -0.416826 0.513332 0.084114 -0.396017 0.739054 0.256150 0.148333 -0.296594 -0.176875 0.376946 -0.126421 -0.308864 0.332066 -0.173399 0.325596 -0.231994 0.555871 0.361204 0.354596 0.156283 -0.801486 -0.762003 -0.321233 -0.938721 0.622356 0.773190 0.058761 0.071132 0.019086 0.525017 0.106699 -0.265639 0.156524 0.032360 0.078797 0.043133 1.020921 0.517763 -0.346022 -0.749811 0.223118 -0.219644 -0.475922 0.354915 -0.654299 -0.667144 -0.085925 -0.782445 -0.362527 -0.407349 -0.148900 0.583565 -0.518756 -0.444060 -0.121325 0.139774 0.545092 1.206039 1.007231 -1.130345 0.303621 -0.066965 -0.340876 0.339484 0.177627 -0.218954 0.336815 0.058514 0.424503 1.071057 0.338850 0.499745 0.080921 0.016198 -0.029256 0.281963 0.036163 0.710334 0.256415 0.668932 0.497401 -0.813508 0.344630 0.431848 0.243970 -0.752849 -0.203033 0.332520 0.389930 0.109149 0.410733 -0.301697 0.606291
A -0.164138 -0.161910 -0.403300 -0.680306 0.311332 -0.075925 -0.398520 -0.578681 0.238375 0.066905 -0.187278 0.984564 -0.370591 0.167863 0.003882 -0.462151 -0.368302 -0.078828 -0.359356 -0.300224 0.013266 -0.268880 -0.009351 0.329553 0.469808 -0.266370 0.289847 0.519792 0.773841 -0.485356 -0.316667 0.167765 0.469371 -0.079930 0.422408 0.130947 0.508771 0.328858 -0.465642 0.384496 0.068151 -0.938564 -0.305387 0.604984 0.698523 0.100379 0.047384 -0.655056 -0.641144 -0.470558 0.711417 -0.104953 -0.516314 0.119277 -0.316686 -0.222614 -0.092980 -0.936643 0.577743 -0.842481 -0.256466 0.127297 -0.558122 0.336341 0.359795 0.754787 -0.815807 0.536111 -0.073412 -0.426035 0.238620 0.794373 0.063849 0.915148 -0.831039 -0.313821 0.668261 0.169225 0.005633 0.467321 0.072343 0.495817 -0.572332 -0.472989 0.479975 0.006497 0.692401 0.471396 -0.238301 -0.474027 -0.059555 -0.250548 -0.406885 -0.866542 -0.300251 0.429810 0.354903 0.077014 -0.265620 0.574564
index -0.537088 -0.184930 0.126496 0.271581 0.013624 -0.355351 -0.732591 -0.753555 0.697499 -0.057407 -0.784893 -0.124183 -0.591095 0.468595 0.511319 -0.163774 -0.019135 0.057667 -0.020302 -0.238729 0.155143 -0.907615 0.378472 0.098149 -0.647567 -0.130196 0.183786 -0.098547 0.334808 -0.150337 -0.414076 -0.200855 1.131602 0.619145 0.387691 0.213874 0.622096 -0.000816 0.130032 0.592307 0.082540 -0.221686 0.004211 -0.075334 0.795771 -0.042036 -0.577217 -0.046376 -0.036451 0.259763 0.354589 -0.268720 -0.340889 -0.671952 0.064562 -0.468173 -0.173269 -0.675827 0.614469 -0.326469 -0.415527 0.176553 0.284693 -0.136993 -0.020686 0.965419 -0.311264 0.343791 -0.360933 -0.532487 0.273873 0.794912 -0.357830 0.444967 -0.095261 0.083116 0.693535 0.988691 0.583439 0.504447 -0.338224 -0.468678 -0.166043 -0.312087 0.357455 0.488134 0.602287 0.461369 -0.468781 -0.240842 0.512989 -0.284152 -0.974056 -0.638293 -0.597137 0.286172 0.672489 0.275811 -0.629517 0.803733
sys 0.182410 -0.236140 -0.063169 -0.905087 0.383323 -0.232378 -0.413443 -0.319280 0.156095 0.663938 0.156770 0.531445 0.165226 1.452335 -0.893198 0.657030 -0.448815 0.007515 -0.661281 0.501555 -0.419040 -0.108903 -0.813523 0.960442 -0.434253 -0.473727 -0.100032 -0.237244 0.270341 -0.284570 -0.246004 0.808071 0.301400 0.415487 -0.526243 -0.475150 -0.374196 -0.569043 0.525439 0.424233 -0.581330 -0.367416 -0.445493 -0.430181 -0.502080 -0.015134 -0.357532 -0.313479 0.940778 -0.143664 0.005393 -0.518904 0.746472 0.399568 0.648165 -0.777475 -0.049309 -1.448874 0.538928 0.291971 0.080360 -0.129385 -0.477522 0.030825 0.018481 0.668012 0.322667 -0.279539 -0.291635 0.873772 0.253529 -0.700568 0.092671 -0.575293 -0.721147 -0.159413 0.610007 0.384645 0.865651 0.525286 -0.451901 0.387026 -0.386533 1.072967 0.000774 0.075237 0.190155 0.671048 -0.265003 -0.171866 1.041867 -0.326108 -0.799032 -0.316514 -0.062819 0.458554 -0.327622 -0.577944 -0.142946 -0.505388
$ 0.166165 0.412416 -0.374581 -0.933841 0.245629 -0.966022 0.058229 -0.601748 0.506866 0.413546 -0.564281 0.601293 -0.467901 0.528964 0.160236 -0.454888 -0.503793 0.408954 -0.996037 -0.594011 0.424725 -0.179732 -0.039250 -0.057382 0.231007 -0.210034 -0.760416 -0.509736 0.295628 -0.714831 -0.994112 -0.302211 0.467148 0.017019 0.238522 0.057649 0.607990 -0.392398 -0.463890 0.018040 -0.578172 -0.461433 -0.292585 0.297296 0.352541 0.627231 -0.026625 0.139647 -0.497627 -0.198601 0.321440 0.028246 0.210787 0.349753 -0.527520 -0.376715 -0.575514 0.041798 -0.121797 -1.084794 -0.075119 -0.255721 0.058467 0.480979 0.591179 -0.140690 -0.416504 -0.784730 -0.803254 0.490892 0.526382 0.214604 -0.317829 0.667880 -0.773040 0.117670 0.395356 0.454964 1.065034 0.256456 0.302028 0.801577 0.957546 -0.076535 -0.384110 -0.401863 0.563607 -0.156016 -0.067937 0.073270 0.631157 -0.060357 -0.340049 -0.123085 0.501080 0.422737 -0.097977 -0.157935 -0.311609 0.405826
array -0.145004 0.080735 -0.288824 -0.519986 0.495626 -0.014357 -0.015762 0.038605 0.342273 -0.376404 0.138386 1.305072 -0.637498 0.608602 -0.062309 0.231230 0.609075 -0.102455 -0.623903 0.052565 -0.416685 -0.222283 -0.020499 0.498645 0.214315 0.195487 0.150994 -0.474693 0.308335 -0.121170 -0.261139 0.992936 0.280373 -0.370261 0.135580 0.337389 0.330872 0.090416 0.160754 0.534566 -0.605747 -0.511722 -0.034312 0.642738 0.240256 -0.565674 -0.365728 -0.136510 -0.209482 -0.678759 0.364403 -0.348432 -0.497709 0.140500 -0.896204 0.033010 0.128682 -0.629982 0.083315 -0.086303 -0.483232 0.242916 -0.556724 -0.338409 0.911797 0.790885 -1.214891 0.171570 -0.008908 -0.771894 -0.004076 0.865895 0.118041 0.288774 -0.251471 0.546209 0.550011 0.298677 0.464798 0.129143 -0.022975 0.268228 -0.301129 -0.629642 0.348464 -0.511584 0.461394 0.435221 -0.127896 0.351780 0.164523 -0.422713 -0.131843 -1.038838 0.061553 0.865992 -0.023534 -0.159118 -0.265074 0.715557
request -0.336157 0.594041 0.706135 0.071217 0.621740 -0.219946 0.013421 0.114369 0.342112 -0.389488 -0.459954 -0.004176 -0.610575 -0.225219 -0.948116 0.347042 -0.856664 0.471865 -0.440102 0.020775 -0.443779 -0.509221 0.423319 0.570567 -0.623400 0.805204 -0.512353 -0.333801 0.222361 -0.457430 -0.036229 -0.491422 0.310783 0.123398 0.104001 -0.138245 -0.536923 -0.805183 0.320617 0.006989 -0.140077 -0.130189 0.165401 -1.043214 -0.300896 0.572780 -0.220836 -0.305063 0.012904 0.820917 0.474121 -0.687048 0.198890 0.312399 0.090740 -0.127433 0.031166 -0.033196 0.748225 0.076568 -0.046534 0.828464 -0.454078 -0.170919 0.676621 0.828737 0.285789 0.687363 -0.049857 0.037610 0.792648 -0.105414 -1.176127 1.361627 -0.130704 -0.065892 1.201222 0.001659 0.432255 0.384349 -0.043874 -0.088262 -0.571532 -0.230292 -0.024396 -0.797114 -0.595592 0.553380 0.096140 0.645620 0.193993 0.165089 -1.169777 0.030811 -0.227729 0.700514 -0.015734 0.019688 -0.233961 -0.018249
get -0.110244 0.343616 0.325573 0.153747 0.558135 -0.422216 0.484252 -0.101617 0.660389 -0.212540 -0.409475 -0.177115 -0.237125 0.052550 -0.578679 0.296284 -0.431120 0.487614 -0.645314 -0.623974 -0.545287 -0.585658 0.108705 0.410200 -0.503671 0.933507 -0.368971 -0.038091 0.596295 -0.626966 0.210707 -0.291243 0.702753 -0.248392 -0.011215 0.123660 -0.233254 -0.515227 0.047362 0.155410 -0.213336 -0.336093 0.243490 -0.333147 -0.094871 0.714108 -0.111157 -0.073680 -0.107715 0.787366 0.611947 -0.324905 0.144499 0.154405 0.157516 -0.137570 -0.407238 0.112754 0.169130 -0.207503 0.299252 0.515246 -0.357299 -0.367819 0.924864 0.809028 -0.010900 -0.120108 -0.103197 0.540282 0.872686 0.121343 -0.594586 0.970961 0.030428 -0.089832 1.104994 0.274137 0.591559 -0.221150 0.071107 0.356556 -0.031298 -0.688851 -0.203496 -0.498284 -0.312865 0.163640 -0.001714 0.287681 0.676076 0.069666 -0.871256 -0.175790 -0.272081 0.833922 -0.128142 -0.046538 0.230736 -0.071885
pd -0.505072 -0.361852 0.242186 -0.047314 0.046794 -0.423797 -1.123583 -0.785154 0.555836 -0.116687 -0.602406 -0.284729 -0.860714 0.679575 0.107421 0.168208 0.745608 -0.783470 -0.039269 0.008312 -0.020390 -0.578463 0.268137 -0.132564 -0.644458 0.546119 -0.192363 0.348497 -0.782756 -0.430646 -0.003652 -0.100412 1.212772 0.599510 0.277915 0.089796 0.818800 0.416935 0.319860 0.943958 0.426568 -0.357918 0.329353 0.264842 0.797613 -0.012430 0.239961 0.205477 0.569502 0.922770 -0.134406 -0.088345 0.118771 0.214383 -0.561926 -0.184846 0.177093 -1.021829 0.502676 0.438461 0.144298 -0.050307 0.074784 0.080605 -1.015402 0.579564 -0.724835 -0.215547 -0.065159 -0.744742 1.142392 1.030146 0.059855 0.213958 0.016359 0.690020 0.417879 1.188560 0.690166 0.480803 -0.660617 -0.554470 -0.284959 -0.406726 -0.104142 0.795243 0.874462 0.683605 0.077392 -0.517623 -0.104529 -0.590767 -0.168898 -0.336286 -0.282633 0.426981 0.188977 -0.157250 -0.565690 0.774704
numpy -0.284197 -0.433388 0.358904 -0.739334 0.100243 0.579825 -0.069129 -0.523392 0.020393 -0.220601 0.316584 1.147457 -1.822289 0.452717 -0.032700 0.061520 0.631012 -0.416628 -0.704036 0.044497 -0.356577 -0.473743 -0.038205 0.443611 0.026373 0.378017 0.014783 -0.193038 0.397703 -0.082635 -0.394279 1.141516 0.400730 -0.030218 0.361062 0.431529 0.391523 -0.051717 0.380783 0.628811 -0.836980 -0.577869 -0.161906 0.279725 0.822218 -0.322243 0.448827 -0.442601 0.459291 -0.351285 0.372005 -0.084881 -0.450565 0.704830 -1.441052 0.424562 0.603283 -1.112070 0.494449 0.617794 -0.320968 0.861336 -0.502741 0.090191 -0.014056 0.218957 -0.521420 0.382128 -0.101053 -0.788822 0.365521 0.771553 0.258206 0.468100 -0.753410 0.476448 0.463365 0.284764 0.380943 0.208754 -0.198218 0.068371 -0.605942 -0.100591 0.334022 -0.371623 0.241354 0.718620 0.320671 0.049525 -0.212837 -0.359720 0.427778 -0.997197 -0.070363 0.185458 -0.177355 -0.181696 -0.661695 1.093806
is -0.141144 -0.873102 0.054657 -0.568548 -0.230535 -0.723379 0.324839 -0.444839 -0.116561 0.152393 -0.348284 -0.119079 -1.150521 0.108925 0.436168 0.495849 -0.905957 0.349394 -0.487334 -0.383701 0.019349 -0.391836 0.256603 0.625922 -0.615915 -0.142125 -0.583197 -0.250874 0.420808 -0.385103 0.217315 -0.493894 0.023979 0.076890 0.628314 0.078723 -0.444678 -0.704604 -0.577681 -0.796792 0.166735 -0.750390 0.015340 0.320630 -0.910747 0.071289 -0.375681 -0.386730 0.689659 -0.429776 0.393804 0.174214 0.048309 0.047120 -0.538410 0.532286 0.845419 0.284857 -0.517346 -0.711607 -0.259137 0.314693 0.490840 -0.761239 0.033775 0.751241 0.611446 0.255476 -0.130142 0.181915 -0.172090 -0.299012 0.422385 -0.388773 0.187613 0.245467 1.096207 -0.048071 0.132534 0.130346 -0.552226 0.175605 -0.074302 0.475632 -0.146438 0.771051 0.194587 1.622801 -0.174219 0.281495 0.514968 0.795082 -0.160749 -1.024180 0.268115 0.623191 -0.292679 0.223679 0.273472 0.536477
itertools 0.222910 -0.883468 -1.231713 -0.610831 0.146687 0.076360 -0.598612 -0.576501 0.514594 0.448501 -0.303708 0.058336 0.428478 0.454554 0.080030 0.166742 0.239406 0.002783 -0.980293 -0.498535 0.636378 1.185208 -0.013742 0.435244 -0.761570 0.793711 0.171227 0.112309 0.524824 -0.797316 -0.246381 0.616194 0.399430 0.014287 0.423178 0.387268 0.315095 0.813741 0.271772 -0.666051 -0.593455 0.107944 -0.047464 0.209781 0.655271 -0.023021 -0.252034 -0.599662 0.496392 -0.117393 0.662094 -0.499590 -0.262594 0.712815 0.025241 -0.654194 -0.314876 -0.821932 -0.287812 0.293087 -0.633338 0.873862 0.276306 -0.096434 0.525359 0.246882 -1.035599 0.403638 -0.209048 -0.161859 0.599666 0.145818 0.436805 0.488777 -0.231239 -0.058197 1.367744 0.178682 0.174988 0.450659 -0.492549 0.713957 -1.572891 -0.030696 -0.189663 0.305201 0.250343 0.698726 -0.238904 -0.289604 0.188072 0.499077 0.216168 -0.020206 -0.279927 0.706411 0.575833 -0.062545 -0.464896 0.727965
format -0.322373 0.417706 -0.249706 -0.569984 -0.255685 -0.284368 0.198653 -0.478113 -0.306904 0.104609 -0.431290 -0.237819 -0.450363 0.327188 0.770490 0.444102 -0.507548 -0.136681 0.056529 0.028037 -0.601750 -0.133297 0.481755 0.102097 -0.946989 0.304632 -0.254116 -0.290190 -0.323123 -0.149448 0.278157 -0.128724 0.626699 0.785158 0.257671 -0.596334 0.362924 -0.533580 -0.329022 -0.244759 -0.135314 -0.160543 0.539942 -0.434160 -0.096693 -0.099209 -0.496290 -0.425335 0.545272 0.232151 -0.162584 0.069182 -0.247860 0.909158 -0.469016 -0.196418 0.023996 -0.006906 0.353927 0.384165 0.429312 0.047668 0.398765 -0.099292 0.367113 0.760598 0.986864 0.293482 -0.338055 0.215534 0.087055 0.317300 -0.426115 0.407913 0.181236 -0.022901 0.781807 0.478629 0.855107 0.589416 -0.100577 -0.357556 0.008173 0.308179 0.911933 0.239303 0.376961 1.246085 -0.458875 0.367353 -0.083143 0.738630 0.105268 -0.496713 -0.376158 -0.115411 0.040943 0.215830 -0.087776 0.450394
not 0.088441 -0.956622 -0.395548 -0.435629 0.779626 -0.389338 0.025846 -0.519812 0.320075 0.045048 -0.664803 -0.002808 -0.384203 0.157659 0.290690 0.049608 -1.115814 0.502807 -0.859772 -0.189253 -0.261119 -0.828722 -0.207159 0.738365 -0.662450 -0.398272 -0.714232 -0.373963 0.898806 0.306405 -0.076037 0.028290 -0.238405 0.332848 0.547160 0.286046 -0.459943 -0.451557 -0.435523 -0.406617 -0.151180 -0.053565 -0.466129 0.070651 -0.371944 -0.185072 -0.662206 -0.575302 0.709430 0.197963 0.672551 0.254354 0.368533 -0.608381 0.103413 -0.253207 0.450104 0.160995 -0.393891 -0.316512 -0.446612 0.344002 0.805349 -0.261784 0.545883 0.975272 -0.063479 0.817073 -0.159098 0.133983 0.477396 -0.371053 -0.571525 0.421916 -0.256517 0.011865 1.244095 -0.370756 -0.164394 0.185199 -0.475179 0.035384 0.145199 0.622188 -0.126080 0.286520 -0.227126 0.649533 -0.433261 0.234890 0.506921 0.152961 -0.544726 -0.513869 0.074424 0.850919 -0.453933 0.041779 0.274026 0.231098
filter -0.435782 0.124758 0.324054 -0.342591 0.630452 -0.367522 -0.515262 -0.290787 0.552316 -0.176402 -0.564515 -0.296810 -0.289981 -0.153184 -0.252872 -0.436244 -0.789005 0.241196 -0.315702 -0.181173 -0.102035 -0.863421 0.694908 0.297505 -0.297248 0.537839 -0.006140 -0.287273 0.155584 -0.251499 -0.412435 -0.353006 0.054742 -0.160559 -0.151979 -0.646222 -0.105788 -0.524138 -0.131111 0.176818 -0.131566 -0.142587 0.020883 -0.084905 0.591151 0.267162 -0.443673 -0.620625 0.125610 0.893724 1.003752 -0.121763 0.074125 -0.119701 0.028270 -0.505030 -0.579794 -0.203300 0.376340 -0.379826 0.297870 0.354183 0.407003 0.028898 0.516805 1.185499 -0.317458 0.449539 0.018863 -0.030128 0.122788 0.070598 -0.255414 0.879454 -0.408238 -0.064886 1.147273 -0.200288 0.368777 0.336468 0.441458 -0.083368 -0.456042 -0.311474 0.251686 -0.171434 -0.118622 0.468560 0.011171 0.143224 0.107110 0.426793 -0.286500 -0.634226 -0.032689 -0.054684 0.271294 0.144982 -0.238666 0.368834
plt 0.519557 -0.198700 0.597814 0.213793 -0.410983 -0.542124 0.083398 -1.018721 0.087209 1.082249 0.278425 0.458408 -1.036708 0.430203 -0.415702 -0.172220 0.846941 -0.687522 -0.205968 0.176493 -0.226075 -0.788770 0.274762 0.068544 0.022092 0.264280 0.749671 -0.078275 -0.410991 -0.541189 -0.024937 0.929189 0.219661 0.548381 -0.258621 0.153484 0.960507 -0.392308 0.578219 0.850015 -0.822177 -0.247890 0.345917 0.881123 0.181663 -0.561919 0.254461 1.019917 0.616670 0.375265 -0.055869 -0.638252 -1.323294 0.807588 -0.695989 -1.153234 -0.452717 0.139829 0.811231 0.599041 -0.140303 -0.122950 0.071644 0.532291 -0.502068 -0.091982 -0.666464 0.779979 0.898471 -0.923032 0.774648 0.232070 0.872398 0.712191 -0.800147 0.092071 0.132162 0.394312 0.195189 0.551411 -0.278559 0.043795 -0.242120 0.363098 0.279005 0.336445 -0.822016 -0.163342 -0.025896 -0.581297 0.389042 0.626190 -0.045908 -0.768642 0.167080 -0.290925 -0.738532 0.200309 0.873199 0.959189
** 0.145140 0.052027 -0.036327 0.100927 0.396663 -0.488588 0.102921 -0.037362 -0.605774 -0.328131 -0.206764 0.228186 -0.120827 -0.105607 -0.546134 -0.070496 -0.590389 0.415220 -0.234957 0.011339 -0.925119 -0.230702 0.809319 0.549136 0.505065 0.512961 -0.052773 -0.955436 -0.270782 -0.090992 -0.230066 -0.387185 0.760194 -0.160991 0.406334 -0.041018 0.070778 -0.632239 0.117095 0.018833 -0.304788 0.031429 0.109901 -0.085489 0.293947 0.072221 0.192641 -0.275932 0.236339 0.062461 -0.222789 -0.759139 -0.330750 0.449380 -0.399548 -0.608577 -0.018654 0.274771 1.286067 0.177102 -0.204261 0.026388 0.466206 0.127353 1.158404 0.700023 -0.031266 0.653602 -0.300316 -0.321888 0.266865 0.723698 -0.419432 1.199453 -0.393856 0.334844 0.863237 0.145106 0.570554 0.712413 0.085368 -0.218128 -0.429332 0.174706 0.862461 -0.476719 0.255038 0.647319 0.072489 0.683283 -0.023892 0.660477 -0.962624 -0.795502 0.033566 0.573845 0.004976 0.666903 -0.840091 0.286053
set 0.074561 -0.259113 -0.863776 -0.267190 0.750494 -0.510284 0.190583 -1.156432 1.319801 0.262523 -0.854145 -0.221339 -0.153038 0.386812 0.473648 -0.240661 -0.185359 0.383078 -1.070879 -0.699666 0.019886 0.421665 0.357784 0.201900 0.172435 -0.340004 0.117322 -0.187876 0.643040 -0.586725 -0.409134 0.006035 0.540044 0.495892 0.070488 -0.054374 0.248347 -0.302723 0.008745 -0.388744 -0.231601 -0.535272 -0.537553 0.167558 0.154119 0.262764 -0.442829 0.075100 -0.102032 0.263129 0.524925 0.168254 -0.603529 -0.084814 -0.106356 -0.777032 -0.388804 -0.089479 -0.140603 0.059606 0.213988 -0.367526 0.326541 0.055425 1.116607 0.503819 -0.557173 -0.005449 0.002655 -0.599626 0.405314 -0.372104 -0.000884 0.328493 -0.135255 0.382814 0.573043 -0.317210 -0.016575 0.314953 0.121527 0.402732 -0.373133 0.249612 0.341559 -0.304861 -0.151786 0.182242 -0.302237 0.651580 0.033743 0.085802 -0.153778 -0.066108 -0.472336 0.217374 0.384368 0.221965 -0.649295 0.598535
zip 0.039995 0.252340 -0.962140 -0.004746 0.591578 -0.577563 -0.618459 -0.215347 1.026480 -0.095848 -0.498264 0.209779 0.374591 0.461302 0.761642 -0.121322 0.074302 0.537422 -0.297106 -0.691144 -0.292862 0.372640 0.261786 -0.016575 -0.153842 0.279113 0.182915 -0.057142 0.598279 -0.885649 0.059705 0.106192 0.718032 0.362100 0.322439 0.129618 0.485492 0.464650 0.267621 -0.098408 -0.380249 -0.194702 -0.285351 0.184334 0.179459 0.155324 -0.369452 -0.224715 0.054457 -0.013482 0.193191 -0.435188 -0.547099 0.140303 0.351180 -1.279773 -0.228053 -0.074234 0.225065 0.078053 -0.397922 0.162187 0.277015 -0.470231 1.030486 0.746417 -0.951013 0.470925 -0.449841 -0.340448 0.594898 0.827437 -0.045586 0.459761 -0.037613 0.109177 0.989127 0.054711 0.182015 0.566054 0.099180 0.586203 -0.884383 -0.515796 0.312237 -0.471529 0.390326 0.350446 -0.410000 0.460912 0.519128 0.136558 -0.111677 -0.536989 -0.301194 0.858472 0.263414 0.562464 -0.532081 0.482843
7 0.417413 0.132542 -0.983155 -0.839498 0.067862 0.334927 0.329266 -0.186853 0.388305 -0.031632 -0.273787 0.815088 0.186725 0.115893 -0.175530 -0.078708 0.254601 -0.148826 -0.228579 0.425375 -0.269211 0.601040 -0.328271 0.596681 0.255891 0.564026 0.025314 -0.753053 -0.889256 -0.175014 -0.844993 0.651225 0.761023 -0.050665 0.251716 0.019920 0.423287 0.150744 -0.331371 0.176320 0.052586 0.217204 0.087351 1.028433 0.455601 -0.132000 -0.803137 0.029952 -0.092949 -0.555970 0.242613 -0.594861 -0.697176 0.190082 -0.975555 -0.181870 -0.220368 -0.138395 0.638937 -0.524883 -0.364819 -0.005766 0.026041 0.548890 1.161555 0.897895 -0.853933 0.191000 -0.064268 -0.292070 0.271425 0.203130 -0.319178 0.212785 0.008328 0.352169 0.986973 0.206692 0.653216 0.101084 -0.125356 -0.047399 0.399197 0.041786 0.650143 0.090926 0.707148 0.554046 -0.729386 0.427196 0.327465 0.267424 -0.400568 -0.250142 0.359398 0.432746 0.049847 0.372899 -0.391509 0.372550
False -0.661221 -0.235822 0.185434 -0.237568 0.315832 -0.949140 -0.656675 -0.419596 0.555613 0.161786 -0.262414 0.072226 -1.027370 0.256346 -0.593567 0.476004 -0.780887 0.045890 -0.495594 -0.000687 0.018196 -1.361793 0.624576 0.621212 -0.062559 0.402942 0.133503 -0.600834 0.338048 -0.333661 -0.203525 0.201382 0.153391 -0.342919 -0.176065 0.347381 0.002757 -0.628432 0.181610 0.125361 -0.653894 -0.565631 -0.540334 0.084331 0.117575 -0.202113 -0.022919 -0.153197 0.141167 0.362603 0.818068 -0.369087 -0.309368 -0.487183 0.171753 -0.331622 -0.229667 -0.403495 0.319753 0.068148 -0.126178 0.113370 0.354792 0.063589 0.210786 0.655035 -0.763542 0.132418 0.161415 -0.237608 0.342249 0.252700 0.002796 0.769777 -0.887514 0.306086 0.815231 0.455406 0.611917 -0.154348 -0.094869 -0.385247 -0.471811 0.176815 -0.407668 -0.061435 -0.461241 0.479994 0.147627 -0.288817 0.418889 0.074430 -0.460474 -0.778050 0.125285 0.829884 -0.114247 0.142882 0.186310 0.613398
time -0.439417 -0.052839 -0.499015 -0.261677 0.294167 -0.058133 -0.760358 -0.712318 0.076210 0.004418 -0.522174 -0.908597 -0.667179 0.867656 -0.395352 -0.489574 -0.056984 -0.038949 0.363177 0.612551 1.075939 -0.458048 0.077366 0.504180 -0.134210 0.225988 -0.785251 -1.310449 0.142468 -0.098385 -1.012932 0.143707 0.428309 -0.134052 0.409729 -0.208125 0.640338 0.110660 -0.101670 0.206577 -0.211780 0.913332 0.279760 0.291337 0.253307 0.002597 0.045905 0.107654 0.837928 0.226108 0.207403 -0.371736 0.134280 0.625096 -0.686354 -0.211117 -0.550597 -0.821551 0.376331 0.329927 -0.265162 -0.424391 0.023562 -0.059288 0.065406 0.599928 0.909509 -0.203397 -0.995439 0.549429 0.225995 -0.803736 -0.327938 0.532855 -0.731357 -0.569798 0.285258 0.838003 0.684292 0.353656 -0.056461 -0.303044 0.724721 1.169619 0.296237 0.634589 0.561529 0.323704 -0.518832 0.356353 0.366852 0.665721 0.255428 -0.334266 0.586944 -0.407769 -0.436902 -0.540766 0.339862 0.881851
items -0.218465 -0.068308 -0.544900 0.132131 0.914089 -0.674452 -0.408599 -0.454416 1.224014 0.090675 -0.755636 -0.498801 0.175296 0.311282 0.523463 -0.305787 -0.196612 0.589529 -0.500390 -0.212089 -0.125729 0.478924 0.230534 -0.184780 -0.582652 0.305397 -0.094039 0.351912 0.451938 -0.562052 -0.242349 0.413002 0.180146 0.172992 0.177352 -0.106922 0.127752 -0.075790 0.541444 -0.080003 -0.201272 0.016851 -0.301909 -0.189706 0.054729 0.216161 -0.424441 -0.554511 0.189012 0.455341 0.485100 -0.515804 -0.243560 0.003603 0.389954 -1.191852 -0.291761 -0.191215 -0.096753 -0.115744 0.001861 0.214994 0.397013 -0.346465 0.974161 0.835157 -0.358903 0.384639 -0.207645 0.037125 0.601027 -0.029976 0.148939 0.654447 0.118556 -0.376992 1.159785 0.008179 0.025336 0.514994 -0.143096 0.273321 -0.287804 -0.231152 0.414514 0.117878 0.266717 0.185699 -0.562717 0.147939 0.642277 0.268572 0.189246 -0.517462 -0.486063 0.281803 0.322248 -0.027987 0.057365 -0.087591
id -0.113861 0.429058 0.251596 -0.334919 0.546016 -0.685575 0.159863 -0.344742 0.840016 -0.426274 -0.524859 0.322757 -0.168343 -0.115962 0.179038 -0.731076 -0.372277 0.033439 -0.357581 -0.967767 -0.278111 -0.667071 0.397991 0.267226 -0.531538 0.333521 -0.178361 0.440176 -0.164436 -0.610534 -0.316610 -0.729727 0.268385 0.021427 -0.259236 -0.238840 0.169588 -0.250112 0.046805 0.257491 -0.046704 -0.736929 0.070202 -0.426312 0.399338 0.559526 -0.143731 -0.628987 -0.273246 0.729474 0.472680 -0.256015 0.260840 0.114626 -0.078412 -0.473657 -0.302303 -0.364311 0.367652 -0.735499 0.210925 0.514126 0.216622 -0.182392 0.354208 0.908025 -0.515414 0.361640 -0.061341 0.009168 0.226765 0.111582 -0.143352 0.675266 0.048882 -0.048588 1.042796 -0.242877 0.524265 0.281291 -0.099838 0.020847 0.067279 -0.452864 0.394966 -0.320919 -0.226403 0.599947 -0.317021 0.044983 -0.065333 0.301341 -0.768485 -0.547555 -0.116432 -0.044165 0.247767 -0.018359 -0.124713 0.165680
sum 0.122970 -0.306291 -0.335954 0.374125 0.276834 -0.309167 -0.930531 -0.732685 0.640149 -0.298301 -0.185669 0.161187 -0.490658 0.396219 0.210307 -0.171389 -0.105675 0.337626 -0.233713 -0.296712 -0.384225 -0.224841 0.355086 -0.211050 -0.193066 0.115667 0.138670 -0.069575 0.587748 -0.115475 -0.580908 0.665896 0.672697 -0.181776 0.210879 0.043402 0.510420 -0.276051 -0.017606 0.258359 -0.397010 -0.155353 -0.235265 0.268280 0.878386 -0.083508 0.072524 -0.653297 0.248341 0.129128 0.487836 0.300682 -0.540536 -0.037736 -0.543305 -0.422582 -0.173055 -0.366120 -0.079508 -0.075130 -0.148459 0.334875 0.547255 0.026164 1.051991 0.786357 -0.313650 0.215026 -0.722298 0.214423 0.396016 0.458056 0.285018 0.383784 -0.379648 0.155398 0.919525 0.081003 0.277340 0.423968 0.055465 0.101169 -0.667611 -0.323621 0.620479 -0.131832 0.258356 0.116558 -0.153109 -0.283517 0.496524 -0.167214 0.008922 -0.788502 -0.279596 0.338500 0.624075 0.470607 -0.607311 0.498951
and 0.477731 -0.323723 -0.190423 -0.719264 -0.051776 -0.065995 0.538458 -0.382666 0.152240 0.040828 -0.356988 0.335082 -0.491865 0.247284 -0.177806 0.105723 -0.843962 0.286106 -0.891434 -0.498794 -0.272434 -0.454084 -0.112293 0.948306 -0.296956 -0.309673 -0.302124 -0.206348 0.318531 0.659407 -0.324034 -0.477076 -0.224265 -0.214600 0.414350 -0.276967 -0.173326 -0.213770 -0.459286 -0.474622 -0.087792 -0.246520 0.163170 0.071546 -0.335841 -0.328167 -1.063062 -0.673643 -0.166218 -0.201126 0.408138 0.183984 0.199425 -0.266767 -0.333507 0.369760 0.131235 -0.083614 0.237764 -0.834055 -0.656579 0.103866 0.490247 -0.509745 0.436838 1.024202 0.215310 0.785479 -0.265692 0.020140 -0.526072 -0.773615 -0.179314 0.167081 -0.285389 0.370637 1.023988 -0.570598 0.055917 0.306711 -0.266023 0.187991 0.125299 -0.103395 0.152100 0.250979 -0.374255 0.788250 -0.531291 0.232310 -0.171061 0.299376 -0.966376 -0.276945 0.008271 0.375232 -0.044846 -0.186778 -0.015243 0.106306
url 0.193671 1.015608 0.634127 0.073195 -0.075908 0.024695 0.298160 0.100879 0.543723 -0.143173 -0.330620 -0.262343 -0.903337 0.178788 -0.035646 0.212767 -0.122701 -0.034188 -0.442013 -0.432474 -0.095773 0.023739 0.132056 -0.048449 -1.072328 0.976039 -0.448218 0.181063 0.415233 -1.006754 -0.147528 -0.222541 0.488731 0.221029 0.281478 -0.133979 0.172206 -0.796311 0.247758 0.334172 -0.226629 -0.157158 0.447082 -0.502476 -0.210887 0.924760 -0.146206 -0.022910 0.395880 0.932517 0.237446 -0.659496 0.427021 0.696012 -0.283427 0.198620 -0.391335 0.235295 0.188388 0.073413 0.188215 0.578028 -0.391206 -0.306468 0.658283 0.069394 0.508433 0.124934 -0.510642 0.706454 0.586371 -0.146619 -0.804104 0.723891 0.247112 0.118468 0.945783 0.518933 1.280320 0.280499 -0.116464 -0.230978 0.245841 -0.499535 -0.074881 -0.737787 -0.468940 0.075004 0.278847 0.619000 0.377054 0.082109 -0.531994 0.225962 -0.244680 0.282624 -0.169615 0.306234 -0.113467 -0.049886
values -0.545990 -0.235329 -0.198150 0.189105 0.332796 -0.340099 -0.794986 -0.570841 0.688661 -0.230102 -0.291129 -0.041540 -0.075857 0.264040 0.566164 -0.269387 0.054960 0.423261 -0.094398 -0.483517 -0.025728 -0.227280 0.256073 -0.034515 -0.405807 0.382484 0.232665 0.074219 0.457152 -0.619003 -0.213844 -0.163701 0.643467 0.243216 0.243107 0.131938 0.243288 0.279209 0.429318 0.228113 -0.301375 -0.221966 0.035312 -0.174605 0.358276 0.264017 -0.285007 -0.408311 0.239836 0.362382 0.440104 -0.363243 -0.301711 0.150526 0.276508 -0.723871 0.154429 -0.653118 0.379681 0.072391 -0.165788 0.425296 0.509298 -0.323224 0.121975 0.897839 -0.574461 0.183091 -0.213840 -0.221937 0.303380 0.523599 0.095513 0.513689 -0.002748 -0.251948 0.858694 0.174496 0.141780 0.292691 -0.396824 0.119596 -0.763022 -0.581969 0.443998 0.378491 0.275365 0.496861 -0.400667 -0.024604 0.565123 0.162819 -0.398335 -0.748299 -0.617873 0.094918 0.427797 0.336795 -0.351751 0.302023
8 0.502495 0.087365 -0.899580 -0.779788 0.103399 0.221750 0.257881 -0.405119 0.455283 0.258760 -0.283843 1.020054 0.069006 0.216481 -0.171541 -0.309751 0.207037 0.033320 -0.340889 0.346710 -0.429175 0.404508 -0.431460 0.333764 0.338285 0.294767 0.086438 -0.676316 -0.767693 -0.267147 -0.924417 0.711415 0.823541 0.193044 0.123561 0.200969 0.558112 -0.016395 -0.264839 0.408321 -0.143785 0.177846 0.000595 0.841287 0.594690 -0.145833 -0.454474 0.260783 -0.168557 -0.556022 0.086150 -0.576262 -0.753881 0.071348 -0.878730 -0.373281 -0.213551 -0.032939 0.713345 -0.434442 -0.338567 -0.092838 -0.071826 0.735160 1.297324 0.579617 -0.939958 0.201787 -0.157297 -0.221521 0.430913 0.427845 -0.317724 0.169341 -0.131354 0.501633 0.862656 0.220324 0.693245 0.161901 0.055444 0.060768 0.299167 0.319729 0.699118 -0.161270 0.754027 0.356968 -0.636197 0.377376 0.282359 0.153071 -0.567757 -0.187811 0.411166 0.395920 0.007756 0.525640 -0.534096 0.511425
string 0.157579 -0.103426 0.077211 -0.482625 -0.440452 -0.243971 -0.005454 -0.374548 -0.033394 0.692376 0.287491 0.164260 -0.940940 0.396085 0.243214 0.103062 -0.755920 -0.015203 -0.848536 -0.478892 0.188996 0.218287 -0.086679 0.237585 -0.492344 0.421730 -0.428278 0.285005 1.053583 -0.408844 -0.208954 0.083246 -0.252346 -0.101896 0.677770 -0.246709 0.267319 -0.195499 -0.338510 -0.126420 -0.001934 -0.565939 0.309256 0.222480 -0.008017 0.353800 -0.413150 -0.704643 0.410298 -0.463553 0.450955 0.100940 -0.049655 0.268806 -0.495033 -0.018074 -0.072529 -0.023075 -0.580669 -0.409755 -0.335594 0.593696 0.040184 -0.399060 0.377079 0.304445 0.313316 0.455389 -0.290915 0.253941 0.081791 0.081109 0.407176 -0.164029 -0.313717 0.006803 1.235378 0.040954 0.318993 0.553342 0.067044 0.870905 -0.577753 -0.326668 -0.227954 0.299138 0.231814 0.636127 -0.201246 -0.011449 0.755883 0.265265 0.016264 -0.485177 -0.375969 0.363344 0.064076 0.219709 -0.061577 0.432027
append 0.016889 -0.259253 -0.282474 -0.593566 0.646740 -0.390226 -0.115205 -0.216121 0.433161 0.372441 -0.405408 0.393610 0.042659 0.740065 -0.025046 0.050046 -0.257789 0.368582 -0.755709 -0.268778 -0.575051 -0.186752 -0.193648 0.412213 -0.346622 -0.308346 -0.190281 0.067474 0.424286 -0.218333 -0.043346 0.573178 0.423948 0.313084 -0.048251 -0.077159 -0.117115 -0.187519 0.182119 0.383471 -0.531756 -0.395379 -0.298922 -0.114621 0.205991 -0.006926 -0.308271 -0.349950 0.459519 0.182051 0.229472 -0.013216 0.348460 0.330796 0.137015 -0.751664 -0.036863 -0.704320 0.050688 0.238651 -0.038386 0.245666 -0.210731 -0.128112 0.629168 0.797139 -0.251585 0.263204 -0.320750 0.145773 0.779513 0.180433 -0.202896 0.105815 -0.328156 0.088904 0.855695 0.287173 0.216687 0.343704 -0.027648 0.722092 -0.313873 0.060374 0.321406 -0.067391 0.351216 0.315936 -0.496682 -0.069940 0.524192 -0.146696 -0.374633 -0.547603 -0.280229 0.524442 -0.373093 -0.358953 -0.118227 0.378629
? 0.590122 0.718144 -0.168548 -0.756811 -0.399506 -0.194910 0.267389 -0.561448 0.472888 0.234953 -0.751169 0.568844 -0.504494 0.299258 0.299382 -0.922656 0.016215 0.199479 -0.694461 -0.867859 0.420862 0.681956 -0.073306 -0.509057 0.744294 -0.770912 -1.004746 -0.136413 -0.225456 -0.142952 -0.716294 -0.842765 0.079351 0.223409 0.041634 -0.251406 0.315720 0.216753 -0.125883 -0.582505 -0.502026 -0.577329 0.330112 0.359437 0.307748 0.588313 -0.097419 -0.283277 -0.357916 -0.162787 0.287733 0.090744 0.517889 0.221483 -0.732825 -0.184490 -0.139815 0.392757 0.532510 -0.787302 0.080178 -0.058913 0.085847 0.085051 1.075784 -0.206880 0.129410 0.502579 -0.921760 -0.297326 -0.113375 -0.551748 -0.371882 1.010553 -0.073715 0.214130 0.074902 -0.688519 0.566205 1.216659 -0.247896 0.021870 0.429494 -0.360191 0.465587 -0.815816 0.089053 0.537123 -0.160928 0.351844 -0.831380 -0.058277 -0.901319 -0.355914 0.822557 0.349583 -0.289582 -0.234810 -0.594205 0.156457
sorted -0.267831 0.115407 -0.842412 0.088257 0.880897 -0.669762 -0.922473 -0.460572 1.238227 -0.041945 -0.822409 -0.757690 0.292002 0.505881 0.122601 0.059239 -0.031314 0.267040 -0.148534 0.025967 -0.152266 0.456503 0.278891 0.159875 -0.209905 0.534175 0.129411 -0.346944 0.597899 -0.665930 -0.007246 0.603187 0.546870 0.052044 0.031423 -0.425324 0.379134 0.107784 0.219903 -0.030654 -0.134864 0.061608 -0.508800 0.416998 0.371149 0.078201 -0.583448 -0.155703 0.217853 0.552101 0.742342 -0.295459 -0.324748 -0.203688 0.463677 -1.251124 -0.827118 -0.338668 -0.097427 0.012148 0.158121 -0.102451 0.256550 -0.169606 1.230380 0.968947 -0.692512 0.207126 -0.131500 0.068995 0.769357 0.024247 -0.057792 0.724779 -0.133336 -0.168860 1.202667 0.069200 0.205149 0.147136 0.390696 0.391981 -0.601927 -0.213224 0.112091 -0.140254 0.326991 0.069676 -0.207807 0.210373 0.739624 0.197486 0.235042 -0.500743 -0.325986 0.687006 0.428976 0.375905 -0.002475 0.458676
sub 0.378603 0.434308 -0.069911 -0.845087 -0.576917 -0.219665 -0.970433 -0.352652 0.572600 0.615946 0.174831 0.203576 -0.816673 0.330462 0.490868 0.569041 -0.780975 -0.582059 -0.397863 -0.010182 0.087820 -0.036839 -0.088910 -0.158927 -0.416007 0.225330 -0.141825 -0.167849 0.245472 -0.424113 0.359869 0.273725 -0.247289 -0.032576 0.268498 -0.619208 0.251664 -0.058210 -0.338232 0.099457 0.269050 -0.083080 0.493307 1.093906 -0.837781 0.777652 -1.106791 -0.128488 0.623736 -0.302963 0.405757 0.352739 -0.182292 0.324106 -0.144204 -0.909440 -0.193543 0.521210 -0.351579 -0.317531 0.226023 0.062580 0.477917 -0.189006 0.348544 0.461195 0.160829 0.447652 0.232059 -0.149629 0.107988 0.529966 -0.329904 -0.175023 -0.614429 0.297542 0.897608 -0.096721 0.552137 0.555066 0.182007 0.110080 -0.243210 -0.591981 -0.525447 -0.082394 0.356151 0.433161 -0.381518 -0.432503 0.807292 0.284053 0.571894 -0.105007 -0.106528 0.446678 -0.114088 0.431077 -0.069856 0.178105
findall 0.410427 0.510453 -0.128978 -0.710821 -0.370151 -0.038553 -0.305592 -0.290933 0.569511 0.623249 0.330768 0.205254 -0.855777 0.346297 0.667018 0.275408 -0.780652 -0.607514 -0.351956 -0.219564 0.166962 0.086400 -0.166066 -0.030841 -0.485356 0.403461 -0.434678 0.130997 0.371455 -0.462409 0.292226 0.242994 -0.121151 0.211652 0.509204 -0.612452 0.324977 0.024511 -0.443041 0.088008 0.277728 -0.392014 0.553264 0.946820 -0.633965 0.817239 -0.919316 -0.243582 0.785649 -0.451016 0.190495 0.416382 -0.217896 0.339951 -0.378866 -0.697216 -0.329473 0.403826 -0.330012 -0.180687 0.196763 0.093606 0.125407 -0.150965 0.454215 0.527021 0.166248 0.745290 -0.061095 -0.289555 0.287794 0.531506 -0.394734 -0.229359 -0.531528 0.022766 0.824480 -0.168435 0.377493 0.620952 0.199877 0.326071 -0.221697 -0.539433 -0.255078 -0.262639 0.186053 0.526358 -0.489291 -0.046702 0.641275 0.377907 0.760594 -0.087648 -0.144211 0.342156 -0.399800 0.442086 0.133953 0.399955
file 0.171248 0.219119 -0.099744 -0.685204 0.197331 -1.137530 0.478824 -0.347113 0.192198 0.265276 -0.551152 0.424011 -0.502385 0.959513 0.590178 0.508457 -0.080792 -0.266728 -0.694086 -0.663581 0.066733 0.038097 -0.044298 0.814368 -0.267869 -0.273815 -1.052325 -0.012907 0.563105 -0.077667 0.319945 -0.181435 0.237500 0.569412 0.620969 -0.159673 0.071240 0.091229 -0.507807 0.134812 -0.245974 -0.647134 -0.125366 -0.456312 -0.108583 -0.240030 -0.522705 0.355680 0.318814 0.218400 0.265728 -0.279605 0.476426 0.008508 -0.253798 -0.361249 -0.055644 -0.399401 0.049489 -0.149259 -0.361843 0.074537 -0.232577 -0.168396 -0.287796 -0.382316 -0.016499 0.175545 -0.058523 -0.027164 0.760728 -0.277903 -0.756312 -0.003745 -0.571086 0.231580 0.364816 0.933929 0.846799 0.108685 -0.415343 0.416758 0.376424 0.654100 -0.712477 -0.178099 -0.017415 0.543003 0.090553 0.177177 0.022725 0.231564 -0.248126 -0.620617 -0.342544 0.715004 -0.678829 -0.358602 0.143594 0.293261
9 0.486295 -0.037800 -0.924598 -0.831680 -0.000593 0.423901 0.466380 -0.239353 0.381106 0.026937 -0.421439 0.753386 0.070000 0.085345 -0.153927 -0.320703 0.482317 -0.107185 -0.298941 0.245843 -0.249445 0.721304 -0.449184 0.297869 0.521457 0.384990 -0.052791 -0.722514 -0.820529 -0.132755 -0.896508 0.506266 0.904930 0.039779 0.179161 0.085282 0.495289 0.295610 -0.282387 0.273977 -0.047378 0.167327 0.011255 1.130572 0.539260 0.187542 -0.512425 0.205507 -0.188228 -0.558158 0.124715 -0.284609 -0.447597 0.195684 -0.979392 -0.162758 -0.120914 0.057189 0.692460 -0.507677 -0.344926 -0.201298 -0.079236 0.563345 1.219218 0.654266 -0.873529 0.205127 -0.241694 -0.318075 0.350162 0.164278 -0.297207 0.391998 -0.030752 0.467592 0.617931 0.044371 0.531292 0.094134 -0.067311 0.143064 0.663210 -0.026797 0.628505 -0.233239 0.607810 0.293508 -0.621372 0.372102 -0.003794 0.126716 -0.538037 -0.239942 0.483417 0.554642 -0.063257 0.206906 -0.411339 0.474081
else 0.053906 -0.521465 -0.150715 -0.093532 0.384128 -0.325386 -0.365930 -0.301182 0.247120 -0.040619 -0.478342 0.225855 -0.648192 0.141537 -0.130681 0.093163 -0.548964 0.189622 -0.512953 0.089303 -0.438862 -0.335268 -0.034514 0.060132 -0.482377 -0.032583 -0.109954 0.011493 0.367840 0.303106 -0.537466 0.455926 -0.048992 -0.068783 0.305601 0.036565 -0.103162 -0.862963 -0.101305 -0.208681 -0.012983 0.027999 -0.289196 0.012857 -0.307862 -0.123576 -0.130682 -0.523838 0.195353 -0.003252 0.423399 -0.289453 -0.281479 -0.522472 -0.478276 -0.317300 0.486929 0.030053 0.077466 -0.425306 -0.449091 0.454609 0.682826 -0.432892 0.727657 0.849870 0.177574 0.672256 -0.180861 0.242640 0.066484 -0.411257 0.089946 0.180509 0.055821 0.048943 1.136717 0.094171 0.200813 0.240205 -0.310380 -0.228645 0.110405 0.594259 0.379651 0.160791 0.049574 0.460301 -0.359897 -0.172817 0.511028 0.101688 -0.561943 -0.925088 0.142519 0.692991 0.229480 0.174737 0.136625 -0.199859
