2851 50
<VAR_NAME> 0.625885 -1.089161 -0.506642 -1.442709 0.814366 0.701868 -0.155195 1.961144 -2.393350 -1.110030 2.030417 0.500830 -0.656355 -1.350110 -1.406699 -0.217958 -1.234603 -0.547243 1.146818 -0.672947 1.035908 0.533199 -0.614497 -0.405185 -0.152242 -1.206350 -0.715607 0.306710 -0.991617 -0.890742 0.583637 0.135814 -0.195727 -0.438196 1.507467 0.115011 0.716862 1.018012 0.301904 -0.007090 -0.632246 0.337076 -0.171984 -0.482183 -0.947529 0.256109 -0.985112 -1.260707 0.631920 0.301054
( 0.544651 -0.545317 -1.113907 -0.355783 0.601794 0.267063 -0.446659 1.075981 -1.615956 0.581346 1.774090 -1.024735 0.226071 -1.112694 0.651725 -0.490661 0.427823 -0.590094 0.650922 -0.863327 1.078058 0.666016 -2.014251 -0.490636 0.231950 -0.974653 -1.485422 0.477401 -0.432874 -0.564048 1.433467 -0.772426 -0.298708 -0.621754 2.091293 -0.645092 0.479409 1.822473 0.704000 -1.536882 0.789019 -0.125866 0.463138 -1.374451 -0.682786 -0.288847 -0.695908 -0.436745 0.326623 0.312592
) 0.912329 0.751201 -0.511227 -0.890316 1.042467 0.597992 0.241934 1.379506 -0.712160 -0.100657 1.441540 -0.400551 0.428400 -1.586731 -0.093097 -0.315091 -1.029174 -0.393869 1.080207 -0.746830 0.652833 -0.392647 -1.857493 -0.776609 1.512992 -1.130368 -1.748277 0.288104 -0.598118 -1.144101 0.291476 -0.014444 -0.589701 -1.459325 1.246926 -0.174468 0.009106 1.184917 0.576325 -1.450802 0.367665 -0.122519 -0.142931 -1.151841 -0.264322 -0.309433 -1.433155 -0.165026 -0.025389 1.448082
, 1.218710 0.771259 -0.386334 -0.130677 1.275595 -1.399897 -0.281117 -0.339936 -0.897552 0.142496 1.188715 -0.135613 0.419478 -1.113794 0.427760 -0.334193 -1.006011 -1.763940 2.450246 -0.240330 -0.383458 1.864128 -0.562249 -1.409352 0.314697 -1.910292 -1.567570 1.175376 0.631995 -1.314323 -0.597211 1.516917 -0.801627 -0.886252 1.393680 -0.106333 1.026627 0.348906 0.809580 -0.698945 -0.326050 -1.004973 -0.640132 -0.639105 -0.901038 1.136267 0.890094 -0.725905 0.763064 -1.064631
. -0.185519 -0.059400 0.088124 -0.690615 1.676016 0.174510 0.252835 0.945923 -1.339206 0.085144 1.686066 -0.005303 -0.360818 -0.700533 -0.346016 -1.015116 -0.136450 0.281642 1.119579 0.075905 1.136807 0.247527 -1.208433 -0.629541 -0.466357 -0.524159 -0.883414 0.057453 -0.756211 0.161093 0.542831 -0.102044 -1.457685 -1.493910 1.294712 -0.626431 1.022984 2.620424 0.432757 -1.648807 -0.637853 -0.465094 -0.195824 -1.202135 -1.501406 -2.001177 -1.413135 -1.310913 -0.687376 0.116481
= 0.851521 -1.292672 -1.418151 -2.048746 0.439726 0.667646 -0.075493 1.994827 -0.422944 -0.451917 1.381112 -0.562601 0.794060 -0.309098 -1.022990 -0.151701 -2.159211 -1.675928 0.693834 1.417857 0.638658 1.383457 -0.340530 -0.028183 -0.308199 -0.602097 -0.507244 -0.090086 -1.620987 -1.702244 -0.420187 0.177976 -0.943503 -0.998917 2.022297 -0.492463 1.566780 1.143658 0.420741 -0.755981 -0.607104 -0.052425 -0.402550 -1.053301 -0.059026 -0.789256 -0.354830 -0.354133 0.245026 0.415139
[ 1.398774 -0.069423 -0.296272 -1.320961 0.814080 0.209688 -1.136281 -1.002331 -2.541112 0.371554 0.622205 -1.158052 -0.411095 0.111099 -1.026592 -1.878557 -1.401194 -0.429224 -0.146188 0.105973 1.054744 -0.099326 -0.736056 -0.619972 -0.026032 -1.153187 -1.648099 1.057615 0.494825 -1.608820 -0.709526 0.144116 -0.729778 -1.086970 1.921465 0.045062 0.596063 -0.723476 0.984621 -1.414844 -0.933835 -0.454393 2.095844 -0.838827 -0.735952 -0.647039 0.472090 -0.018198 -0.368261 -0.243315
] 1.503830 0.391091 -0.062095 -1.277895 0.800646 0.129327 -0.647076 -0.870457 -2.107869 0.226354 0.276468 -0.980144 -0.336682 -0.075921 -1.136895 -1.927119 -1.950454 -0.412472 0.358393 -0.168627 0.546899 -0.181203 -1.164666 -0.985422 0.636292 -1.225904 -1.545844 0.857824 0.383854 -1.568038 -0.799531 0.364498 -0.750050 -0.897285 1.818655 0.213943 0.559247 -0.621007 1.318989 -1.098260 -1.384827 -0.646624 1.656310 -0.744300 -0.601568 -0.384889 0.278896 -0.023443 -0.504038 0.068971
: 0.335888 0.572107 -0.692949 0.627682 1.534078 0.942243 0.312847 0.692081 -1.456812 -0.784343 0.744773 -0.259929 -1.145371 -1.154876 0.641850 -1.791783 -2.458269 0.249090 0.940879 0.517296 0.933893 -0.651858 -1.063378 -0.091038 -0.987278 -0.871046 -0.202579 0.072281 -0.235773 -1.648398 -1.251267 0.107113 -0.316112 -0.740540 1.770316 1.220649 -0.094663 1.478142 1.542269 0.178835 0.546752 -1.035784 0.790223 -2.380171 -0.176424 0.452222 -0.080621 -0.130733 1.069260 0.497865
in -0.680783 -1.078562 0.374278 -0.496937 1.030150 0.650762 0.071595 0.199254 -1.023403 -1.520706 0.826247 -0.640151 0.292354 -1.627575 0.828550 0.140552 -2.226866 -0.089555 -0.153532 -0.309376 1.254948 -0.085283 -0.416438 -0.733040 1.362429 -1.149997 -0.673654 0.090095 -0.465032 -0.907989 0.162711 0.144734 -0.524814 0.029796 1.070934 0.177502 1.279044 0.310564 0.839503 -1.216243 -0.180078 -0.799600 1.151190 -1.347178 -1.412824 0.267608 -0.574678 -1.283484 -0.719616 -0.713965
1 0.202311 -0.373609 -0.812836 -1.102802 0.412661 0.357280 0.142180 -0.041881 -0.995040 -0.603519 2.491961 -0.204746 -0.571352 -0.216503 0.683453 -1.178182 -0.811084 -1.552606 1.303519 0.089008 0.882740 -0.468838 -1.567735 -0.401585 -0.045698 -0.907533 -0.743276 0.178387 -0.074738 -0.783514 -1.822044 0.595876 -0.179991 -0.457179 1.269491 0.552074 -0.032931 0.579623 0.172002 -1.550859 0.194596 0.458202 1.035495 -1.425635 -0.205202 -0.445340 -0.231374 -0.491849 -0.367537 -0.624967
for -0.163527 -0.769439 0.265047 -0.338452 1.025386 0.657069 0.079231 0.446738 -0.764286 -1.398724 0.966859 -0.234081 0.255483 -1.797759 0.320279 0.326505 -2.168213 -0.419037 0.228046 -0.582967 1.244941 -0.537580 -0.578612 -0.699935 1.521597 -1.104973 -0.706987 -0.110870 -0.295359 -0.941734 -0.049626 0.328366 -0.464386 -0.167594 1.169974 0.261827 1.311644 0.199075 0.772658 -1.165489 -0.521616 -0.566860 0.817061 -1.449419 -1.546369 0.209074 -0.592635 -1.267299 -0.351367 -0.361903
import 0.673585 -0.117004 -0.627984 -0.938301 0.409665 0.727085 0.391959 0.487189 -0.493148 -0.986124 1.936108 0.197211 0.259504 -0.549048 -0.311004 -1.226504 -1.664886 0.801859 1.016438 -0.807992 0.025861 1.001296 0.136449 -1.561380 -0.225865 -1.195479 0.213029 -0.106917 -1.428802 -1.531378 0.505097 0.244750 -1.089491 -0.727264 1.575731 -0.919112 -1.058663 0.180164 -0.283736 -0.665652 -0.195601 -0.089844 -0.315730 -1.487369 -0.678334 -0.961827 -1.042902 -1.106963 -1.042340 0.108762
- 0.980211 -1.271814 -0.388427 -0.118038 1.326363 1.337523 -0.567565 0.572087 -0.713229 -0.280163 0.760948 1.346355 -1.682419 -1.237567 -0.891059 -1.756679 -0.175392 -1.379631 1.815165 -0.252632 1.206302 0.565154 -1.245906 0.090101 0.824239 -0.688345 -0.769277 -0.079624 -0.358475 -0.002861 -0.695057 0.886353 -0.849864 -0.705451 0.431854 -1.191792 -0.468894 0.551441 0.585169 0.538063 -0.237016 1.276594 1.034105 -1.482906 -0.148544 0.924643 -1.330390 -0.762002 -0.792900 -1.040474
0 1.068352 -0.828993 -0.626936 -0.019122 0.542760 0.338067 0.445217 0.379468 -1.753330 -0.159563 1.144305 -0.737757 -0.396480 -0.676096 -0.252122 -1.235111 -0.816977 -1.175474 2.164117 -0.454433 0.714776 0.672666 -1.174232 -0.123473 0.245311 -0.094587 -0.402066 -0.419857 0.518740 -0.562533 -1.111541 -0.054740 -0.566223 -0.428195 0.945721 0.175626 0.065972 0.845556 0.428052 -1.448594 -1.381483 0.213999 1.062340 -1.034532 -0.150955 -0.222395 -0.179883 -0.395651 -0.870571 0.056424
print -0.491313 -0.596108 0.542139 -0.330057 -0.136996 1.760035 0.110886 -0.538293 -0.592016 0.112021 0.826374 1.102489 0.347825 -1.963975 0.451838 -0.288728 -2.112441 -0.772549 0.476275 -0.648252 1.027674 -0.527625 0.183825 -0.315499 -0.087077 -0.286839 -1.341061 -0.106265 -0.756753 -1.037638 0.267766 -0.063362 -1.454594 -1.073995 2.012457 0.291160 -0.568394 1.098964 -0.055957 -0.135946 -0.522227 0.541222 0.286031 -1.612053 -0.573319 0.102057 -0.274873 -0.024673 -0.916023 0.579918
2 0.735909 -0.497226 -1.067251 -0.885033 0.540942 0.241324 0.273235 -0.086951 -0.819725 -1.002186 1.818639 0.289944 -1.116517 -0.023847 0.247563 -0.275726 -1.175749 -0.519855 1.013901 0.090846 0.307343 -0.280525 -1.488958 -1.266915 -0.144177 -0.979746 -0.934607 0.136398 0.443896 -0.975438 -1.604534 -0.029326 -0.597199 -0.552165 0.707950 0.412605 -0.259632 0.951108 0.523734 -1.346824 -0.415904 0.641381 0.961282 -0.741740 -0.122953 -0.318752 -0.006757 0.503830 -0.439091 -0.936263
{ 0.703653 0.405372 -1.001483 1.189838 0.912281 0.120530 0.084441 0.502021 -1.759006 -0.145180 0.851599 0.333502 -0.498302 0.514382 -0.428006 -0.272972 -1.928068 -0.577314 -0.838676 0.281376 -0.613397 -1.440262 -0.967557 0.096990 -1.032919 -1.685171 -0.403051 -1.228380 -0.784812 -1.122389 -0.597130 0.162975 -0.892938 -0.255728 1.575303 0.870056 0.750949 0.508111 1.192214 -0.530422 0.365942 -0.549394 0.135707 -1.714022 -0.585314 -0.753939 -0.868131 0.953011 -0.026439 -0.969003
} 0.781962 0.560804 -0.523169 1.000629 0.942919 0.010068 0.167004 0.702547 -1.838551 -0.286043 1.017495 0.779882 -0.050578 -0.028317 -0.505024 -0.169188 -2.269848 -0.303763 0.551036 0.192495 -0.935070 -0.814837 -0.777901 -0.101208 -0.573895 -1.423464 -0.560604 -1.389097 -0.345423 -1.534783 -0.495097 0.431453 -0.934964 -0.274630 1.225373 0.375367 0.593187 0.223142 0.896787 -0.142162 -0.328163 -0.292186 -0.125100 -1.818835 -0.648885 -0.308096 -0.635934 0.952669 -0.329123 -0.884213
+ 0.389982 -0.175528 -0.820498 -0.137143 0.410585 0.755730 0.865869 -0.571787 0.056983 -0.522509 1.672980 0.104244 -0.634746 -0.833261 -0.609638 0.236053 -0.322224 -1.665433 -0.076644 -1.210303 0.516976 0.469538 -1.232296 -0.119709 1.328903 -1.380191 -0.913115 0.454850 0.234157 -1.409067 -0.396963 -0.546008 -0.398781 -1.281258 0.844902 1.219991 -0.198234 0.722375 -0.428563 0.933476 -1.084544 0.702035 1.295621 -1.171739 -0.323504 -0.465775 -1.571037 -0.543671 -0.861887 -0.704495
if 0.180531 -0.707600 1.299795 -0.321312 0.721821 0.783637 0.530892 0.128868 -1.624538 -0.920788 1.593175 -0.629596 -0.533926 -1.486553 1.243503 -1.121216 -1.679639 -0.791552 0.224870 -0.505001 0.718461 0.198707 -0.462162 -0.564306 0.633120 -0.641722 -0.525360 -0.631145 -0.899007 -1.037007 0.649457 -0.335039 -0.184702 -0.145238 0.262216 1.410017 0.286543 0.322587 0.963986 -0.581299 -0.287492 -0.580882 0.935760 -0.834223 -0.120226 -0.137325 -1.550268 -0.573940 -0.157162 -0.159535
/ 1.643103 -0.688337 -0.384109 -0.063044 0.030208 1.385336 0.067105 0.649775 -0.312117 -1.844017 0.436919 1.241226 -1.442277 0.309773 -0.684541 -0.921005 -0.768718 -0.986050 0.852748 -0.088567 0.475127 -0.799357 -0.083955 -0.342518 0.678153 -1.913458 -0.459294 -0.157419 0.650744 -0.034325 0.538716 0.456298 -1.052537 -1.377816 -0.562664 -1.710611 -0.018205 1.264782 0.142141 -0.968117 -1.029610 0.291344 0.871107 -0.972010 -0.232734 0.896668 -1.536695 -0.468648 0.458805 -1.487676
3 0.826433 -0.634106 -1.131462 -0.401549 0.155840 -0.103492 -0.195728 -0.109241 -0.561358 -0.331983 1.446553 0.106090 -0.555294 -0.381659 0.443883 -0.086728 -1.486711 -0.633607 0.819113 -0.213169 -0.037368 -0.191804 -1.417383 -1.321309 -0.089042 -0.944010 -1.106016 0.114893 0.072880 -0.896855 -1.606553 0.000888 -0.330681 0.274344 1.306390 0.112088 -0.105979 1.059134 0.479657 -1.403761 -0.578216 0.675066 0.466631 -0.611702 0.037379 -0.189263 0.156921 0.325000 -0.786610 -0.720575
* 0.611116 -0.749545 -1.442692 -0.936549 0.128687 1.169165 0.973635 0.453833 -0.477864 -0.452263 0.443860 -0.030236 -1.297594 -0.831312 -0.024757 0.338199 -1.205692 0.059817 0.951435 0.004731 0.015310 0.706012 -1.637530 -0.701891 1.444069 -1.459802 -0.002409 1.464223 1.185005 -1.005657 0.524819 -0.608480 -1.206232 -0.850541 0.412444 -0.175436 0.469843 1.115335 0.344115 0.122063 -1.264062 1.025026 1.038454 -1.665480 -0.397314 -0.332213 -0.679426 -0.025502 0.304241 -1.057943
from 0.160367 0.104640 -0.780772 -0.951486 0.385085 0.845078 0.797882 0.179230 -0.188807 -0.615111 1.644925 0.324209 0.055192 -0.956283 -0.925105 -0.650540 -1.539055 0.536213 1.113182 -0.384104 -0.311472 0.331802 0.021851 -1.292209 -0.140921 -1.247238 0.588437 0.470540 -1.128868 -0.811362 0.100791 -0.677461 -1.231227 -0.274385 0.783070 -0.900108 -0.723042 -0.345624 0.519931 -0.600007 0.114600 -0.308240 0.580144 -1.470250 -0.631383 -1.114183 -0.755248 -0.918945 -0.989233 -0.224896
def 0.124828 0.065630 -0.194664 0.158166 0.616505 0.125231 0.599336 -0.068881 -0.195215 -0.677929 0.816466 -0.218031 -1.577070 -0.997908 0.053710 -0.706289 -1.350763 -1.054520 1.176502 -0.037732 0.578616 -0.392095 -1.448123 -1.142099 0.386689 -0.853408 0.113873 0.181156 -0.520097 -1.109304 1.226621 -1.146996 -0.592821 0.220865 1.289181 -0.195203 -0.242266 0.852092 0.316215 -0.317060 0.037679 -0.080167 0.140221 -0.667185 -1.093998 -0.174631 -1.194500 -0.591287 0.516163 0.939309
re 0.360853 0.301412 0.088186 -0.742316 -0.020508 0.261117 0.970157 -0.064093 0.068100 -0.446656 1.566041 -0.621794 -0.919917 0.067795 1.268228 -0.156038 -1.779955 0.305750 1.152774 -0.792461 0.067014 1.014519 0.477981 -0.006202 0.392621 0.594983 -1.202560 -0.558684 -1.381350 -0.552916 0.820416 1.154229 -1.699298 -1.407398 1.980265 -0.319780 0.856324 0.977752 -0.012353 -0.201988 -0.189824 -0.693647 0.168250 -0.338254 -0.544034 1.131556 -1.050779 0.114891 -1.101835 -0.537557
np 2.270365 -1.214457 -0.372205 0.541939 0.023027 0.185418 0.166749 0.481910 -0.577309 0.171894 -0.074157 0.146853 -1.174963 -0.648796 0.378420 -0.957108 -0.400682 0.576268 1.061869 0.114736 1.586013 1.100540 -1.803805 -1.170591 -0.488711 0.218134 -0.406802 1.220363 0.837047 -0.240349 -0.933635 -0.410266 -1.310204 0.313724 0.563943 -0.087564 1.257840 1.699722 -1.002368 -1.986849 -0.218782 0.151936 -0.533758 -0.072377 -0.627658 -2.014226 -0.835536 -0.735913 -0.042955 -0.939293
df 0.749953 -0.074415 0.792808 -0.361510 0.092354 0.415026 0.519474 0.477866 -1.225620 0.896454 -0.326985 -0.557633 0.924840 -0.083267 -1.716256 -1.306234 -1.000184 -0.348697 -0.291402 0.919137 0.365475 0.335928 -2.086705 -1.079888 -1.116583 -0.474960 -0.748788 0.506095 0.466565 0.110326 -0.727833 0.881106 -1.484550 -0.590746 1.030645 0.188725 -0.326275 0.593025 -0.908639 -1.653331 -0.629839 -0.998380 1.643046 -0.045289 -0.959919 -0.298202 -1.653217 0.911931 -0.262151 -0.088438
b 0.381573 -0.351614 -0.302084 -0.161696 1.317638 0.800694 0.340290 0.885163 -0.833802 0.658464 1.507991 0.625847 -0.889383 -0.682132 -0.147733 0.152417 -1.979744 -0.293245 0.042332 -0.822291 0.611775 0.500672 -1.342210 -0.492284 0.404217 -1.388747 -0.916916 0.345527 -0.078241 -0.793515 -0.821178 -0.821074 -0.327520 -0.073755 1.026330 0.147037 -0.285037 0.635733 -0.192843 -1.220549 -0.604760 0.434734 0.412611 0.225439 -0.378369 -0.454136 0.124158 0.621797 -0.253571 -1.111323
return 0.307518 -0.391625 0.134154 0.159337 -0.163583 1.116064 0.377107 0.134785 -0.363124 -0.143454 1.474897 0.449451 -0.636906 -1.098814 0.331787 -0.803049 -1.211566 -1.243620 0.756632 -0.118112 0.932033 -0.195434 -1.492420 -0.414455 0.294915 -0.117005 -0.493828 0.238818 -1.038405 -1.262488 0.791162 -1.784523 -0.832392 -0.722484 1.255241 0.429203 0.247903 -0.064848 0.089109 0.257770 -0.087687 -0.030350 -0.120221 -0.917307 -0.598091 -0.748804 -0.774904 0.608128 0.764812 -0.062853
4 0.613224 -0.566139 -1.063350 -0.073251 0.202863 -0.344302 -0.372207 -0.226909 -0.286377 -0.089966 0.983851 0.088440 -1.031247 -0.494605 0.180583 -0.104179 -1.364677 -0.416445 0.805165 -0.138696 -0.302173 0.122376 -1.282526 -1.385996 0.022310 -1.006084 -1.014364 -0.099851 0.276911 -0.415310 -1.893579 0.120435 -0.261085 0.147236 1.111734 -0.005985 -0.136688 0.984853 0.634656 -0.984810 -0.535439 0.332316 0.555748 -0.769616 0.239587 -0.032919 0.205811 0.357665 -0.810712 -0.878730
% 0.605178 -0.796448 -0.069170 0.809478 -0.590996 0.864061 -1.056815 -0.757745 -1.441163 -1.259733 0.931801 0.960017 -0.001622 -1.515585 -0.647484 1.064762 -0.984955 -1.218141 1.111969 -1.180929 -0.747192 -0.302234 -0.373498 0.418332 0.058669 -0.365328 -0.817663 -0.241299 0.023593 -0.944386 1.124102 -0.610126 -0.759186 -0.131921 0.430165 1.096731 0.764601 0.194800 0.217193 -1.008305 -0.495690 0.203510 -0.203384 -2.152017 0.170476 -0.632578 -0.773386 -0.007330 -0.564432 -0.959690
os -0.133776 -0.788127 0.089900 1.775949 0.439361 0.806752 -0.898538 -0.636150 -0.206610 -0.997808 1.286267 -0.751370 0.758740 -1.154625 0.020542 -1.331797 -0.807363 0.970753 0.696944 0.255931 0.417684 0.453424 -0.187582 -1.311375 1.355181 -1.046455 -0.772517 -0.007348 -0.553314 0.474611 1.107271 0.547987 -0.636067 -1.364192 0.796532 0.218671 -0.787112 1.407709 0.454778 0.039724 -0.980902 -0.449716 0.372413 -0.201009 0.804263 -1.663744 -1.119780 -0.469256 0.700684 -0.432562
5 0.785034 -0.994361 -1.018679 0.043174 0.170869 -0.317792 -0.563896 -0.333187 -0.285501 0.161205 0.759867 -0.428159 -0.811504 -0.857757 0.292448 0.052354 -1.409218 -0.623981 1.063954 -0.143974 -0.208994 0.120270 -1.236444 -1.568036 -0.180443 -0.941976 -0.641518 -0.206093 0.137572 -0.605842 -1.348745 0.111088 -0.267717 0.106932 1.037295 0.338764 -0.203171 0.851202 0.830992 -1.204307 -0.505265 0.601415 0.606153 -1.272888 -0.190901 0.115414 -0.076908 0.503599 -0.578058 -0.472574
as 1.508433 0.582914 -0.827072 -0.198270 0.411337 0.428005 -0.458581 1.667578 0.369349 -1.609475 0.908154 0.659900 0.317544 -1.334155 -0.617915 -0.546028 -1.349930 0.279874 0.287883 -1.265280 0.745097 0.547543 -0.686727 -1.185132 0.645131 0.625517 -0.382514 -0.039268 0.366140 -0.459106 -0.172111 0.630252 -0.831732 -0.422973 1.021074 0.277605 -0.200419 0.886432 -1.075187 -0.068542 1.355299 -1.107270 0.378115 -1.569270 -0.792963 -1.089617 -0.600053 -0.547702 -0.320403 -0.400788
> 0.845190 -1.601115 -0.578652 -0.300393 0.102756 0.871306 0.188296 0.080928 -1.075970 -0.722023 1.076371 0.076424 -0.068798 0.388908 -1.196619 0.051162 -2.222271 -0.989714 0.989811 -0.032794 -0.566420 -0.030976 -0.059389 0.704321 -0.221478 -0.983703 -0.526531 -0.691075 0.227473 -0.823050 0.366450 -0.132374 -1.342719 0.625274 -0.318011 -0.363830 0.118838 0.621197 -0.239442 -0.894275 0.636588 -0.247146 1.364991 -1.080198 0.198547 -0.078215 -1.310931 -0.415278 0.457874 -0.964995
== 0.627627 -0.384071 1.285644 -0.835250 -0.302639 1.077542 0.897343 0.661455 -1.080157 0.196028 1.179903 0.147502 -1.425980 -1.006601 0.295284 -1.119755 -1.550807 -0.931615 0.623311 0.456066 -0.629028 0.155662 -1.154148 -0.671111 -0.004177 -0.360737 -0.838649 -0.168788 -0.622693 -0.778513 -0.197205 0.301115 -0.253853 0.697038 -0.106925 2.029127 -0.508184 -0.399477 0.677311 -1.014247 -0.648678 -1.053312 0.559552 -0.467012 0.500351 -0.162212 -0.611231 -0.512937 -0.695816 -0.255088
open 0.723636 0.481325 -1.103789 -0.173658 0.363785 -0.781405 -0.376988 1.406798 0.619866 -1.019602 1.822329 0.127915 0.361218 -1.437425 -0.061440 -0.256969 -0.611876 -0.661328 0.280267 -1.118969 0.155854 0.404936 -0.811944 -1.226527 1.473042 0.638975 -1.023614 -0.714700 1.148393 -0.429136 1.128405 0.874079 -0.263859 -0.371215 1.219886 -0.118543 -0.274125 0.875316 -0.477463 0.501345 1.408451 -1.659856 0.491173 -1.512720 -0.152845 -0.686632 0.279548 -0.242255 0.212478 -0.656293
True 0.415074 -0.586603 0.420168 -0.737338 0.557107 0.164971 0.135619 1.301390 -0.450820 0.471971 0.774950 -0.695719 -0.151957 -0.635280 -0.622487 -1.042751 -1.680550 -0.792224 1.700357 0.817936 0.174818 0.276500 -0.679462 -0.399089 0.544733 -1.039248 -0.356791 -0.059711 -1.238095 -0.133537 0.226834 -0.149376 -0.642541 -0.819816 0.987172 0.066133 0.308361 -0.290802 -0.792389 -0.770996 0.358343 -0.463631 -0.169604 -1.100634 -0.654389 -1.865336 -0.078520 0.942608 0.541295 0.530927
< 0.845874 -1.495404 -0.279485 0.115605 0.432714 0.539396 0.230241 0.380297 -1.108701 -0.223751 0.940423 0.090789 0.013984 0.289864 -0.927558 0.099047 -2.096688 -1.038637 1.190506 -0.055607 -0.268673 0.040834 -0.151572 0.799711 -0.282920 -1.067237 -0.610179 -0.715078 0.536769 -0.970588 0.216825 -0.272702 -1.324100 0.847473 -0.434850 -0.061486 0.184446 0.962430 -0.034971 -0.703188 0.725844 -0.127624 1.587399 -0.960703 0.389545 0.136918 -1.456402 -0.596130 0.458940 -0.679974
datetime 0.161112 0.278435 -0.671359 -0.770606 -0.022245 -0.221624 -0.250359 -0.937109 1.286280 0.963564 1.727670 0.680880 0.652946 -0.858891 -0.656727 -1.253440 -0.127511 -0.395950 1.787652 -1.002630 0.704033 0.900353 -0.638240 0.041692 -0.484847 -0.827586 0.754846 0.385036 0.023117 0.440576 -0.013175 0.253566 -0.618781 -0.657098 0.361935 0.220957 -0.052733 0.534179 2.198379 -0.652943 0.561896 0.480707 0.003628 -1.277928 -0.324278 -0.881392 -2.187648 0.023822 -0.258217 -0.241502
name 0.163706 -0.142468 0.392619 -0.249478 0.288077 1.258656 -0.040183 0.427308 -0.462669 -0.065961 0.724987 -0.476456 0.558363 -0.849906 -0.471177 -0.027963 -1.892574 -1.125967 -0.172176 0.819436 -0.433521 -0.402756 -0.172338 -0.045013 -0.056505 -0.059493 -0.913236 0.000328 -0.516048 -0.743970 1.035905 0.122900 -1.140081 0.015477 0.891213 0.252146 0.881678 0.814880 0.819813 0.004298 0.188287 -0.625880 0.585085 -0.437403 -0.098376 -0.052892 -0.757312 -0.624681 0.793372 -1.021514
split 0.226209 -0.324648 0.003404 -0.053769 0.131661 -0.068942 0.387582 -0.162953 0.401790 -1.243196 1.242650 -0.705972 -0.036136 -0.729225 -0.686845 -0.553654 -0.290734 -0.531211 -0.132004 -0.281907 0.750545 -0.088893 -0.086742 0.351925 0.782962 -0.431793 -1.654078 -0.097680 -0.798217 -0.593581 -0.117509 -0.813744 -0.576793 -1.535390 1.602606 0.006340 0.936769 0.939320 0.295849 -0.365288 -0.740154 -0.885210 1.208896 -0.872798 -0.121049 -0.124828 -0.274701 -0.089282 -0.832843 -0.588180
lambda -0.231735 -0.851757 0.172405 0.488774 0.166257 0.339879 0.581900 0.604588 -0.304552 -0.051458 1.312063 -0.449945 0.426374 -0.380961 -0.005426 -1.320820 -0.318674 0.348710 1.115913 -0.169010 1.469828 0.837259 -2.131818 -0.127540 -0.351230 -0.426248 0.034779 0.316864 -1.002189 -0.061077 0.417566 -0.656134 -0.612774 -0.163282 1.222363 0.187946 0.613787 0.268488 0.873819 -0.285227 -0.912464 -0.796320 0.920835 -1.006296 -1.022429 0.563732 -0.324577 1.067797 0.492278 -0.789690
join -0.713156 -0.119510 0.203719 0.786970 0.183482 0.077905 0.292685 -0.414147 -0.305772 -1.043962 1.593980 -0.601751 0.276935 -1.739036 -0.856521 0.300725 -0.073184 0.167152 0.425458 -0.481371 -0.131881 -0.068654 -0.969016 -0.406006 0.874974 -0.433449 -1.094859 0.323619 -0.167300 0.107867 0.475895 -1.022907 -1.231846 -1.353379 1.956303 0.153095 0.165040 0.881973 0.237322 -0.630817 -1.396541 -0.748605 1.000859 -0.188068 0.067091 -0.383154 -0.227772 -0.563119 0.026474 -0.998772
path -0.034962 0.239683 -0.239929 1.540915 0.527691 1.093214 -0.339384 0.135452 -0.522977 -1.134366 2.070471 -0.110782 0.420747 -1.217585 -0.001433 -1.193793 -0.607402 -0.536227 0.410834 -0.012018 0.222599 -0.226134 0.093143 -0.639136 0.861289 -0.545813 -0.174487 -0.360925 0.200195 0.382520 1.117812 0.539618 -0.849702 -1.584758 0.556293 -0.823933 -0.510686 1.560628 0.512664 -0.769615 -0.947127 -0.630097 0.403758 -0.101662 0.610281 -1.057842 -0.666033 -0.579091 0.812345 -0.883451
; 0.709764 -0.811079 -1.036679 0.642291 0.983855 -0.233335 0.913774 0.040838 -0.619854 -1.427057 0.676840 0.044252 -0.354579 0.452863 -0.619682 -0.864001 -0.787582 -0.722419 0.795699 -0.722156 -0.580881 -0.099228 -0.090756 0.142936 0.078751 -1.228089 -0.902352 -0.444371 -0.566065 -0.891119 0.335376 -0.388732 -0.220791 0.440321 0.703603 -0.520446 -0.134119 1.097600 -0.498966 0.018441 -0.480209 0.486107 0.460156 -1.421720 -0.294520 -0.382008 -1.152946 0.036843 0.050111 0.164018
" 0.036833 -0.349680 0.872350 0.163144 -0.002866 0.818645 0.871775 -0.360944 0.745030 -0.728801 0.938996 -0.890847 -0.778768 -1.408408 -1.091619 1.002503 -0.583860 -0.876874 0.034522 -0.898392 -0.774006 0.378459 -0.274273 0.818619 0.284939 -0.269980 -0.865301 0.377080 -1.109866 -0.721151 -0.757659 -0.826827 -1.316832 -1.526108 0.900787 -0.384130 0.226429 0.239014 -1.105089 0.352668 0.194902 -0.727715 0.475527 -1.641495 0.712788 0.014826 -0.457791 -1.118174 1.091196 -1.009681
range 0.047192 -1.153511 -0.323679 -0.729882 0.598942 0.173012 -0.316246 0.560914 -0.574130 -0.852785 -0.139454 -0.684840 0.581773 -1.093906 0.764976 0.281025 -0.414257 -0.563321 0.907268 -0.469870 0.108608 0.257873 -1.371766 -1.122013 1.159759 -1.004373 -0.248032 -0.513501 0.487791 -0.605764 -0.766246 -0.458361 -0.048364 -0.122890 1.154609 0.388679 0.012994 0.353776 -0.244338 -1.647697 -0.631258 0.927503 0.632863 -1.601291 -0.672015 0.630748 -0.137350 -0.794086 -0.496213 -0.412133
len -0.099724 -1.711776 -0.136861 -0.405048 -0.276896 1.108733 0.822500 0.733972 -1.125368 -0.065885 1.129857 -0.361668 0.088326 -0.914936 1.156765 -0.263157 -0.757913 -1.297848 0.692026 -0.114554 0.906221 0.329251 -1.265157 -0.462776 0.590506 0.145820 -0.861527 -0.581420 0.183781 -0.821159 -0.069104 -0.632037 -0.505311 -0.022300 0.666415 0.019512 0.161860 0.943322 0.173215 -1.108593 -0.574969 -0.183864 1.188856 -1.089703 0.174907 0.094042 -0.478999 0.117719 -0.638210 -0.015464
... 0.422264 0.057806 -0.905997 -0.150600 0.648214 0.664680 0.004901 0.012487 -0.579440 -1.212721 0.908924 -0.149877 -0.723822 -0.611089 -0.789301 -0.445362 -1.718601 -0.730195 1.405103 0.244042 0.323241 -0.079805 -0.263140 -0.695077 0.035312 -0.157558 0.040606 0.347662 -0.323291 -0.404071 0.924847 -0.192542 -0.559473 0.206737 0.341729 -0.258026 0.037926 0.977037 0.376477 -0.201668 0.035021 -0.543724 0.693504 -0.971435 -0.676473 -0.712121 -0.454180 0.362794 -0.062141 0.359913
list -0.670661 -1.153850 -0.310441 0.097164 0.546201 0.015546 0.102484 0.304450 -0.796539 -0.560715 1.177172 -0.450624 -0.000077 -1.370885 0.620845 -0.049773 -1.044141 -0.085424 0.098476 -0.397396 0.308018 0.243626 -1.440981 -1.615078 0.113405 -0.171674 -0.379319 -0.219004 -0.578476 -0.881112 -0.405347 -0.898397 -0.348015 0.305246 1.582213 -0.950808 0.227246 -0.347943 -0.099721 -0.799311 -0.339594 0.080426 1.091093 -1.038825 -0.660101 0.262533 -0.128135 0.455809 -0.159406 -0.274853
10 1.236929 -1.105749 -0.703537 -0.645731 0.571897 0.074726 -0.160063 0.200780 -0.518496 -0.117659 -0.621101 -0.341605 -0.680028 -0.490991 0.317283 -0.240961 -0.693787 0.172796 1.308536 -0.658303 -0.379807 0.536112 -0.995937 -1.514022 0.120724 -0.668135 -0.089132 -0.696035 0.039396 -0.394706 -0.486236 -0.404482 -0.712455 -0.125206 0.894679 1.238633 -0.417430 1.046411 0.583203 -1.032738 -0.464821 0.948435 0.723228 -1.447632 -0.427890 0.305902 -0.736084 -0.031482 -0.284412 -0.676313
item -0.097637 -0.642708 0.846571 0.718631 0.009682 0.119517 0.254535 -0.137708 -0.920933 -0.792177 1.453947 -0.628046 -0.272946 -1.022882 0.042313 -0.297273 -1.059974 -0.363206 0.104264 -0.471508 1.396983 -0.549744 -0.670793 -0.004623 0.382902 -0.204694 -0.168925 -0.299973 -0.325094 -0.630943 -0.503479 -0.490524 -0.235875 -0.221749 0.430479 0.364264 1.160670 -0.926481 0.628740 -0.900863 -0.520385 -1.004875 0.826157 -1.175642 -1.196939 -0.270705 -0.587717 -0.574396 -0.296685 -0.318343
None 1.310114 0.180522 0.002030 0.391594 0.253232 0.536047 0.273008 0.252381 -0.521483 -0.339700 0.995848 -1.044868 -0.700681 -0.993946 0.923571 -0.829675 -1.341578 -1.746751 0.522278 0.137826 0.511560 0.490909 -0.274640 -1.831022 0.038019 0.079182 0.585014 0.159168 -0.882016 -0.744131 -0.180020 -0.287560 0.007330 -0.512288 0.352462 0.687252 0.840877 0.357376 0.021681 0.377915 -0.788085 -0.049705 0.387222 -0.160308 -0.985588 -0.544707 -0.450508 0.967355 0.250973 -0.444429
text 0.367397 0.037272 -0.572273 -0.563103 0.354306 0.624443 0.954093 0.385587 -0.815628 -0.577386 0.691257 0.433363 -0.200906 -0.281265 0.058823 0.121758 -0.930713 -0.661725 1.292210 -0.294337 0.480200 0.108605 0.760268 0.268787 0.317005 0.127840 -0.440775 -0.944366 -1.041111 -0.023168 -0.027278 -0.121545 -0.740895 -0.915563 1.089234 0.131634 0.494034 0.947765 0.012556 -0.090923 0.329136 -1.115441 0.869990 -0.726222 -0.921037 0.113723 -0.268761 0.076429 -0.956965 -0.023348
class 0.111847 0.316026 -0.181914 0.223372 0.650564 0.289990 0.404594 -0.194535 -0.419539 -0.526493 0.112419 0.221259 -0.955249 -0.575871 -0.528233 -0.404303 -1.810767 -1.494635 1.005640 0.226033 -0.008617 -0.818327 -0.445162 -0.049227 -0.154992 -1.179179 -0.265827 0.107530 -0.405841 -1.162169 0.296914 -0.257849 -0.847059 0.603986 0.907117 -0.446683 0.363110 0.785049 0.384618 -0.338380 0.763975 -0.277812 -0.160365 -0.716526 -0.136521 -0.289578 -1.146658 -0.667407 0.378608 0.736027
\\ 0.311573 0.089635 -0.981919 0.942764 0.595273 0.365829 -0.009460 -0.068274 -0.581588 0.178494 2.209824 0.433211 -1.688089 0.401822 -0.887007 0.228519 -1.232942 0.203546 -0.178885 -0.881252 -0.570903 -0.086035 -0.868083 0.953219 0.941763 -1.109543 -0.341364 0.184724 0.879485 -0.972322 -0.246500 0.448223 -0.908075 -0.790798 -0.065060 -0.649716 0.168841 0.332617 -0.319575 0.975883 -0.257098 0.934120 0.902656 -0.528175 0.967668 -0.303126 -1.073106 0.400767 0.196758 -1.685999
subprocess 0.014329 -0.777560 0.111725 -0.972755 0.432572 -0.650282 -0.261809 -0.635002 -0.245653 -0.219211 0.738509 -0.319805 -0.648416 -0.602658 -0.869854 -1.046374 -0.575841 -0.199345 0.458463 0.002019 -0.655252 1.442279 0.578068 -0.621574 0.459939 -1.704837 -0.816798 0.638603 -0.713358 0.175053 0.738554 0.613797 0.293209 -1.515278 0.267253 -0.545499 0.430948 -0.242367 -1.050312 0.215492 -0.029265 -1.149096 0.090797 -1.747006 -0.020370 -2.556323 0.397754 0.666395 -0.276633 0.243196
with 0.697847 0.521289 -0.892526 -0.310311 0.300222 -0.072160 -0.173574 0.772274 0.149826 -0.962589 1.187172 0.079334 -0.088875 -1.324595 -0.249682 -0.132554 -1.150497 -0.537940 0.199140 -0.927228 -0.125500 0.031189 -0.270396 -1.262875 0.756330 0.854154 -0.380388 -0.458685 0.420115 -0.386651 0.473559 0.484884 -0.540916 -0.180226 0.824547 -0.174879 -0.260051 0.368613 -0.264310 0.493018 1.246360 -1.309131 0.951706 -1.347963 -0.263888 -0.361043 0.045351 -0.212238 -0.090035 -0.556292
| -0.053679 -1.302314 -0.450398 0.621271 0.166271 -0.068001 -0.597825 -0.351601 -0.025874 0.135304 1.525259 -0.375118 -2.418866 0.018038 -1.296705 0.361104 -1.067509 0.372848 0.965485 0.025016 -0.635697 0.631526 -0.897462 0.472140 0.759968 -0.390851 -1.018929 -0.361644 -0.958185 1.266479 0.021857 1.104864 -0.619246 -0.372652 0.483656 -0.307724 0.578723 0.841230 0.073087 0.500565 -0.149133 0.162972 0.715955 -0.016710 0.128260 -0.144413 -1.892552 1.130869 -0.624212 -1.261938
a 0.233142 0.196438 -0.054695 -0.598657 1.295682 1.124171 0.567719 0.677838 -0.089356 0.221535 0.529326 0.245262 -0.123000 -1.119563 0.097665 0.692640 -1.212152 -1.246196 -1.011233 -0.973209 -0.482036 0.164996 0.420495 -0.767175 -0.424175 -0.421301 -0.816130 -0.567961 -1.058677 0.038579 -1.027819 -0.790863 -0.332152 -0.311020 1.402045 -0.343172 -0.661517 0.611986 -0.377742 -1.030251 0.581092 -0.449273 0.777055 0.165689 -0.213789 0.360649 0.760483 0.750036 -0.247995 -1.765006
str 0.509095 -0.431625 0.460909 -0.324799 -0.281985 0.006801 1.006099 -0.322144 -0.005428 0.273599 0.706877 -0.300041 0.057917 -0.677726 -0.510732 -0.717972 0.174864 -0.861159 -0.057216 -1.199611 0.580941 -0.202250 -1.054430 -0.096771 0.066730 -0.803006 -1.318399 -0.026044 -0.738676 -0.238988 0.505487 -0.712003 -0.662079 -0.461836 1.594553 0.613165 0.307415 0.938941 0.410031 -0.287748 -0.586172 -0.622446 1.165422 -0.462841 -0.591580 0.048073 -0.691003 0.156975 -0.328879 -0.476654
int 0.949381 -1.113870 0.348716 -0.728896 0.011646 -0.151948 0.406988 0.238489 0.448236 -0.234710 0.718825 0.063175 0.348126 -0.432916 -0.100854 -1.180361 -0.334044 0.354413 0.662387 -1.219847 0.910986 -0.022965 -1.034491 0.357301 0.110499 -0.903128 -0.787141 -0.370487 -0.569257 -1.032439 0.477587 -1.379827 -0.906148 -0.491579 1.112344 0.552338 0.506000 0.897900 0.556219 -0.736132 -0.114241 0.437972 0.689678 -0.877074 0.131077 0.360574 -0.399237 0.436221 0.802258 -0.779960
\ 0.301394 -0.553348 -0.801909 0.896291 -1.385648 1.939748 0.196641 -0.885127 -0.250148 -0.057729 0.440582 -0.490939 -0.947949 0.372810 -0.424650 1.375599 -1.146674 -0.826519 0.487439 -0.514519 -0.162807 0.824991 -0.235192 0.244119 0.203725 -0.463697 -0.593413 0.455669 -2.126672 0.782582 0.014992 0.310921 -0.034431 -0.671976 0.733803 -0.411375 -0.400417 0.391523 -1.081486 -0.034598 0.041601 -2.052838 0.464724 -1.946361 -0.544135 -0.061441 -0.103063 -0.617071 -0.257915 -0.148827
6 0.814812 -0.967353 -0.786914 0.167111 -0.361656 -0.693763 -0.857713 -0.351743 0.050995 0.285940 0.939411 -0.228397 -1.061930 -0.894178 -0.194266 0.048808 -1.309743 -0.459270 1.356142 -0.291515 -0.291620 0.286863 -1.361422 -1.474756 0.166919 -0.916649 -0.675949 -0.194809 0.654101 0.116751 -1.618688 0.330606 -0.234721 0.098259 0.691067 0.326596 0.003001 0.381874 1.068292 -1.187718 -0.554069 0.268071 0.745048 -0.703260 0.087790 0.321531 -0.150808 0.411435 -0.407633 -0.577318
A 0.365329 -0.207368 -0.478247 0.066231 0.496099 0.154165 0.956663 0.065750 -0.676882 0.027414 0.532716 0.562209 -0.524982 -0.997792 -0.171751 -0.797530 -0.756694 -0.263790 0.563269 0.194900 0.303697 -0.260499 -1.466765 -0.668970 0.047291 -0.580293 -1.202872 0.965137 0.133587 -0.720660 -0.653513 -0.035101 -0.688278 1.565736 1.167425 -0.165692 0.466787 0.447893 -0.394744 -0.438428 0.483023 -0.106222 0.993163 0.308027 -0.097243 -0.353074 -0.859248 0.167745 -0.911826 0.050236
index -0.078297 -0.435874 0.198934 0.396497 0.116494 0.062647 0.235281 0.645246 -0.478492 0.659949 0.666216 -0.542194 0.375545 -0.675330 -0.141227 -0.265143 -1.025662 -1.775357 -0.274610 0.353269 0.575198 0.117335 -1.636640 -1.056417 -0.052708 -0.294206 -0.394520 0.066697 0.862658 -0.057142 -0.154292 0.355918 -0.374529 -0.252264 0.792109 0.470088 0.454042 0.370854 -0.551190 -0.901874 -0.627914 -0.011778 1.031802 -0.510978 -1.684386 -0.244986 -1.817232 -0.059251 -0.272690 -0.200106
sys -0.552288 -1.026092 0.394076 -0.296162 0.281441 -0.106513 1.000486 -0.261866 -0.822268 -0.858844 1.433571 -0.033517 -0.205609 -1.026465 0.641458 -1.758320 -0.914538 -0.930641 0.172097 -0.837436 -0.343295 0.143471 0.730017 -0.917208 -0.165707 -0.679355 -0.215221 -1.045113 0.554860 -0.071565 1.032890 0.605812 -0.428044 -0.794737 0.126708 -0.299072 -0.564707 1.497375 -0.069529 -0.842241 -1.329626 -0.688197 0.359689 -0.893710 0.810017 -1.963947 0.544021 -0.028953 0.252208 0.761883
$ 0.763371 -1.060021 -0.443540 0.902750 0.343832 0.337471 0.067271 0.559383 0.081987 -0.670833 0.766544 0.253299 -1.555497 0.046290 -0.837931 -1.025889 -0.581215 -0.818526 -0.011897 -0.805197 -0.128204 -0.657406 -0.348141 0.042905 0.697215 -1.402663 -0.945861 -0.262028 -0.958513 0.027545 0.281356 0.688895 -0.004887 0.219518 0.391564 -1.038253 0.167372 0.552846 -0.197093 0.101879 -0.288290 0.537135 0.925297 -1.429684 -0.221993 0.452226 -1.350005 0.236419 -0.311651 -0.381429
array 2.057061 -1.022678 -0.602001 0.395273 0.181283 -0.307053 -0.356488 0.372372 -0.273922 0.189579 0.441476 -0.404004 -0.644866 0.106446 0.297567 -0.869873 -0.797501 -0.326581 0.325734 -0.013454 0.841557 0.562759 -0.425479 -0.965798 0.251367 -0.781263 -1.052880 0.812224 0.500573 -1.294397 -1.240698 -0.334385 -0.530330 0.285761 0.868785 -0.321682 0.546988 0.096953 -0.526683 -1.220954 -0.016718 -0.178802 0.161783 -0.315844 -0.462836 -0.650781 0.537546 -0.792622 -0.554714 -0.528272
request 0.330478 0.389031 0.418269 0.286553 0.594599 0.345523 -0.606402 0.196442 -0.601420 0.221967 1.461738 0.110972 -0.947707 -0.059910 -0.434840 0.095033 -1.084348 -0.993406 0.396122 1.072795 0.414327 0.685002 -0.790524 -1.118879 0.015137 -0.108188 0.116929 -0.474646 -0.398306 -1.410492 1.586905 -1.704255 -0.596027 -0.497073 -0.046507 0.573601 -0.526791 0.580207 1.385085 0.456683 -0.215916 -0.906634 -0.392159 -0.378127 -0.607417 -1.111411 -0.663579 -0.581165 -0.180121 -0.282649
get 0.557865 0.218289 0.519055 0.297913 0.903699 0.337334 -0.580298 0.460737 -0.807107 -0.096871 0.356366 -0.113392 -0.236490 0.260733 -0.444312 -0.994087 -0.765722 -0.939871 0.003470 1.032814 0.429639 -0.177959 -0.623639 -0.890148 0.323280 -0.467293 -0.172445 -1.254497 -1.238597 -0.933913 0.977397 -0.991279 -0.736066 -0.603483 0.790619 -0.183109 -0.235514 -0.140616 1.042341 0.394200 -0.302167 -0.580767 0.306138 -0.725743 -1.076479 -0.322672 -0.255191 -0.265653 -0.476166 -0.790857
pd 0.591881 -0.048565 -0.544494 0.179192 -0.292057 0.395026 -0.289619 1.072702 -0.237257 0.055964 0.026502 -0.064255 1.225028 -0.529609 -0.705830 -0.705590 -0.143876 -0.224328 -1.303857 -0.062495 0.375820 0.920438 -1.769706 -1.229520 -1.428113 0.029308 0.341158 0.220912 0.315501 0.308445 -0.527563 1.060314 -0.415926 -0.607844 1.491732 0.352324 0.265636 1.311118 -1.406396 -1.186498 -0.686018 -0.427289 -0.027935 -0.830261 -0.954654 -1.014961 -1.225733 0.612337 -0.157012 -0.779421
numpy 1.965999 -0.982028 -0.607403 0.310282 -0.308740 0.505666 0.027981 0.682438 0.144366 -0.227979 0.472338 0.428817 -0.490725 -0.382705 0.362080 -0.709281 -0.760136 0.510071 0.273863 -0.141511 1.412585 0.986562 -0.605692 -0.971078 -0.430531 0.443458 0.012277 0.431899 0.296207 -0.779462 -1.042171 -0.549146 -1.286281 0.385363 0.512179 -0.180077 0.553092 1.172745 -1.072078 -1.376779 0.288964 0.270138 -0.787753 -0.142614 -0.529227 -1.883017 -0.729112 -0.893572 -0.646307 -0.603672
is 0.549249 -0.140785 0.625306 -0.411390 0.559398 1.312394 0.107245 -0.573324 -0.263411 -0.384047 0.694313 0.001066 -0.127038 -1.470802 0.920470 0.374105 -1.660605 -1.790136 -0.472638 -0.706767 -0.211227 0.111834 1.301061 -0.928066 -0.697406 0.603947 -0.519872 -0.136754 -1.183583 -0.147532 -0.111532 -0.559610 -0.736820 -0.847756 0.577060 0.032221 0.376471 0.479126 -0.326825 0.278050 0.916779 0.441108 0.752652 0.121035 -0.645099 -0.440105 -1.155603 1.527983 0.156693 -0.963700
itertools -0.598397 -0.696427 -0.634745 0.051527 0.214652 -0.228009 0.994192 0.326265 0.089346 -0.976815 1.539229 -0.448969 -0.098325 -1.229268 0.144227 0.111923 -0.853973 1.227633 0.359464 -0.566629 0.165249 0.245478 -0.902262 -2.289390 0.416166 -0.738246 0.724564 0.462906 -0.102175 -0.284801 -0.622144 -0.398117 -0.951501 0.541641 0.947866 -1.484398 0.049025 -0.970175 -0.079319 -1.021553 -0.227185 -0.604372 0.796072 -0.631561 -1.145441 -0.160456 0.404091 -0.040718 -0.492254 -0.965455
format -0.811873 -0.452424 0.406470 -0.766902 0.241543 0.802388 -0.175284 -0.847660 0.194542 0.310277 -0.027838 0.461302 -0.548518 -0.642009 0.367311 0.848661 -0.781759 -0.483321 0.010775 0.024516 0.211809 0.000761 -0.781284 -0.455426 -0.582223 -0.203351 -0.334434 0.105675 -0.191276 1.034031 0.558398 -0.622909 -0.844510 -1.335165 1.109436 0.719163 -0.264960 1.792622 0.307881 0.180104 0.158400 -0.021687 0.553387 -1.358755 -0.969559 -0.464179 -0.751885 -0.661780 0.735494 -0.909701
not 0.247577 -0.116391 1.058677 0.652850 0.922630 0.588482 0.253034 0.092302 -0.953861 -0.493788 1.267546 -1.114967 -0.460960 -1.633878 1.625608 -0.555541 -1.644319 -0.456529 0.207074 -0.594472 0.599551 0.069310 0.415212 -0.834684 0.299662 0.051593 -0.023564 -0.260472 -1.038311 -0.474506 0.287295 -0.507645 0.022301 0.013767 -0.191148 0.664570 0.555237 0.272000 0.824361 0.139181 0.159886 -0.219281 0.834313 0.154142 -0.242359 -0.260860 -1.006872 0.504920 0.439449 -0.263254
filter 0.248648 -0.266450 0.261982 -0.090054 0.313768 0.688487 0.285239 0.594868 -0.349315 0.283815 1.168769 -1.223942 -0.333477 -0.421361 -0.691777 -0.019254 -0.576903 -0.551198 0.974273 0.833718 -0.026159 0.374251 -1.383750 -0.783912 -0.481583 -0.366726 0.033724 0.682008 -1.584981 -0.468101 0.818805 -0.739341 -0.549667 0.417348 0.293324 0.274671 0.601586 0.456066 1.448034 -0.576243 -0.397642 -0.416310 0.066636 -0.244595 -0.400631 0.033192 -1.089155 0.200470 0.521922 -0.295211
plt 0.770453 0.734829 -0.225229 -1.083898 0.147946 -0.408881 -1.437641 0.962223 -1.204901 -1.184955 0.507373 0.496221 0.631873 0.328870 -0.047897 0.268442 0.060133 0.145505 2.625290 -0.074702 -0.218811 0.536294 -1.682376 -0.885549 0.759384 0.631188 -0.314264 -0.747639 0.189326 1.218812 -0.578151 -0.233971 -0.022949 -0.621610 0.690870 0.181257 0.282655 0.819788 -1.643235 -1.499985 0.238794 0.453703 -0.420312 -0.012577 -1.218168 -1.300519 -0.419546 0.099146 -0.861742 -0.152496
** 1.052048 -0.214563 -0.676962 -0.986646 0.283090 0.663453 -0.120196 0.397877 -0.258837 -0.119551 0.314899 0.740603 -1.236303 -0.404936 0.503838 0.592830 -0.566590 -0.780670 0.665631 0.834723 0.221923 0.111593 -1.589467 -1.508886 0.454010 -1.128340 0.076222 0.344226 0.175650 -0.887811 0.315551 -0.798986 -0.446558 -0.794699 -0.022958 1.068942 -0.111352 1.014777 0.969121 -0.035347 -0.318957 1.001420 -0.263244 -0.525490 -0.802547 -0.426976 -0.477411 0.377026 0.719397 -0.825485
set -0.656589 -1.287238 0.078900 0.031264 0.718942 0.191356 -0.757740 1.076498 -0.543484 -0.195339 0.891074 -0.405663 -1.125313 -1.302167 0.020469 0.080682 -0.390990 -0.301490 -0.516550 -0.238504 -0.210247 -0.157008 -1.602234 -0.093100 1.326322 0.341083 -1.149663 -0.602212 -0.777611 -0.502215 -0.141378 -0.748610 -0.209221 0.323265 0.536961 -1.172435 0.622040 -0.273428 0.358760 -1.135192 -0.220808 0.537939 0.372097 -0.748585 0.426820 -0.103242 -0.539496 0.751750 -0.253040 -0.221186
zip -0.656060 -0.576567 -0.422849 -0.630714 0.248494 0.122711 0.075700 0.560996 -0.534782 -0.542625 0.476677 0.303444 -0.100708 -0.729929 0.847279 -0.040636 -1.484920 0.027894 -0.349062 0.664341 0.276702 0.256339 -1.731192 -0.986590 0.861813 -1.108794 -0.939925 0.437895 0.446225 -0.763072 0.439869 -0.196485 -0.215434 0.035722 1.541175 -0.633227 0.872414 0.038812 0.273097 -0.555350 -0.882337 -0.232020 0.897633 -0.616753 -0.889448 0.671796 0.401212 0.195519 -0.606501 -0.825156
7 0.938762 -1.047510 -0.870821 0.077870 -0.875378 -0.726265 -0.801721 -0.825748 0.547539 0.146922 0.706231 0.066511 -1.279362 -0.594410 -0.024488 0.210347 -1.201520 -0.224792 0.861778 -0.407865 -0.353727 0.329646 -1.133291 -1.434430 -0.246501 -0.644309 -0.501297 0.024408 0.556164 -0.028293 -1.419183 0.591418 -0.350391 0.077979 0.813450 0.463639 0.005364 0.466974 1.265642 -0.941540 -0.367116 0.016210 0.410224 -1.083889 0.211519 0.343607 -0.445900 0.295718 -0.547901 -0.550736
False 1.144656 -0.235716 0.646175 0.273856 0.033238 0.121958 0.158526 1.293254 -0.404328 0.167303 0.403935 0.035161 -0.297701 -1.056676 -0.140228 -1.154460 -0.864923 -1.120475 1.449598 0.907345 0.356155 0.076678 -0.605396 -1.374123 0.558912 -0.738532 -0.362428 0.035489 -0.830730 -0.025751 0.099126 -0.373317 -0.304175 -0.415610 0.599121 -0.109306 0.152359 -0.572940 -0.501632 -0.821297 0.078290 -0.585340 -0.326759 -0.305934 -1.065227 -1.215884 -0.651729 0.752753 0.502686 0.212454
time -0.108419 -0.744737 -0.388837 -0.234342 1.166775 -0.175474 -0.342053 -0.515066 0.310108 0.674024 0.365949 -0.361255 1.596257 -1.012398 -0.296819 -0.994062 -0.203864 -0.179311 1.034923 -1.597881 0.106390 0.562964 -0.020456 -0.203648 -0.302015 -1.052624 0.574062 0.222585 -0.389672 0.277134 1.110444 0.101702 -0.353054 -0.714099 0.027676 0.121290 -0.356159 1.040646 -0.127297 -0.441858 0.443693 1.534576 0.865459 -1.801667 -0.401241 -0.815121 -1.668765 1.498007 -0.047204 0.417589
items -1.127522 -0.826903 0.347662 -0.218179 0.435395 -0.023238 0.068932 0.344885 -1.240021 -0.441172 1.298755 -0.117499 0.888359 -0.581227 0.457796 0.085707 -1.076915 -0.110564 0.184767 0.014009 -0.098486 -0.141005 -1.331464 -0.015119 0.109045 -0.096239 -0.059761 -0.458241 -0.270455 -0.720258 0.534052 -0.814941 -0.248002 0.233487 0.830753 -0.158585 0.902779 -0.508581 0.554750 -0.488331 -0.589861 -0.362613 0.714012 -1.214895 -0.797642 -0.136838 0.145071 0.183353 -0.096760 -0.747414
id 0.411627 0.159865 -0.019391 -0.261358 0.572235 0.920284 0.345114 0.752934 -0.610636 0.272853 0.548816 -0.672998 -0.307411 -0.286797 -0.858167 0.109254 -1.140519 -1.069776 -0.312590 0.763957 -0.653837 -0.707808 -1.328448 -0.307895 -0.026366 -0.283183 -0.473560 0.095115 -0.718234 -0.289522 0.633439 0.079117 -0.670159 0.693233 0.294281 0.189931 0.736872 0.765092 1.242445 -0.517763 -0.350332 -0.745921 0.555689 -0.670333 -0.188535 -0.496739 -0.445246 -0.555117 -0.236112 -0.789978
sum 0.622543 -0.559836 0.077162 -0.324055 -0.887810 0.899150 1.174586 0.437986 -0.438864 -0.295293 0.606903 0.351017 0.106642 -0.359632 0.344142 -0.444418 -0.132033 -0.030043 0.662666 0.035441 1.095664 -0.333029 -1.886197 -0.283184 0.054296 -0.382593 -0.054699 0.232263 0.019308 -0.436003 -0.271973 -0.596870 -0.802583 -0.132116 0.443740 -0.171017 0.624457 -0.219119 -0.186566 -1.310021 -0.598769 0.052424 0.747351 -0.465816 -0.587704 0.487603 -0.485452 0.625573 0.078587 -0.835592
and 0.606909 0.031834 0.626858 -0.317266 0.997514 0.792294 0.408757 -0.712674 -1.261939 0.501723 0.936933 -0.888136 -1.090750 -1.342215 0.247362 0.057014 -1.024709 -1.021354 0.852189 -0.639025 -0.458652 0.749833 0.677840 -0.436372 0.079377 0.354391 -0.396878 0.171467 -0.306554 -0.036400 -0.050407 -0.713769 -0.312294 0.104858 -0.411633 0.364534 -0.057004 0.536908 1.133864 -0.253037 0.295312 -0.573766 1.364913 0.352277 0.544358 0.147372 -0.736296 -0.438587 -0.088631 -0.845594
url 0.288309 0.252494 0.041139 0.461461 -0.249721 0.911394 -0.510206 0.497580 0.071391 -0.023531 1.140010 -0.104354 0.419917 0.975626 -0.353036 0.387807 -0.639120 -1.215519 -0.238592 0.366443 0.406399 0.739537 -0.499405 -0.312169 0.236306 -0.687076 0.068970 -1.274572 -0.610109 -1.184952 1.477249 -0.618183 -0.541418 -0.993227 0.279624 -0.064291 -0.719885 0.846440 0.257491 0.414352 -0.261417 -0.977289 0.004220 -1.770846 -0.613817 -0.016002 -0.686991 -0.925033 -0.972679 -0.939916
values -0.289044 -0.278798 0.211004 -0.115365 0.378881 0.049506 0.563525 0.467736 -0.744049 -0.214200 0.299515 -0.220123 0.875244 -1.065279 0.554830 -0.281690 -0.676494 -0.744257 -0.444376 0.696621 -0.241318 -0.084334 -1.586058 -1.077295 -0.388023 -0.018638 -0.154588 0.197707 0.178364 -0.948005 0.102819 -0.493569 -0.898322 0.289122 0.858338 -0.577663 1.015522 0.155301 -0.004537 -0.611112 -0.672845 0.016902 0.440255 -0.540631 -0.825342 -0.188293 -0.877009 0.179191 -0.542315 -0.562236
8 1.000689 -1.386268 -0.788471 -0.018404 -0.726067 -0.479137 -0.818002 -0.432918 0.446947 -0.327239 0.516592 0.345334 -1.354685 -0.381072 -0.036504 0.109636 -1.152474 0.120167 0.738290 -0.304126 -0.186072 0.163109 -1.411887 -1.480818 0.267692 -0.955131 -0.868893 -0.281181 0.563496 -0.048429 -1.319650 0.519951 -0.235784 0.089890 0.657993 0.667711 -0.283723 0.723887 0.855902 -1.047895 -0.713829 0.381484 0.545455 -0.814974 0.260497 0.221745 -0.590938 0.368212 -0.697162 -0.255257
string 0.632582 -0.041345 -0.566169 -0.090404 0.051152 0.581107 1.399612 -0.238481 0.149376 -0.571014 1.261813 -0.438837 -0.274670 -0.305086 0.544608 0.132290 -0.812904 -0.820297 0.232030 -1.186840 0.445398 0.130812 0.678889 -0.663635 -0.231456 0.207457 -0.382040 -0.168128 -1.032303 -0.512787 0.251134 -0.961619 -0.853464 0.069388 1.222962 -0.811988 -0.056161 0.468339 -0.178523 -0.538402 0.251622 -0.418887 1.089577 0.264427 -0.509617 0.521182 -0.767231 -0.426490 -0.771736 -0.224722
append -0.165815 -0.465670 -0.159250 0.590469 0.240238 0.321216 0.213054 -0.058492 -1.030562 -0.798118 1.097235 -0.304750 -0.288645 -0.778999 0.628126 -0.909218 -0.764839 -0.183701 -0.259292 -0.500835 0.900322 -0.579185 -0.264321 -0.573788 0.140768 -0.460329 0.021749 -0.101880 0.165980 -0.267727 0.127891 -0.136773 -0.465974 -0.588557 0.912324 -0.208305 0.555590 0.707687 0.462884 -1.042418 -0.888831 -0.324274 0.523823 -0.446837 -0.279451 -0.887291 0.067645 -0.370884 0.038232 -0.015748
? 0.555964 -0.312057 -1.220341 0.249075 0.884549 0.744855 0.047644 0.580050 -0.818481 0.743329 1.535688 -0.481783 -1.510952 0.488211 -0.627567 0.535139 -1.223557 0.187162 -0.435322 -0.461567 -0.932837 0.549175 -0.641038 1.104237 1.196623 -0.446767 -0.565895 -0.074557 0.559372 -0.747610 0.157309 -0.057341 -0.535499 -0.183115 -0.567508 -0.666118 0.241667 0.882233 -0.101721 0.546849 -0.073474 0.613013 1.255846 -0.493035 0.970502 -0.037316 -1.131072 -0.008126 -0.575288 -1.155211
sorted -1.073997 -0.945011 0.235903 -0.286717 0.233373 -0.572080 -0.190503 0.651949 -0.306766 0.073797 1.349399 0.087187 0.613342 -0.806207 0.221117 -0.806021 -1.043763 0.058141 0.786653 0.443984 0.527843 0.157243 -1.828215 -0.403654 0.493821 -0.903442 -0.658854 -0.179719 -0.176224 -0.348990 0.325572 -0.416669 -0.386305 -0.021825 1.707926 -0.119913 0.630109 -0.453573 1.067156 -0.491486 -0.866259 -0.352953 0.549728 -0.944491 -0.583859 0.237222 0.559226 0.721443 -0.120566 -0.391147
sub 0.010091 0.159902 0.324834 0.138379 -0.074511 -0.261614 1.010382 -0.257110 -0.085298 -0.169631 1.208312 -0.405844 -0.886753 -0.097088 0.432049 0.062283 -0.563778 -0.368749 1.155354 -0.755573 -0.062606 1.276210 -0.073815 0.197148 0.028734 0.241738 -0.869312 -0.178214 -0.849520 -0.259095 0.183941 0.586589 -1.049339 -1.172711 1.595174 -0.498868 0.938499 0.368665 -0.756097 0.038513 -0.567402 -0.939332 -0.109107 -0.444312 -0.591841 0.881585 -0.215990 0.788543 -0.449220 -0.311761
findall 0.174118 0.178577 -0.185397 -0.287071 -0.326745 0.251982 0.530809 -0.502395 -0.111752 0.380762 1.055338 -0.335328 -0.499025 0.062698 0.793338 0.299227 -0.958960 0.192158 0.854122 -0.987018 0.246019 0.782960 0.000917 0.016199 0.338184 0.540868 -1.146773 -0.031521 -0.628971 -0.066172 0.912853 0.369700 -1.221047 -0.803601 1.721142 -0.466741 0.500833 0.788659 -0.231986 0.009611 0.292445 -0.919256 0.471991 -0.267318 -0.652091 0.957959 -0.279551 0.248449 -0.724853 -0.499666
file 0.465426 -0.360431 -0.337792 0.351796 1.029480 0.388589 -0.610066 0.980745 0.371537 -1.210091 0.766534 -0.299734 -0.147065 -1.586482 -0.657931 -0.444124 -0.815004 -0.724496 -0.245508 -0.643011 0.638745 -0.071891 0.608155 -0.450540 0.948764 0.031934 -0.642212 -0.891602 -0.176240 0.751342 0.382341 0.238794 -0.049072 -0.750747 0.620885 -0.338754 -0.295656 1.261140 -0.076836 0.389815 0.849893 -0.886093 0.936191 -0.610584 -0.163593 -0.725776 -0.565041 -0.581827 0.432250 -0.456456
9 1.330057 -0.892778 -1.104730 0.337497 -0.384860 -0.270041 -0.934798 -0.248725 0.107729 0.514122 0.501996 -0.077438 -1.339510 -0.353341 -0.153549 -0.030293 -0.996957 0.362973 0.356686 -0.784309 -0.407918 0.233485 -1.292905 -0.978873 0.494606 -0.725994 -0.575814 -0.164337 0.552384 -0.350993 -1.407356 0.702890 -0.255986 0.194866 0.674739 0.418772 -0.127724 0.279785 0.990249 -0.620666 -0.492762 0.643603 0.534361 -1.184783 0.593414 0.213592 -0.610930 0.301782 -0.993143 -0.800094
else 0.679239 -0.132137 0.897269 0.349136 -0.161999 0.804491 0.643087 -0.095713 -0.862089 -0.639751 0.729034 -0.295651 -0.057049 -1.018746 0.563811 -0.554416 -1.372657 -0.930849 0.690376 -0.431569 0.327474 -0.103860 -0.264374 -0.245692 0.044750 -0.135932 0.137343 -0.369382 -0.367890 -1.046687 -0.082629 -0.936855 -0.362894 -0.360973 0.039457 1.486905 0.118794 -0.419040 -0.154415 0.020370 -0.555441 0.046720 0.792330 -0.683900 -0.231678 -0.126595 -0.602098 0.582237 -0.041304 -0.104008
read 0.118321 -0.434189 -0.518474 -0.530154 0.750879 -0.301240 -0.161657 1.385575 0.452504 -0.266750 0.835855 -0.167055 -0.260095 -0.474000 -0.158668 -0.072097 -0.847949 -0.261106 0.623580 -0.203150 0.917896 0.632544 0.206485 -0.562342 1.069599 0.114015 -0.874754 -1.141506 0.014026 -0.298111 0.731563 -0.184797 -0.455780 -1.021313 0.694367 -0.066938 -0.549910 1.734472 0.027542 0.187810 0.570029 -1.195200 0.340150 -1.203755 -0.392348 -0.599001 0.326673 -0.062416 -0.615546 0.365854
e 0.289058 -0.134824 -0.395611 0.437456 0.849595 1.068265 0.789471 0.665976 -0.619250 0.010522 0.888338 0.754881 -0.490369 -0.603853 0.072085 -0.801524 -0.973631 -0.189953 0.093636 -1.212943 0.939309 0.284838 -0.667444 0.181645 0.794827 -1.086770 -0.508662 0.439799 -1.386616 0.671779 -0.711331 0.123761 0.867387 0.516320 0.647128 0.055768 0.387335 0.092424 0.563082 -0.192970 -0.740558 -0.921284 0.928987 -0.036019 -0.324182 -0.141460 0.971043 0.490818 -0.419243 -1.342971
write -0.146638 -0.090719 0.054213 -0.200350 0.623770 -0.441648 0.345922 -0.002230 -0.017762 -1.001597 0.270566 0.341349 -0.213106 -1.387186 -0.484181 0.226227 -0.361905 -1.078695 -0.286514 -0.976935 0.359487 0.252535 -0.093344 -0.120740 -0.010442 0.001457 -0.880152 -0.380534 0.432040 0.222185 0.691441 -0.703154 -0.094871 -0.861225 1.223432 0.630514 -0.086759 1.604240 -0.634155 0.425838 0.246580 -1.252006 0.549041 -0.952548 -0.717144 -1.209994 0.409006 -0.436356 0.112275 0.268575
& -0.007957 -1.879268 0.883990 0.283472 0.349934 -0.391162 -0.239552 0.580794 0.280768 -0.178281 0.401779 -0.306533 -1.528832 -0.282986 -1.047829 -0.227256 -0.486176 -0.169147 -0.036832 0.538334 -0.466537 0.352256 -0.889545 0.628645 0.562274 -0.713088 -1.712467 -0.665774 -0.477185 -0.649336 -0.566111 -0.322987 -0.637599 -0.073401 0.399115 -0.840270 -0.708697 0.185630 -1.120521 -1.135107 -0.236356 0.565077 -0.067754 0.315936 1.227641 0.355735 -1.267741 0.206065 0.290753 0.247682
map 0.168803 -1.009709 -0.143650 0.131601 -0.457203 -0.303093 0.381795 0.481775 0.335523 -0.529185 0.898665 -0.316394 0.305428 -0.620905 -0.288187 -0.449385 0.051551 0.558841 0.426484 -0.431236 0.534423 0.190145 -1.948220 -0.207708 0.154740 -0.633584 -0.873865 -0.076811 -0.575883 -0.547847 0.266877 -1.387252 -0.847265 -0.154861 1.779976 -0.076953 0.633721 0.295788 0.252723 -0.336341 -0.651910 -0.299204 0.861818 -0.483567 -0.369057 0.541694 -0.114333 0.918285 0.015807 -1.036933
all 0.435473 -0.208386 0.653534 0.114921 0.203796 0.957475 0.005735 0.514023 -1.143042 0.175977 1.160172 -0.355611 -0.541922 -0.918322 0.421432 0.122973 -0.738593 -0.448957 0.740599 0.073788 0.050683 0.432507 -0.988997 -0.571299 -0.111825 0.317050 -0.300288 0.123034 -1.045617 -0.135488 -0.096015 -0.334080 -0.455075 0.470820 -0.057362 -0.225331 0.559990 0.114263 0.368105 -1.390620 0.278261 -0.490976 -0.255602 0.009172 -0.173457 -0.368449 -0.779000 -0.223527 -0.167026 -0.639900
dict -0.465948 -0.212746 -0.149703 -0.212196 0.180081 0.143069 -0.421347 0.442852 -0.612803 -0.812843 0.851161 0.291354 0.115430 -0.113623 0.996373 -0.010276 -0.989439 -0.134332 -0.606302 0.549668 0.219598 -0.394294 -1.321033 -0.778429 0.209779 -0.772922 -0.908035 -0.159182 -0.330674 -1.166964 0.852055 -0.710196 -0.225861 0.035950 1.367974 -0.747444 0.616559 0.377802 0.458752 -0.649817 -0.276838 -0.290270 0.063289 -0.646483 -0.620763 0.204614 -0.076736 -0.033107 -0.145256 -0.540080
replace 0.091524 0.581707 0.068296 0.772546 0.009557 -0.273586 1.324874 -0.522036 0.675709 0.059696 0.748287 -0.086508 0.137804 -0.550773 -1.046635 0.880821 0.149084 -1.427411 0.695905 -0.532933 0.486634 0.298983 -0.347506 0.414573 0.101128 -0.876156 -0.900512 0.157577 -0.201663 0.111114 -0.775778 -0.613929 -0.475725 -1.437244 1.044934 0.561988 -0.087850 1.016312 -0.545084 -0.227861 -0.547723 -0.837926 0.301474 -0.194608 -0.599678 0.089221 -0.630220 -0.578292 -0.162002 0.114108
@ 0.295474 0.404652 -0.137262 1.007318 0.804823 0.019515 0.100296 0.074835 0.177821 -0.673223 0.587145 -0.453453 -2.146873 0.189668 -1.235813 -0.810667 -1.226262 -0.922001 0.321946 0.098163 -0.320212 -0.804933 -0.544211 -0.049640 -0.054541 -0.242237 -0.201648 0.274750 -0.394759 -1.275805 1.168544 -0.833318 -0.582871 1.020947 0.514877 -0.958833 -0.079984 0.530598 0.447010 0.641047 -0.354634 0.121105 0.392229 -0.311437 0.005382 0.291811 -0.862975 -0.495070 0.303415 0.671742
json 0.520282 0.266732 -0.872975 0.612688 -0.380120 0.854946 -0.566707 0.617462 -0.993725 -0.164545 0.887890 1.194108 -1.150430 0.904458 0.281387 -0.013760 -1.169090 0.174612 -0.184885 -0.095818 0.486673 -0.423141 -0.800863 -0.681261 -0.169139 0.056982 -0.926511 -0.617683 -0.892144 -0.606752 0.629064 0.174145 0.098568 -0.082476 1.445141 -0.370791 -1.110372 0.606120 -0.695983 0.452837 0.400774 -1.207083 -0.423645 -1.327460 -0.743909 -1.044340 0.740477 -0.749891 -0.828011 -0.054603
100 0.819337 0.015363 -0.384682 -0.764456 1.012497 0.701691 0.474443 0.776535 -0.558100 0.035244 -0.543458 0.128937 0.149346 -0.202403 0.473706 -0.145728 -0.206873 -0.818121 1.440453 -0.518932 -0.459644 0.766775 -0.642362 -0.373548 0.355213 -0.542715 0.140196 -0.071100 0.889389 -0.928359 -0.547318 -0.625205 -0.652502 -0.067249 0.476196 0.632994 -0.278576 0.598718 -0.748134 -1.349315 -0.386394 0.879594 -0.232304 -1.037005 -0.271178 0.118204 0.232594 -0.686019 0.121567 -1.020803
// 0.701385 -0.409610 -0.666507 0.544346 1.085216 0.549142 0.206904 -0.019797 -0.529594 -1.192492 0.008993 0.015246 -1.386267 0.273860 -0.329328 -0.192773 -0.456264 -0.980257 0.693367 -0.405881 0.074011 -0.619543 -0.239181 -0.302977 0.340019 -0.801688 -0.508319 -0.443159 -0.054455 -0.633597 0.330498 -0.469652 -0.118805 0.179061 -0.203893 0.123427 -0.158867 1.325280 0.516614 0.154786 -0.556010 0.614037 0.825095 -1.069950 -0.570097 0.612862 -1.267715 -0.345628 -0.316763 -0.146375
enumerate -0.557411 -0.628599 0.120292 0.039800 0.201441 0.291385 0.358960 0.608418 -0.751149 -0.650836 0.791232 0.002561 0.297313 -1.275357 0.915807 0.013662 -1.091781 -0.608951 -0.397504 -0.023725 1.029149 -0.093764 -1.126380 -0.645341 0.760707 -0.188531 -0.401608 0.012505 0.224388 -0.226053 0.005469 0.307881 0.403623 0.679579 0.732868 0.479334 0.906233 -0.172084 0.504955 -0.556541 -0.593549 -0.564782 0.825679 -0.404364 -1.168726 0.287371 -0.307142 -0.744106 -0.605991 -0.545306
stdout -0.494457 -0.671176 0.282023 -0.476873 0.731360 -0.887350 0.739694 0.214382 0.047611 -0.445568 0.463852 -0.396612 -0.272703 -1.138268 -0.391944 -0.844496 -0.368569 -1.125262 0.435476 -0.320907 -0.156972 0.995110 0.596087 -0.633360 0.112491 -0.846881 -0.342988 -0.047188 -0.281577 0.466383 0.682508 0.132034 0.442420 -1.140188 0.262889 0.072668 0.345863 1.100379 -0.944606 0.127466 -0.592559 -1.333177 -0.135248 -1.129887 0.111098 -2.145695 0.976495 0.700213 0.383555 0.963313
groupby -0.149193 -0.069225 0.302012 0.085302 -0.087928 0.172877 1.192878 0.484117 -0.652572 0.140807 0.262239 -0.457894 0.958312 -0.400579 -0.857406 -0.890180 -0.425776 0.780327 -0.124848 0.511434 0.477063 -0.373056 -1.508719 -0.993779 -0.923104 -0.408372 0.332977 0.598618 -0.080200 0.084161 -0.589073 0.442556 -1.046234 0.550787 0.752920 -0.827948 0.232221 -0.662336 0.209225 -1.263814 -0.661228 -0.750832 1.252313 -0.333201 -1.100410 0.346065 -0.558124 0.546497 -0.377130 -0.197730
date -0.282019 -0.026972 -0.329567 -0.302852 -0.300666 -0.169306 -0.302271 -0.622423 0.432514 0.857319 1.268970 0.113830 0.241690 -0.303946 -0.958709 -0.209803 -0.418115 -0.278419 0.467373 -0.666200 0.155287 0.432980 -1.182271 0.142229 -0.981708 -0.458656 0.825313 0.039790 -0.399995 0.542365 -0.246212 0.890558 -0.297840 -0.125530 0.440488 0.061639 0.160282 0.068223 1.241612 -0.364706 0.311230 0.163106 0.408495 -1.261244 -0.527245 0.259639 -2.521699 -0.041431 -0.448351 -0.382651
count -0.159585 -0.523113 0.317539 -0.827060 0.111443 0.337994 1.198054 0.158060 -0.208450 -0.459767 0.675141 -0.242071 0.581798 -0.472930 0.048406 -0.057920 -0.365590 -0.544027 0.739112 -0.487785 0.085365 -0.674894 -0.966803 -0.080524 -0.311484 -0.459263 0.077787 -0.487604 -0.709390 -0.116146 -0.180803 -0.490825 -0.658305 0.487488 0.603568 0.440555 0.291259 -0.117439 0.346446 -1.185674 0.011605 -0.137864 1.060000 -1.280408 -0.330176 0.144745 -0.410532 -0.289616 -0.238063 -0.610668
test 0.179245 0.314407 -0.293954 -0.166671 0.720710 0.345096 0.915795 0.069343 -0.624518 -1.001187 0.095335 0.382783 -1.080303 -0.651129 0.198093 -0.513105 -0.666753 -0.855099 -0.142413 0.044480 -0.325793 -0.411363 0.082219 -0.681285 -0.467360 -0.318369 -0.224141 0.255017 -0.620150 -0.054724 0.185179 0.051835 -0.462238 0.215949 0.942320 -1.454781 0.314373 0.723301 -0.248291 -0.814175 0.165335 -0.251582 0.368806 0.447165 -0.191356 -0.086026 -0.514758 0.611759 -0.149248 -0.278392
input 0.625686 -1.506550 0.319694 -0.662626 -0.103088 0.385785 0.478714 0.948921 0.736653 -0.327561 0.603328 -0.815077 0.579326 -0.793200 -0.074750 -0.519792 -1.031418 -0.653323 0.202898 -0.872650 -0.060494 -0.406719 0.229073 0.433714 0.193904 0.056838 -0.913416 -0.780859 -0.742088 -0.545360 0.616867 -0.791262 -1.049267 0.282916 0.684073 -0.547000 0.701591 0.650476 0.125522 -0.484342 1.236213 -0.466806 0.974199 -1.014668 0.750275 0.190941 0.270377 0.003292 1.092856 -0.858899
search 0.511279 0.759399 0.341516 -0.227795 -0.477004 0.532626 0.727911 -0.638880 -0.083888 0.379578 1.148403 -0.769975 -0.747479 0.520689 1.394503 0.346605 -0.965122 -0.525219 0.575043 -0.693268 0.057788 0.344045 0.064453 -0.170203 0.258328 0.404306 -0.558338 -0.444478 -1.119747 -0.030685 0.715060 0.331682 -0.744674 -0.774753 0.734461 0.265783 0.581138 0.671771 -0.157208 -0.366354 0.214759 -0.488482 0.250015 -0.228336 -0.727262 0.520490 -0.907225 -0.006179 -0.805213 -0.421028
", 0.328598 0.127809 0.875433 1.468858 0.405114 -0.779829 -0.075233 -0.638313 0.568912 -0.184294 0.712837 -0.576575 -1.213037 -0.652167 -1.175478 0.778919 0.065681 -0.242274 0.416595 -0.124379 -0.538411 0.884783 -0.233243 0.346987 0.419058 -0.398141 -0.673821 0.525869 -0.431305 -1.083767 -0.880943 -0.337686 -1.544448 -1.246700 0.951930 -0.970045 0.326994 -0.848626 -0.671589 1.031601 0.018536 -0.691804 -0.452576 -0.619970 0.526562 0.935233 -0.005045 -1.352599 0.896730 -1.691545
type 0.819426 -1.347058 0.584511 -0.201643 -0.509941 0.755226 0.924398 0.536001 0.004963 0.197235 0.734602 0.152716 0.106640 -0.085462 -0.497346 -1.125037 -1.241930 -1.060652 0.256126 0.429271 -0.039972 -0.482480 -0.239338 0.127421 -0.580176 -0.279202 -0.679320 -0.497570 -0.631533 -0.791590 0.820244 -0.063783 -1.330271 1.384070 0.077711 -0.135802 0.224162 0.381968 0.497563 -0.163089 0.513050 -0.666344 0.735350 0.244426 0.629727 0.320847 -0.413128 -0.267842 0.684577 -0.644781
Popen -0.076077 -0.654583 -0.184500 -0.626081 0.418965 -0.436803 -0.257822 -0.915384 -0.215703 -0.228975 0.515732 -0.609558 -0.481988 -0.353678 -1.173131 -0.822314 -0.357036 -0.326826 0.451394 0.107636 -0.647648 1.554235 0.641592 -0.315748 0.192987 -1.436051 -0.666643 0.831096 -0.716637 0.204225 0.772875 0.331441 0.511607 -1.364124 0.316641 -0.316439 0.062455 -0.063100 -0.806093 0.429873 -0.221178 -1.043169 0.083244 -1.333950 0.079920 -1.896974 0.726730 0.603582 -0.016942 0.351691
query -0.390253 0.687444 -0.029903 -0.511090 -0.003032 1.310241 0.110005 0.250172 -0.505893 0.253417 0.721119 -1.225772 0.102641 -0.356972 -0.488669 0.706113 -0.298377 -0.224046 -0.011829 0.388469 -0.501545 0.423658 -1.341742 -0.732077 -0.279417 -0.005173 -0.048379 0.837448 -1.298136 -0.337318 1.116981 -0.098809 -0.389849 0.103046 0.234798 0.028707 0.211741 0.671878 0.673586 -0.934275 -0.692333 -0.432966 -0.282359 -0.977031 -0.200095 -0.113834 -1.219673 -0.623303 -0.517312 0.042749
response 0.514386 0.064682 0.319070 0.329014 0.218086 0.331540 -0.258497 0.516235 -0.386014 -0.016118 -0.017184 0.370022 -0.831949 0.842658 -0.603604 -0.064212 -0.600771 -1.228435 -0.025537 0.740056 0.928750 0.390742 -0.402047 -0.237045 0.215852 0.004919 -0.471746 -1.188281 -0.699422 -0.880952 0.770849 -1.377788 -0.153132 -1.053403 0.436117 0.183450 -0.696216 0.465243 0.094742 0.550553 -0.346791 -1.693062 -0.133141 -0.968497 -0.855859 -0.906509 0.553751 -0.504900 -0.450678 0.140854
match 0.199326 0.325727 0.177420 0.070898 -0.775041 0.485666 1.014369 -0.429616 -0.294826 -0.164476 1.595474 -0.699380 -0.547652 0.756231 1.624235 -0.330641 -0.892244 -0.190929 0.661186 -0.813411 0.451436 -0.102334 -0.195531 0.421495 0.074005 0.205157 -0.335162 -0.390141 -0.962593 -0.260884 0.738181 0.362581 -0.797565 -0.745299 0.947961 0.337922 0.866723 0.346366 -0.046281 -0.120708 -0.250846 -0.455698 0.473917 -0.300206 -0.649101 0.750546 -0.886222 0.233204 -0.131193 -0.363595
c 0.145966 0.266689 -0.232495 0.184826 1.530968 0.235895 0.467052 0.566161 -0.504355 0.820491 0.615435 0.369053 -0.223651 -0.719088 0.196024 0.221601 -1.151515 -0.387830 -0.660637 -0.684836 -0.502954 0.674639 -0.589498 -0.844647 0.325565 -1.183614 -0.750620 0.165630 -0.410708 -0.536466 -1.395233 -0.115582 0.251139 0.041484 1.064054 0.134851 -0.455042 0.006337 0.012593 -0.751193 -0.822879 -0.102442 0.246855 0.579305 0.001605 -0.031063 1.419275 1.133167 -0.410768 -1.557470
axis 0.728776 -0.379079 0.203699 0.174845 -0.529584 0.806988 0.617768 0.640988 -0.688105 0.327956 1.093731 -0.335473 0.531532 -0.017492 0.547136 -1.067684 0.194014 -0.845781 0.973739 1.078018 1.169061 0.154585 -1.900124 -0.546302 -0.437484 0.426397 -0.395046 0.471280 -0.044077 0.245206 -1.133119 0.120758 -0.664666 -0.083674 0.456608 -0.700260 0.381069 0.270809 -0.518030 -1.838345 -0.434362 0.118683 0.071556 0.652770 -0.439310 -0.186642 -0.585930 0.598724 -0.191691 -0.487005
12 1.146296 -0.799336 -0.389941 -0.267981 -0.185422 -0.514351 -0.718377 -0.232719 -0.071299 0.488043 -0.631157 -0.164513 -0.937183 -1.009950 -0.390938 -0.433129 -0.785403 -0.066827 0.748751 -0.250978 0.031332 0.367531 -0.248653 -0.882957 -0.399539 -1.002891 0.265564 -0.494757 0.777499 -0.415857 -1.563947 0.348344 -0.318712 -0.343286 0.599810 0.453272 0.094506 0.296943 1.279728 -1.205377 -0.547933 0.371526 0.395409 -1.138274 0.000403 0.911715 -0.691508 -0.407201 -0.477262 0.277894
L 0.073805 -0.636028 -0.486153 0.059711 -0.237985 -0.437924 0.441930 0.060884 -0.254369 -0.230503 0.740311 -0.448617 -0.882718 -0.612358 1.018346 -0.515890 -0.418342 -0.012954 0.175922 0.338411 0.941918 -0.225873 -0.848123 -0.931477 0.294415 -0.413600 0.553062 -0.405626 0.465918 -0.882829 -1.144753 -0.075208 -0.031047 -0.629805 0.755161 -0.259653 0.783020 -0.756117 1.463941 -0.235121 -1.144519 0.356460 0.768818 -0.600100 -0.487511 1.272216 -0.166816 0.306372 -0.803638 -0.275162
max 0.121462 -1.426183 -0.214942 0.942870 -0.185481 0.498466 0.232554 0.302319 -0.821085 0.381241 0.702859 0.358233 0.821665 -0.541391 0.725854 -0.677938 -0.343244 -0.475128 0.896704 0.302886 1.376295 0.106733 -1.584255 0.041931 0.313896 0.041139 -0.349994 -0.115332 0.452023 -0.780859 -0.300198 -0.310430 -0.755560 0.358071 0.657092 0.020606 0.394646 0.037936 0.070317 -0.396909 -0.651565 0.775734 0.574242 -0.252142 -0.575626 0.405887 -1.158543 0.315853 -0.092665 -0.425545
strip 0.057550 -0.318213 0.312874 -0.114412 -0.156453 -0.064671 0.423454 0.239547 0.162412 -0.399058 0.680850 -0.601100 -0.352274 -0.573196 -0.641326 -0.140550 -0.235124 0.124417 0.231998 -0.779816 0.897318 -0.267450 -0.367005 0.845029 0.679137 0.061976 -1.328649 -0.275602 -0.965071 0.187149 -0.037282 -0.403994 -0.358678 -0.974588 1.144396 0.740850 0.963030 0.465581 -0.008762 -0.482566 0.062721 -1.483167 0.935987 -0.971733 -0.489009 -0.609699 -0.189751 -0.263496 -0.435163 0.337554
compile -0.094106 0.409527 -0.176044 -0.173899 -0.155082 0.138817 0.184819 -0.293360 -0.079698 -0.260095 1.130347 -0.826227 -0.712401 0.738674 0.896912 0.442057 -0.662646 0.107329 0.618635 -0.745100 -0.121266 0.289470 -0.003197 0.362815 0.425340 0.582072 -0.962772 -0.730516 -1.088795 0.292934 1.155528 0.688822 -0.766381 -1.060447 1.364990 -0.221279 0.563836 0.935074 -0.358797 -0.178672 0.138055 -0.256945 0.173921 -0.278876 -0.682466 0.725871 -0.809084 0.452544 -0.450332 -0.308023
!= 0.356086 -0.430290 0.662476 0.696960 0.421154 0.331657 1.161978 0.171761 -0.776011 -0.278199 0.647491 -0.846449 -0.150193 -1.185980 -0.080148 -0.582607 -0.877122 -0.724529 0.916322 -0.226012 -0.097696 0.275835 -0.458291 0.047251 0.418948 0.001990 -0.052561 -0.254005 -0.027224 -0.251249 -0.772439 -0.103037 -0.434177 0.294155 0.076665 1.181860 0.140995 -0.196095 0.100190 -0.206318 -1.011114 -0.294902 1.047587 0.010622 0.247275 -0.000845 -0.660069 0.355799 -0.198741 -0.219161
^ 0.912301 -0.074556 -0.911798 -0.291465 0.352190 0.282044 0.295031 -0.568869 0.156143 -0.137032 0.692263 -0.770403 -1.393548 0.745439 -0.565330 -0.351091 -0.517171 0.760447 0.115792 -1.351818 -1.079349 -0.202774 -1.075750 0.689221 0.901985 -0.774043 -0.549803 0.160084 0.239106 -0.359033 0.352269 0.148016 -0.793459 -0.613741 0.019581 0.271059 -0.156861 -0.186137 -0.018378 -0.285971 -0.266630 1.411869 1.341058 -0.750428 0.501323 0.305747 -1.491713 1.363576 0.109641 -0.938074
float 1.467305 -0.834323 0.315453 -0.146659 -1.006528 0.246002 0.960520 0.047222 0.407784 -0.279645 0.353550 0.333113 0.174380 -0.142811 0.287848 -0.996397 -0.128734 0.342778 0.478811 -0.880118 1.272316 -0.463918 -0.712478 0.391887 -0.050559 -0.515762 -0.760847 0.184095 0.615766 -0.641942 0.289200 -1.151736 -1.006123 -0.688161 0.324840 0.485495 0.677602 0.864504 0.084325 -1.064080 -0.583143 -0.230705 0.562398 -0.249273 0.118741 -0.245417 0.396462 0.552958 0.710333 -0.735404
object 0.751222 -0.098893 -0.405964 0.347612 0.884500 0.035302 0.605827 0.043256 -0.229493 -0.761766 0.178391 0.444285 -0.402775 -0.910433 -0.439646 -0.650745 -1.592843 -1.438447 0.784581 0.172659 0.372783 -0.681173 0.001079 -0.376191 -0.481030 -0.585656 -0.296357 0.260548 -0.048420 -0.996882 0.223452 -0.859290 -0.898197 1.473338 0.550052 -0.941128 0.500528 0.558898 0.258860 -0.137991 1.422683 -0.540257 -0.045995 0.184363 -0.124190 -0.672884 -0.526633 -0.376760 0.742615 0.398487
X 0.138638 -0.417791 0.138497 0.092185 0.327081 -0.115605 0.829683 -0.156768 -0.261792 -0.506421 0.261818 -0.753040 -0.927749 -0.081473 0.547818 -0.481065 -0.663026 0.090763 0.588841 0.075991 0.166305 0.180103 -0.594808 0.398906 0.068618 -0.095856 -0.153782 0.358990 0.340262 -0.472348 -1.042630 -0.372445 -0.815025 0.481054 0.700360 -0.274334 0.689918 -0.195462 -1.110568 -0.517307 -0.034956 1.314762 0.304852 0.291969 -0.112667 -0.458470 -1.250271 -0.070471 0.311244 -0.115815
bar 0.099658 0.790564 0.249585 -0.676808 0.360877 0.076926 0.081768 -0.057356 -1.678333 -0.716528 0.396302 -0.460985 -0.622676 0.718055 0.638150 0.445883 -1.529539 -0.305822 0.964591 0.940203 -1.128003 -0.550782 -0.516130 -0.395602 -0.349644 -0.449685 -0.408869 0.063593 0.098772 -0.086783 0.445663 -0.436440 -0.589241 -0.620214 1.158895 -0.035899 -0.234560 0.398728 -0.994970 -0.624398 0.269690 0.122839 0.458066 0.199639 -1.004588 -0.017813 0.182960 0.517246 0.949249 -0.137880
20 0.734471 -0.629209 -0.376515 -0.551292 0.893199 0.024328 -0.554660 0.065649 -0.454674 0.119436 -1.035241 -0.317125 -0.144133 -0.232737 -0.042926 0.142732 -0.691068 0.342068 0.983183 -0.304328 -0.646337 0.624442 -0.230380 -0.364217 0.266289 -0.484463 -0.229281 -0.534136 0.243137 -0.779668 -0.912710 -0.103434 -0.848755 -0.395759 0.778870 1.052460 -0.232501 0.422812 -0.023275 -0.763227 -0.206984 1.073545 0.349080 -1.300057 0.010280 0.364480 -0.491493 -0.334444 -0.128136 -0.505580
or 1.109318 -0.450178 0.572339 0.513468 0.283751 0.950699 0.588735 0.728978 -0.629094 0.164740 0.364700 -1.019631 -1.454688 -0.855757 0.242177 -0.209049 -0.983360 -0.937034 0.724425 -0.350701 -0.613219 0.107967 0.210272 -0.495960 0.890424 0.194629 -0.201836 -0.132285 -1.030436 0.234063 -0.413023 -0.361146 0.147486 0.285558 -0.401681 0.693797 0.150387 -0.811831 -0.137756 -0.117822 -0.459729 -0.491548 0.909280 0.262569 -0.092138 0.237014 -0.184704 -0.349973 0.007498 -0.969002
collections -0.156402 -0.153882 -0.548061 -0.728337 0.018364 -0.437990 0.227088 0.236959 0.311442 -0.727537 1.484711 0.638781 0.774477 -0.486318 -0.592102 -0.697910 -0.804423 0.496024 0.596804 -0.742473 -0.269918 -0.041961 -0.367526 -0.944379 -0.308746 -0.486073 0.151024 -0.316488 -0.846375 -1.441238 -0.067544 -1.129411 -0.518370 0.510894 1.317182 -1.129016 -0.668046 -1.357535 0.512542 -0.576326 0.229444 -0.328686 0.323348 -0.932251 -0.069313 -0.130456 0.321249 -0.423467 -1.136572 -0.293096
find 0.170317 0.508815 -0.290745 1.011352 0.487739 0.552891 0.927170 0.423112 -0.833559 0.719651 0.432361 0.020226 -0.249432 0.132600 0.204083 0.060919 -0.254767 -1.308798 -0.305727 -0.033028 0.056122 -0.624424 0.219352 0.486478 0.167949 -0.749297 -0.439126 -0.481430 -1.141411 0.404197 0.326348 0.685622 0.033963 0.092872 0.473762 0.012856 0.555868 1.219893 1.109397 -0.288128 -0.086713 -0.715370 0.291168 -0.006650 -0.566421 0.556095 -0.595256 -0.249596 -0.470422 -0.341648
keys -0.855946 -0.338233 0.002206 -0.054294 0.684154 -0.079811 -0.201990 0.982991 -0.854654 -0.222181 0.666135 -0.111878 -0.122309 -0.545677 0.831797 -0.289143 -0.809453 0.080425 -0.723013 0.435444 0.006117 0.135140 -1.418208 -0.669089 0.637364 0.061562 -0.483893 -0.364173 0.019373 -1.163634 0.790032 -0.364418 -0.245997 0.128959 0.938126 -0.814074 0.796495 -0.177371 0.189762 -0.126672 -0.852189 0.310270 0.337335 -0.248936 -0.531220 0.153014 -0.670266 0.307358 -0.928983 -0.129517
"" -0.390492 -0.217932 0.649488 0.765228 -0.413207 -0.383516 1.110477 -0.162578 0.263394 -1.005279 1.050337 -0.533375 0.024586 -1.067998 -0.493945 0.183169 -0.272608 -0.360191 1.039843 -0.751465 0.121917 0.279583 -0.236472 -0.014621 0.274681 0.065926 -0.512256 -0.436343 -0.375196 0.127377 -0.076300 -0.499452 -0.865167 -0.815382 1.309436 0.335016 0.176036 0.295099 -0.870377 -0.138615 -0.906574 -0.848324 0.526559 -0.396596 -0.246934 0.221716 -0.259465 0.131894 0.143997 0.166992
plot 0.303586 0.114664 -0.085132 -1.415376 0.219445 -0.063205 -0.684590 0.676375 -1.110031 -0.783161 -0.123274 -0.061496 0.361677 0.192965 0.003822 0.071696 -0.491232 -0.064457 1.848353 0.473025 -0.006257 0.015174 -1.317397 -0.727756 0.195378 0.143729 -0.040514 -0.078885 0.543204 0.456577 -0.360131 -0.014607 -0.351974 -0.400700 0.545378 0.330364 -0.146666 0.379062 -1.413312 -1.078556 0.430279 0.432994 0.549628 -0.520978 -1.222473 -0.461963 -0.184120 -0.085354 -0.113846 0.157819
urllib -0.416446 0.056727 -0.018485 -0.047237 0.248885 -0.185786 -0.472794 0.053466 0.490139 1.009646 1.656269 0.796870 0.316346 0.424147 -0.536659 0.912812 -0.720780 -0.117255 -0.474469 0.215935 0.822031 0.746335 -0.382974 -0.953049 -0.047525 -0.525864 0.046138 -1.119179 -0.215003 -0.942415 1.146171 -0.657746 -0.784827 -0.756626 -0.315152 0.001795 -1.929366 1.191237 0.991027 -0.025702 0.300152 -0.562522 -0.571307 -0.483534 -0.535876 -0.994601 -0.585612 -0.687766 -1.818997 0.281245
while -0.123437 -1.277307 0.507832 0.013441 0.872996 0.408917 0.244375 0.782121 -0.224589 0.220879 0.707991 -1.231776 0.065583 -0.935136 0.333556 -0.895039 -1.396875 -0.430479 1.412890 -0.326609 0.340857 0.132544 0.082037 0.046186 1.107753 -0.385691 0.045758 -0.803216 -0.476143 0.108236 0.199837 -0.364377 -0.151039 -0.243066 -0.376474 0.641650 -0.401627 0.369681 -0.206662 0.199979 0.309611 0.266432 1.183868 -1.019957 0.223458 -0.565769 -0.652173 1.075082 0.559481 0.572248
product -0.954449 -0.945029 -0.618617 0.072066 0.068480 -0.181850 0.829933 -0.139331 0.231851 -0.685940 0.753400 -0.350972 -0.048310 -1.208345 0.496490 0.559961 -0.496552 0.801061 0.378324 -0.280806 -0.292780 0.212225 -0.750327 -1.557212 0.427679 -0.754378 0.775226 0.268283 -0.373311 -0.380268 -0.589817 -0.896961 -0.812985 0.343078 1.037037 -1.412704 0.215829 -0.872839 0.010407 -1.287203 -0.569049 0.236195 0.463673 -0.646996 -0.707183 -0.146796 0.036739 -0.003865 -0.428728 -0.681649
now 0.270694 -0.491677 -0.051249 -0.750886 0.162826 0.424635 -0.156524 -0.777314 0.601708 0.653567 0.985674 0.255662 0.388873 -1.189179 -0.578755 0.037474 0.288750 -0.871501 1.071046 -0.735879 0.301668 0.967621 0.397569 0.075197 -0.609776 0.178053 0.789211 -0.074448 -0.623815 0.162262 -0.463775 -0.670648 -0.495803 -0.561733 -0.681604 0.392193 0.012875 0.451824 1.680640 -0.492676 0.164354 0.742573 -0.261860 -0.789674 0.188980 -0.728303 -2.014784 -0.332452 -0.294309 -0.132440
columns -0.462422 -0.463564 -0.230137 0.485336 0.335783 0.275570 0.223511 0.604339 -0.293824 0.084211 -0.166870 -0.748480 1.182871 -0.523309 -0.043467 -0.176262 -0.348184 -0.827861 -0.811907 1.573960 -0.250148 0.176350 -1.815425 -1.012803 -0.263265 0.094573 0.032696 0.125694 0.632896 0.146033 -0.786219 0.705767 -0.506751 -0.211746 1.015976 -0.412995 0.305710 0.515311 -0.113093 -0.211237 -1.008490 -0.045985 0.725043 0.084443 -0.531262 -0.019500 -0.881521 0.578221 -0.241036 -0.590112
+= 0.068744 -0.436882 0.132206 -0.531135 -0.788626 0.447396 0.758980 -0.692017 0.327210 -0.655713 0.872777 -0.112227 0.344704 -0.066938 0.037328 -0.441295 -0.283340 -0.797239 0.483690 -0.458638 0.814646 -0.247080 -0.645503 -0.082540 0.019753 -0.678794 0.267385 -0.215331 0.089131 -0.837491 -0.272151 -0.754944 -0.260310 -0.250251 0.528118 1.021948 -0.456464 0.044307 0.006819 -0.124859 -0.598699 0.035265 0.803329 -1.062930 -0.083132 0.133284 -0.411256 -0.641268 0.041334 -0.472349
size 0.749662 -0.893490 -0.523745 -0.298555 0.217640 0.436711 0.153895 0.689065 -0.375731 0.009407 -0.206856 -0.052840 0.218686 -0.244298 -0.105732 -0.187623 -0.348313 -0.565899 0.512853 0.728199 0.055770 0.237366 -0.684330 -0.574819 0.151030 -0.177514 0.106626 -0.434798 0.627353 -0.457719 -0.415669 0.126043 -0.780863 -0.143063 -0.041449 0.621442 0.142522 0.806283 0.306952 -0.697650 -0.580724 0.593951 0.039075 -0.378067 0.136212 -0.131127 -0.333651 -0.059714 0.070715 -0.741706
execute -0.521990 0.481417 -1.473816 -0.121114 0.117662 1.078637 0.492969 0.279558 -0.529555 -0.109164 -0.343273 -0.782301 -0.121602 -0.671602 -0.586287 1.184390 0.427412 -0.303534 0.146202 0.094266 -0.848763 0.375433 -1.170578 0.227735 0.431636 0.671530 0.495114 1.492807 -0.299197 0.267769 1.114011 -0.214644 0.034164 0.295580 0.166809 -1.076255 0.936212 1.204250 0.180639 -0.141360 -0.490740 -0.334760 0.005886 -1.385391 -0.240553 -0.394140 -0.391995 -1.116136 -0.242865 0.324252
shape 0.674918 -0.475072 -0.455379 -0.967975 0.538283 0.389390 0.867006 0.091246 0.038788 0.293882 -0.114724 -0.249897 -0.611010 -0.500126 0.287738 -0.948251 -0.313569 -0.503915 0.531714 0.143151 0.954887 0.189348 -0.009365 -0.471473 0.073869 0.255327 -0.302259 0.890514 0.723079 -0.613121 -1.196746 -0.359897 -0.536626 0.800094 0.285836 -0.580964 0.602393 0.947523 -0.484175 -1.145574 0.072113 0.982023 0.633684 0.616805 -0.092489 -0.727557 -0.024816 -0.633355 -0.783741 0.461130
pass -0.005103 0.313557 0.033551 0.089807 0.569933 0.492338 0.551555 0.124232 -0.393641 -0.891662 0.235721 0.190776 0.138582 -1.007954 0.364512 -1.601657 -1.810200 0.220124 0.112637 0.164738 0.467492 -0.699598 -0.277897 -0.677547 -0.240381 -0.676171 0.138422 0.313335 -0.036161 -1.037615 0.602561 0.172990 -0.023303 1.133115 0.850419 0.077008 -0.445479 0.410716 0.381455 0.503630 0.659619 -0.375654 0.482629 -0.222007 0.207431 -0.230811 -0.385728 -0.304244 0.662509 0.992394
sort -0.236136 -1.195328 0.472711 0.683327 0.330221 -0.111768 -0.026878 0.938113 -0.268498 0.405013 0.683631 0.069326 -0.299013 -0.235824 -0.561770 -0.868622 -0.739504 0.038355 0.741947 0.922328 0.647501 0.384897 -1.305345 0.262246 -0.130211 -0.400709 -0.544500 -0.085041 -0.867798 0.311254 -0.553712 0.537734 -0.515704 0.083923 0.867792 -0.478576 0.874233 -0.236424 0.207334 -0.013366 -0.143293 -0.430908 0.290542 -0.214805 -0.353055 0.381350 -0.336249 1.252590 0.045217 -0.409076
the 0.544614 0.515815 0.475785 -0.562456 0.415266 1.033056 0.583383 -0.106968 -0.074542 -0.196621 0.271522 -0.021012 -0.060638 -1.435135 0.222726 -0.073687 -0.137025 -0.771074 -0.151717 -1.032395 -0.030975 -0.141285 1.035745 0.039680 -0.011374 0.941258 -0.125270 -0.199847 -1.198034 -0.075868 -0.830849 -0.802408 -0.893733 -0.435933 0.192855 -1.209318 0.540577 -0.852814 0.461441 -0.195815 1.373138 -0.530331 0.382324 0.058761 0.284811 0.408417 0.097356 0.044440 0.377473 -0.800150
\\n -0.719594 0.012057 -0.585990 0.464046 0.609449 -0.818974 1.220740 -0.365295 0.216704 -0.743298 0.715689 -0.395792 0.233079 -1.251567 -0.944049 0.266163 0.411088 -0.375372 0.000902 -0.845389 0.240827 0.035865 0.004320 0.100299 0.115533 -0.025088 -0.961519 -0.172224 0.035175 0.147014 -0.575396 -0.790349 -0.218972 -0.576145 1.905925 0.516218 -0.088124 0.917770 -0.593386 0.223657 -0.868272 -0.540119 1.557215 0.171310 -0.313621 -0.103310 -0.035876 0.015927 -1.162151 0.323715
Counter -0.319145 -0.246725 -0.728424 -0.726990 0.034805 -0.892613 0.274507 0.083854 0.682285 -0.705379 1.256106 0.637762 0.513827 -0.605058 -0.379975 -0.395338 -0.408605 0.424480 0.128770 -0.802590 0.018539 -0.226724 -0.698341 -0.726618 -0.201596 -0.218952 -0.093300 -0.629846 -0.743068 -1.391102 -0.502423 -1.031001 -0.571645 0.828330 1.439564 -1.082136 -0.326309 -1.248526 0.677896 -0.477675 0.490795 -0.303364 0.579662 -0.755718 -0.047537 0.505686 0.029265 -0.391127 -1.460649 -0.400821
requests 0.442039 0.273203 0.029612 0.212059 0.287755 -0.112485 -0.345481 1.112768 -0.095523 -0.240609 -0.005729 0.522721 0.391826 1.205494 -0.558193 -0.329099 -0.187653 -1.009214 0.020443 0.933855 0.589516 0.145170 -0.393370 -0.619825 0.304296 -0.529744 0.179998 -2.229061 -0.640747 -0.984275 0.943536 -0.513521 -0.038866 -0.913358 0.470769 -0.549738 -1.092767 0.456059 0.299279 0.873599 -0.107635 -0.818526 -0.363622 -1.309000 -1.343658 -0.313560 0.044715 -0.718350 -0.974654 -0.314207
show -0.058849 0.609861 0.185685 -0.469888 0.392873 -0.009656 -0.954497 0.617228 -1.065474 -0.493682 0.418584 0.247332 0.236327 -0.185813 -0.102855 -0.160121 -0.112023 0.020825 1.574016 -0.029036 -0.186550 -0.219581 -1.258933 -0.458208 0.471801 0.294310 -0.694681 -0.743352 -0.432668 0.821770 0.091413 -0.201042 -0.110806 -0.785478 0.997343 -0.200444 -0.158440 0.308836 -0.619471 -0.976864 0.003475 0.139538 0.035548 -0.311921 -0.888939 -0.555944 -0.362233 0.569817 -0.403912 0.252902
w 0.154580 0.273375 -0.655860 0.177470 0.417099 -0.787403 -0.306209 0.639593 0.593250 -1.101504 0.553343 0.093039 0.535252 -1.213325 -0.235365 0.043831 -0.570717 -0.285236 -0.464456 -0.669191 0.018027 0.483154 -0.192057 -0.703996 0.703933 0.104779 -0.540294 -0.143319 1.160756 0.263553 0.056902 0.876386 0.220445 -0.532991 0.923223 0.668619 -0.097114 1.042240 -0.985400 0.676657 0.669428 -1.272081 0.387802 -0.901988 -0.155295 -1.160116 0.721304 -0.359708 0.358453 -0.334089
title 0.359844 0.715443 0.547336 -0.034752 0.499677 0.532292 -0.539376 0.261303 -1.218508 -0.443396 0.002415 0.015465 0.325725 -0.059093 -0.643189 0.250421 -0.786593 -1.122084 1.213866 0.549802 0.073751 -0.658034 -0.128542 0.295252 0.217755 0.624786 -0.208712 -0.961279 -0.622424 0.059952 0.006052 -0.441669 -0.752834 -0.150961 0.329390 0.281478 0.465852 -0.361301 0.286588 -0.117021 0.503325 -0.580361 0.361709 -0.336003 -0.967983 -0.011860 -0.207276 -0.501872 -0.187489 -0.253975
r 0.590893 0.309260 -0.682592 -0.159953 0.657015 -0.294765 -0.404665 1.303364 0.170478 -0.314704 0.717857 0.291004 0.580667 -0.871174 -0.193659 -0.075355 -0.949617 -0.130366 -0.016154 -0.517727 0.449381 0.202248 0.211657 -0.392156 1.114116 0.491766 -1.058563 -0.606118 0.807591 0.009129 -0.197859 0.847462 0.028120 -0.007528 0.693363 0.416422 0.101043 0.781845 -0.520289 0.074957 0.938111 -1.191430 0.312031 -0.190213 -0.023816 -0.359536 1.118235 0.002616 -0.104874 -0.355733
cursor -0.440926 0.690634 -0.947521 -0.505579 0.244176 1.005454 0.450919 0.467311 -0.398278 -0.675464 -0.887422 -0.795401 0.238320 -0.768487 -0.392151 0.546353 0.030010 0.066299 0.086007 -0.094795 -0.069409 -0.100990 -0.988181 0.274564 0.745217 0.764495 0.299852 1.267785 -0.147690 -0.006604 0.979711 0.157547 0.142899 0.121065 0.235565 -0.250877 1.046099 1.571491 0.147705 -0.301187 -0.833446 -0.410872 0.131071 -1.498852 -0.482031 -0.350123 -0.405106 -1.067920 -0.637524 1.211577
decode -0.475683 -0.643273 0.578403 -0.308013 -0.540330 0.525035 0.448733 0.544503 1.107920 1.376835 0.819208 0.521386 0.312192 -0.430498 -0.258479 0.732109 -0.010873 -0.205466 0.341436 -0.689953 1.601594 -0.802269 -0.450049 0.107409 0.943874 0.208030 -1.493811 -0.237921 0.368720 -0.009328 1.276186 -0.530275 -0.978110 -0.445527 0.165421 0.035715 -1.232461 0.702434 -0.540056 -0.861624 0.549055 -0.280092 -0.101799 -0.034881 -0.329864 -0.494867 0.439453 -0.704755 -0.415873 1.463349
min 0.192187 -1.438140 -0.323682 1.049181 -0.393459 0.198176 0.037502 0.050179 -0.207229 0.306131 0.590887 0.350460 0.480630 -0.346249 0.489698 -0.429978 -0.081367 -0.389283 1.057557 0.256583 1.380134 0.233410 -1.309323 0.119638 0.062901 -0.137170 -0.186662 0.100163 0.162043 -0.506393 -0.422303 -0.312615 -0.741232 0.223951 0.508433 -0.199050 0.550761 -0.002325 0.314914 -0.143761 -0.707001 0.848933 0.240486 -0.359004 -0.689326 0.366011 -1.064918 0.342915 -0.027886 -0.280618
where 0.512608 -0.458975 -0.142273 -0.331416 -0.416595 1.464237 0.821337 -0.021511 -0.441423 0.136251 0.470733 -0.442255 -0.614790 -0.580737 -0.611531 0.470196 -0.807738 0.207583 -0.291555 -0.027493 -0.924363 0.197301 -0.515805 -0.270844 -0.223207 0.327203 0.234797 1.343286 -0.132766 0.296491 -0.271402 -0.470460 -0.684605 0.794155 -0.786738 -0.494858 0.200069 0.076454 -0.070093 -1.046713 0.007509 -0.517976 0.765422 -0.108561 0.598751 -1.001340 -0.642899 -0.542526 -0.185362 -0.948574
dtype 1.715672 -0.668388 -0.181880 -0.463038 -0.305445 -0.578607 0.588700 0.437839 0.939073 0.249128 -0.122915 0.325532 0.074112 -0.593195 0.264037 -0.583901 -0.655277 -0.416307 0.539537 -0.265995 1.036958 -0.038303 -0.325333 -0.253019 -0.331619 -0.542762 -0.630759 0.502272 0.316557 -0.919197 -0.473418 -0.958267 -0.704832 0.611100 0.699037 0.490266 1.143118 1.131461 -0.103507 -1.085757 0.633584 0.070962 -0.928030 0.482419 -0.021828 -1.032183 0.349185 0.057665 0.375195 0.195476
11 0.831301 -0.796645 -0.456019 -0.183066 -0.064423 -0.370949 -0.958999 0.066058 -0.213967 0.728715 -0.702065 0.107938 -0.501768 -0.761959 0.031019 -0.411998 -0.649879 0.345875 0.279372 -0.279870 0.244754 0.206826 -0.656017 -0.888111 -0.097451 -0.890049 -0.013737 -0.568400 0.357327 -0.439259 -1.161874 0.667924 -0.157868 -0.218850 1.043969 0.684365 -0.083446 0.014120 1.258556 -0.744419 -0.368610 0.511368 0.237250 -1.340182 -0.360080 1.089347 -0.415733 -0.080070 -0.762512 -0.233588
DataFrame 0.278217 0.105053 -1.051338 0.293203 0.158098 0.154881 -0.183982 0.862671 -0.510711 -0.350640 -0.228592 0.147359 1.110125 -0.271248 -0.160478 -0.129701 -0.423880 -0.142090 -1.390389 0.274512 -0.144943 0.003271 -1.436247 -1.220087 -1.319949 -0.011208 0.162723 -0.139650 0.613559 -0.264332 -1.179167 0.703960 -0.567600 0.071917 1.432800 -0.068251 -0.044023 0.700180 -0.857512 -0.777270 -0.154611 -0.019885 0.324789 -0.542885 -0.685843 -0.569825 -0.522243 0.595660 -0.184545 -0.783983
lower -0.012341 0.229559 1.073664 -0.416724 0.139315 -0.223444 0.485198 0.522342 -0.457375 -0.128632 0.815119 -0.644768 -0.426148 -0.933779 -0.017933 -0.004293 -0.056104 -0.353724 0.215778 -0.443505 0.321607 -0.669195 -0.545112 0.784694 0.576181 0.679988 -1.248780 -0.655601 -0.840778 0.086014 -0.054776 -0.565816 -0.188199 -0.056808 0.735340 1.430393 1.026859 0.172684 0.531999 -0.677693 0.308268 -1.123844 0.398673 0.129571 -0.183419 -0.232149 -0.186229 -0.455742 -0.319576 0.129423
strptime -0.622037 0.104792 -0.470126 -0.855142 0.062524 -0.686737 -0.281696 -1.143858 1.189954 0.948875 0.964892 0.475905 1.364359 -0.314778 -0.402267 -0.632351 0.318385 0.181398 0.893537 -1.102839 0.634103 0.864750 -0.295815 0.236229 -0.589281 -0.619138 0.590865 0.712473 -0.240943 0.737763 0.578694 0.439111 -0.217520 -0.589004 0.366617 0.191751 -0.122871 0.093802 0.997032 0.155943 0.434874 0.555778 0.288330 -0.796383 -0.507302 -0.406544 -1.078428 0.590998 -0.115539 0.254080
<= 0.283021 -0.532802 0.637572 -0.516505 0.829179 0.273091 0.082281 0.273457 -0.716194 1.015221 0.869511 -0.774058 -0.957911 -0.472107 0.345507 -0.398659 -0.994380 0.013372 0.437829 -0.680389 -0.126827 0.167686 -0.950551 0.460851 0.590222 -0.556551 0.118689 -0.180728 0.458031 -0.545027 -0.566260 -0.130547 -0.050095 -0.177792 -0.708429 0.965623 0.245141 -0.115945 0.551942 -0.620063 -0.642284 1.437024 0.544931 -0.404491 0.596882 -0.010293 -1.469964 0.435666 0.416887 -0.153614
tuple -0.066561 -0.825217 -0.221315 0.395907 -0.132963 0.013435 -0.290255 0.255893 -0.403304 -0.787969 0.883921 0.165235 0.219546 -0.896942 0.151122 -0.123890 -0.133885 -0.098718 -0.102699 -0.596469 0.605147 -0.384306 -1.665370 -0.034840 0.278088 -0.077397 -0.637176 0.039270 -0.626927 -0.986709 0.124533 -1.326785 0.033591 0.287376 0.935574 -0.069483 0.874677 -0.613862 0.405674 -0.608266 -0.603607 0.157053 0.417723 -0.510380 -0.287105 0.148311 0.039909 0.961537 0.019604 -0.493899
next -0.179255 -0.684820 0.039362 0.253055 0.433400 0.052078 0.097145 0.934768 -0.392373 -0.798136 0.639765 -0.142371 0.431559 -0.859386 0.432670 -0.222288 -0.684202 -0.230661 -0.095351 -0.196927 0.770679 -0.245018 -0.722724 -0.605736 0.965886 -0.269323 -0.347213 -0.283519 -0.398939 -0.518577 0.388845 -0.559186 0.242652 0.300275 0.555425 0.512928 0.286474 -0.067421 -0.141168 -0.137738 -0.149944 -0.098240 0.572918 -0.340246 -0.574485 -0.221289 0.394039 0.668288 0.696843 -0.174683
parse 0.079164 -0.098829 -0.484102 -0.470741 -0.058190 -0.083059 -0.769405 0.026484 0.481818 0.726106 0.574153 0.790205 -0.077572 0.474384 -0.904250 0.171603 -0.413941 0.006558 -0.579528 -0.129465 1.228330 0.617265 0.143904 -0.789189 -0.423156 -0.505362 0.329534 -0.476400 -0.308606 -0.581950 0.586376 -0.024551 -0.352034 -0.395556 0.256997 -0.861818 -1.133253 0.466288 0.862770 -0.108357 0.460656 -0.455660 -0.152745 -0.447656 -0.769733 0.240784 -0.257071 -0.977868 -1.297843 0.326717
select -0.118208 -0.493257 -0.865912 -0.251038 -0.113924 0.951941 0.863445 -0.097254 -0.680544 0.417053 0.208879 -0.434812 -0.244598 0.128000 -0.933953 0.742136 -0.710209 0.103369 0.261113 0.198072 -1.288455 0.034583 -0.457142 0.025370 -0.440594 -0.725957 0.424095 0.614764 -0.346397 0.601618 0.489978 -0.105916 -0.593632 0.361306 -0.504671 -0.580178 0.147000 0.378564 0.303408 -0.987563 -0.138661 -0.766207 0.787727 -1.309815 -0.114481 -0.850023 -0.673580 -0.298434 -0.116350 -0.413586
var 0.687155 -1.400182 0.149983 0.099888 -0.164232 0.423975 0.530595 0.348270 -0.546855 -0.860275 0.001611 0.018124 -0.756081 0.680371 0.272268 -0.116701 -0.306709 -0.925825 0.343103 0.045833 -0.381568 -0.390395 0.460697 0.266028 0.425039 -1.201581 -0.813617 -0.986913 -1.076263 0.075554 0.365062 -0.422007 0.194136 -0.274498 -0.423581 -0.201867 0.185105 0.491763 -0.560497 -0.730725 -0.600397 0.076987 -0.038339 -0.858696 -0.157710 -0.555618 -0.229128 0.492620 0.023911 -0.123801
d 0.395421 0.441681 -0.139457 0.101377 1.093231 0.280777 0.763070 0.350531 -0.521518 0.885003 0.518448 0.514481 0.005280 -0.577950 0.367040 -0.074414 -1.001226 0.026997 -0.585955 -0.888187 -0.116538 0.541388 -0.202967 -0.585276 0.039656 -1.025492 -0.656003 0.312449 -0.582571 -0.259653 -1.600906 0.132114 0.371830 -0.002833 1.045600 0.089941 -0.120532 -0.205420 0.278040 -0.679195 -0.673347 -0.491470 0.336401 0.785520 -0.047395 -0.000039 1.718469 1.107507 -0.348696 -1.453550
call 0.148211 -0.596895 0.133975 -0.397878 0.368925 -0.175021 0.052937 -0.686897 -0.758603 0.066784 0.588988 -0.372622 -0.368678 -0.127923 -0.719824 -1.253115 -0.160527 0.199082 0.462911 -0.420745 -0.679824 0.749393 0.557704 0.210810 0.439220 -1.412902 -0.559978 0.655222 -0.704864 0.126641 0.587405 0.377156 0.464058 -0.875568 -0.033007 -0.831865 0.130311 -1.040610 -0.885694 0.166482 0.497570 -1.012630 0.393014 -1.380212 0.115526 -1.597512 0.271274 0.524437 0.079990 0.023151
encode -0.595493 0.016250 0.409955 -0.325069 -0.144184 -0.172041 0.301611 0.688613 0.583603 1.357038 0.710426 0.510539 0.873354 -0.331404 -0.470028 0.676167 0.278837 0.002888 0.464191 -0.725329 1.103458 -0.636257 -0.422311 0.356208 0.770574 -0.060968 -1.443820 -0.212066 0.729266 -0.138507 1.392804 -0.340388 -0.917474 -0.553630 0.333357 0.689685 -0.687206 0.597552 -0.106411 -0.867595 0.383566 -0.343452 -0.419488 0.062624 -0.456772 -0.567945 0.601269 -0.722810 -0.170281 1.344338
foo -0.161582 1.017177 0.008252 -0.524918 0.181313 0.533018 0.162532 0.434136 -1.438683 -0.245189 0.304185 -0.444260 -0.792232 0.403662 0.727208 0.659468 -1.242698 0.035517 0.242272 0.903914 -1.195383 -0.359504 -0.618758 -0.337167 0.081123 -0.275792 -0.536116 0.206363 -0.125501 -0.100903 0.560338 -0.254797 -0.332191 -0.475491 1.323317 -0.115954 -0.269183 0.152141 -0.550048 -0.513879 0.021896 -0.088011 0.240825 0.215576 -0.572230 -0.082837 0.426829 0.384141 0.374006 -0.432968
16 0.821226 -0.810015 -0.061396 -1.140034 0.022789 -0.381373 -0.272606 0.084730 0.320621 0.353558 -0.375573 0.213404 -0.716856 -0.559662 -0.115671 -0.427545 -0.221182 0.742510 0.183326 -0.980775 0.160195 0.299778 -0.232422 -0.154775 0.309748 -0.985028 -0.837374 -0.511197 0.401385 -1.009015 -0.441093 -0.262358 -0.412363 -0.800717 0.951945 1.110481 -0.245236 0.708437 0.671547 -0.652220 -0.381987 0.758981 -0.147191 -0.748662 0.667221 0.777057 0.058771 -0.004219 0.088522 -0.049333
any 0.533825 -0.581351 1.085940 0.280314 0.286147 0.863021 0.449667 0.671796 -0.957410 -0.024531 0.816752 -0.865404 -0.002441 -0.982449 0.784687 -0.423824 -0.842253 -0.499914 0.150128 -0.128119 0.654863 -0.074033 -0.388222 -0.056289 0.540052 0.020307 -0.485716 0.070600 -0.583877 0.265135 -0.143184 0.078070 -0.136165 0.237267 -0.377759 0.340547 0.893839 -0.104795 0.140789 -0.852701 -0.194523 -0.339057 0.750180 0.599100 -0.148383 -0.081216 -0.878302 0.553895 0.327956 -0.664887
to -0.353135 0.898734 0.149758 -0.256421 0.604731 0.870338 -0.138304 0.697694 0.201022 -0.028596 0.648572 -0.324429 -0.278474 -1.122312 0.157836 0.253888 -0.316571 -0.572761 -0.060648 -0.533254 -0.338233 -0.135522 1.000879 -0.221876 0.615418 0.757726 -0.030724 -0.634104 -0.845366 0.593178 -0.016854 -0.585619 -0.550447 -0.914653 0.596569 -1.421120 -0.495007 -0.299237 0.586033 -0.260436 0.580181 -0.454615 -0.206474 0.384051 0.493648 -0.116638 0.484285 -0.329692 0.701932 -0.522611
arange 1.210171 -0.905781 -0.768029 -0.442326 0.066842 0.016857 0.026678 0.491023 -0.143939 0.630891 -0.435943 0.021847 -0.491211 -0.772942 0.766382 -0.322973 0.053258 -0.091700 0.683047 -0.251096 0.732518 0.818465 -0.949420 -1.277574 0.128966 0.198961 0.101839 0.599892 1.144847 -0.531904 -1.296678 0.044007 -0.323411 0.657750 0.277701 0.455886 0.581215 0.981435 -0.155961 -0.861166 -0.251861 1.027402 0.170057 -0.093037 -0.284054 -0.418529 -0.307431 -0.244292 -0.917887 -0.029342
table -0.091797 -0.011425 -0.580934 -0.094681 0.153297 1.361740 0.967741 0.229645 -0.814514 -0.380602 0.150565 -0.411002 0.133427 -0.273336 -0.424394 0.275943 -0.136597 -0.600077 -0.113117 0.222568 -0.346333 -0.227051 -0.532193 0.110495 0.069815 -0.189308 0.651828 1.085305 0.090383 0.533412 0.302586 0.372294 0.174989 0.587429 -0.420648 -0.382709 0.521496 0.951241 0.728257 -0.511835 -0.734501 -0.326105 0.924595 -0.439656 -0.297608 -0.155533 -0.945476 -1.147596 -0.219155 -0.552742
timedelta 0.129708 -0.154905 -0.798505 -1.126283 -0.469286 0.032980 0.053992 -0.769260 1.227127 0.603913 1.205776 0.520737 0.081105 -0.132284 -0.868780 -0.376276 0.409177 -0.891625 0.891764 -0.475722 0.638575 0.631441 -0.953966 -0.208926 -0.609198 -0.727790 0.929521 0.181367 -0.220011 -0.250919 -0.642526 -0.332529 -0.112848 -0.064901 -0.015650 0.336248 -0.667553 -0.012891 1.337729 -0.205809 0.170477 1.009583 0.108682 -1.002504 0.131761 -0.288713 -1.981431 -0.389744 -0.705844 -0.127294
30 0.363759 -0.018242 -1.046142 -0.633157 1.210080 -0.161111 -0.477926 0.091126 -0.242404 0.058660 -0.911551 0.099484 0.411898 -0.369633 -0.309410 -0.349919 -0.346746 0.226650 0.734920 -0.120533 -0.697144 0.551617 -0.465406 -0.583710 0.476673 -0.825842 0.276595 0.030802 0.732269 -0.745574 -0.605359 0.575027 -0.401633 -0.035204 0.140567 0.788223 -0.320953 0.148000 0.839927 -0.216830 -0.287198 1.127145 0.432931 -1.236027 -0.079200 0.278442 -0.616772 -0.183989 -0.145712 -0.525368
matplotlib 1.265621 0.399568 -0.453271 -0.380065 -0.492982 0.705111 -1.200608 0.358273 -0.625267 -1.655841 0.477302 1.005121 0.235378 0.243189 -0.513826 -0.076237 -0.933216 0.808915 1.716359 -0.562289 -0.186994 0.143790 -0.221338 -0.726829 -0.198671 0.851348 0.686540 -0.362995 0.235883 0.159015 -0.192534 -0.034662 -0.746591 -0.027665 -0.197750 -0.223135 -0.512001 0.102357 -1.366051 -0.775393 0.865635 -0.012731 -0.069749 -0.900842 -0.598537 -1.326353 -0.688771 -0.768481 -0.735448 -0.243240
u 0.394880 -0.925461 0.810866 0.787263 0.611582 0.054271 -0.453752 0.208838 -0.021067 0.107025 0.404067 0.066049 -0.843008 -0.007942 -0.230046 0.467862 -0.459200 0.069101 0.705127 0.367786 0.974072 0.413620 -0.385826 0.191948 0.608466 -0.390527 -0.480456 -0.055501 -0.244208 -0.724905 -0.465720 -0.562660 -0.797474 -0.464054 -0.562819 -0.120197 -0.015342 -0.165171 0.402152 0.338205 0.093338 -0.435769 -0.056298 -0.569808 -0.241352 0.400054 0.282737 -1.252081 -0.089241 -0.914878
T -0.214285 -0.426417 -0.461414 -0.492948 0.410725 0.279883 0.579566 0.134931 0.048381 -0.127981 -0.042569 0.814291 -0.233175 -0.108725 -0.456842 -0.231783 -0.549752 0.030585 0.427346 0.288136 0.566399 -0.230313 -1.333782 -0.267468 -0.246182 -0.001900 -0.208162 0.861777 1.119061 -0.019452 -0.459142 0.013861 -0.978391 0.571349 0.398171 -0.696222 0.031144 0.483746 -1.317255 -0.011076 0.361604 0.546557 0.938958 -0.129786 -0.903904 -0.150933 -0.854537 -0.147445 -0.149094 0.104751
15 0.951185 -0.730598 -0.102454 -0.349640 0.177910 -0.249023 -0.818067 0.085354 -0.299444 0.559771 -0.704785 -0.279559 -1.122708 -0.840467 -0.165195 -0.118641 -0.471898 0.457434 0.292187 -0.321704 -0.320544 0.658692 -0.203079 -0.474492 0.028542 -0.638614 0.124611 -0.454485 0.289429 -0.734235 -0.687967 0.217531 -0.343378 -0.684693 0.608498 0.812685 -0.176741 0.194953 0.720315 -0.494601 -0.572764 0.829158 -0.270053 -1.162186 0.407260 0.859706 -0.431854 -0.297763 -0.122408 -0.264128
urlopen -0.037329 0.028669 -0.180235 -0.196250 0.243987 -0.127243 -0.640242 0.485972 0.431776 0.405593 0.661789 0.281689 0.011730 0.466094 -0.546238 0.594038 -0.496274 -0.394988 -0.003656 0.304969 0.789862 0.534209 0.055060 -0.558302 0.365565 -0.053357 -0.160807 -1.401084 -0.188330 -0.907025 1.696183 -1.097757 -0.390412 -0.659838 -0.258132 0.150445 -1.067586 1.095181 0.692208 0.505619 0.174571 -0.819643 -0.359800 -1.154118 -0.722343 -0.671505 -0.072978 -0.484086 -1.219690 0.285585
%s -0.366835 -0.525756 -0.182967 0.333274 -0.087788 1.213004 -0.950164 -1.355111 -0.575794 -0.565406 0.118251 0.350508 -0.229534 -1.738140 -0.094468 1.124082 -0.435918 -0.406265 0.502418 -0.506835 -0.707061 0.002402 0.481715 0.655826 0.025037 0.979323 -0.259910 1.195159 -0.326224 -0.245651 0.671116 -1.292159 -0.482413 -0.316477 0.177979 0.184850 0.527103 -0.117910 0.555812 0.124620 -0.025710 0.285297 0.071893 -0.655281 0.787507 -1.100588 0.397551 0.215578 0.066288 -0.509778
close -0.046898 0.051084 -0.228908 -0.163371 1.045131 -0.563805 -0.285606 0.517155 -0.266564 -0.806408 0.298217 -0.232165 -0.153694 -0.839962 -0.439809 -0.616447 -0.463252 -0.467617 0.135644 -0.484544 0.296967 -0.067128 -0.017771 -0.379324 0.349562 -0.309201 -0.571122 -0.352032 0.168514 0.393754 0.771446 -0.103604 0.280232 -0.473874 0.651291 -0.166068 -0.059744 1.395130 -0.119075 0.026071 0.136804 -0.571005 0.369000 -0.550734 -0.466108 -1.175518 -0.055986 -0.208309 0.182944 0.671299
pandas 0.879414 0.320636 -0.498456 0.176036 -0.640130 0.270291 -0.206704 0.835523 0.148627 -0.707708 0.252160 0.316737 1.099066 -0.195254 -0.363793 -0.886858 -0.685323 0.306805 -0.911443 -0.127254 0.354091 0.457455 -0.947181 -1.235820 -1.140587 0.292187 0.522945 0.075215 0.544153 -0.233912 -0.509449 1.182269 -0.529594 -0.266361 0.948292 0.023904 -0.290229 0.618684 -1.556764 -0.578631 0.038269 -0.255302 -0.162363 -0.554545 -0.702438 -1.049506 -1.230250 0.155709 -0.018938 -0.214842
x 0.183376 0.666312 -0.549967 -0.541745 0.514990 0.194243 0.168562 0.120603 -0.649930 0.190985 0.840261 -0.754702 0.592333 0.261822 -0.099794 0.267728 -0.843019 0.176000 -0.599403 -0.180789 -0.850867 -0.060786 -0.617707 -0.133449 -0.657804 -0.530623 -0.419893 0.379316 0.203581 -0.216298 -0.626958 -0.017814 -0.043467 -0.167139 0.754858 1.784691 -0.440379 0.210011 0.219596 0.078355 -0.150223 0.147023 0.672253 0.531868 -0.035140 -0.095257 -0.040116 0.660008 0.248041 -1.004056
stdin -0.301707 -0.692969 0.200083 -0.689261 0.869681 -0.746070 0.476558 0.450332 0.255549 -0.450386 0.327443 -0.258638 -0.315185 -0.617580 -0.350845 -0.931722 -0.405410 -0.582949 0.101944 -0.183380 0.108298 0.614351 0.837401 -0.291180 0.529568 -1.100815 -0.469717 -0.209086 0.161348 0.511081 0.795775 0.074191 0.306500 -1.405600 -0.149452 -0.162654 0.308404 1.408627 -0.393417 0.143302 -0.423218 -0.996937 0.146732 -1.028798 0.219095 -2.038636 0.891006 0.330731 0.284874 0.681123
save 0.385382 0.533405 -0.185890 -0.285078 0.233128 0.152276 0.195966 0.783956 -0.097442 -0.219675 0.366750 0.125832 -0.649136 -0.432238 0.169540 -0.088663 -0.121865 -0.887006 0.682175 0.627143 0.131629 0.001743 -0.227175 -0.966249 0.398936 -0.015252 0.522653 0.015058 -0.194757 -0.364690 1.184190 -1.026789 -0.353614 -0.570722 0.092087 -0.730611 0.126945 0.068521 0.275683 0.060294 0.213483 -0.004305 -0.547894 0.036297 -0.681265 -0.578413 -0.215044 -0.314067 0.929215 0.170632
strftime -0.348039 0.150377 -0.000566 -0.585141 -0.032071 -0.435367 -0.685645 -1.034840 0.965839 0.439983 0.463274 0.523811 1.568270 -0.692766 -0.230077 -0.119607 0.428864 0.004792 0.738410 -1.284921 0.725778 0.113552 0.228502 0.513238 -0.121114 0.008405 0.076514 0.476024 0.216782 0.676091 0.590471 0.475547 -0.338884 -0.578750 0.048299 0.211402 0.130856 0.348690 0.292395 -0.327227 0.798873 0.778377 0.041064 -0.830825 -0.236995 -0.190536 -1.464346 0.260259 0.131255 0.721344
